FANN_FLO_2.1
num_layers=3
learning_rate=0.700000
connection_rate=1.000000
network_type=0
learning_momentum=0.000000
training_algorithm=2
train_error_function=1
train_stop_function=0
cascade_output_change_fraction=0.010000
quickprop_decay=-0.000100
quickprop_mu=1.750000
rprop_increase_factor=1.200000
rprop_decrease_factor=0.500000
rprop_delta_min=0.000000
rprop_delta_max=50.000000
rprop_delta_zero=0.100000
cascade_output_stagnation_epochs=12
cascade_candidate_change_fraction=0.010000
cascade_candidate_stagnation_epochs=12
cascade_max_out_epochs=150
cascade_min_out_epochs=50
cascade_max_cand_epochs=150
cascade_min_cand_epochs=50
cascade_num_candidate_groups=2
bit_fail_limit=3.49999994039535522461e-01
cascade_candidate_limit=1.00000000000000000000e+03
cascade_weight_multiplier=4.00000005960464477539e-01
cascade_activation_functions_count=10
cascade_activation_functions=3 5 7 8 10 11 14 15 16 17 
cascade_activation_steepnesses_count=4
cascade_activation_steepnesses=2.50000000000000000000e-01 5.00000000000000000000e-01 7.50000000000000000000e-01 1.00000000000000000000e+00 
layer_sizes=51 101 26 
scale_included=0
neurons (num_inputs, activation_function, activation_steepness)=(0, 0, 0.00000000000000000000e+00) (0, 0, 0.00000000000000000000e+00) (0, 0, 0.00000000000000000000e+00) (0, 0, 0.00000000000000000000e+00) (0, 0, 0.00000000000000000000e+00) (0, 0, 0.00000000000000000000e+00) (0, 0, 0.00000000000000000000e+00) (0, 0, 0.00000000000000000000e+00) (0, 0, 0.00000000000000000000e+00) (0, 0, 0.00000000000000000000e+00) (0, 0, 0.00000000000000000000e+00) (0, 0, 0.00000000000000000000e+00) (0, 0, 0.00000000000000000000e+00) (0, 0, 0.00000000000000000000e+00) (0, 0, 0.00000000000000000000e+00) (0, 0, 0.00000000000000000000e+00) (0, 0, 0.00000000000000000000e+00) (0, 0, 0.00000000000000000000e+00) (0, 0, 0.00000000000000000000e+00) (0, 0, 0.00000000000000000000e+00) (0, 0, 0.00000000000000000000e+00) (0, 0, 0.00000000000000000000e+00) (0, 0, 0.00000000000000000000e+00) (0, 0, 0.00000000000000000000e+00) (0, 0, 0.00000000000000000000e+00) (0, 0, 0.00000000000000000000e+00) (0, 0, 0.00000000000000000000e+00) (0, 0, 0.00000000000000000000e+00) (0, 0, 0.00000000000000000000e+00) (0, 0, 0.00000000000000000000e+00) (0, 0, 0.00000000000000000000e+00) (0, 0, 0.00000000000000000000e+00) (0, 0, 0.00000000000000000000e+00) (0, 0, 0.00000000000000000000e+00) (0, 0, 0.00000000000000000000e+00) (0, 0, 0.00000000000000000000e+00) (0, 0, 0.00000000000000000000e+00) (0, 0, 0.00000000000000000000e+00) (0, 0, 0.00000000000000000000e+00) (0, 0, 0.00000000000000000000e+00) (0, 0, 0.00000000000000000000e+00) (0, 0, 0.00000000000000000000e+00) (0, 0, 0.00000000000000000000e+00) (0, 0, 0.00000000000000000000e+00) (0, 0, 0.00000000000000000000e+00) (0, 0, 0.00000000000000000000e+00) (0, 0, 0.00000000000000000000e+00) (0, 0, 0.00000000000000000000e+00) (0, 0, 0.00000000000000000000e+00) (0, 0, 0.00000000000000000000e+00) (0, 0, 0.00000000000000000000e+00) (51, 5, 5.00000000000000000000e-01) (51, 5, 5.00000000000000000000e-01) (51, 5, 5.00000000000000000000e-01) (51, 5, 5.00000000000000000000e-01) (51, 5, 5.00000000000000000000e-01) (51, 5, 5.00000000000000000000e-01) (51, 5, 5.00000000000000000000e-01) (51, 5, 5.00000000000000000000e-01) (51, 5, 5.00000000000000000000e-01) (51, 5, 5.00000000000000000000e-01) (51, 5, 5.00000000000000000000e-01) (51, 5, 5.00000000000000000000e-01) (51, 5, 5.00000000000000000000e-01) (51, 5, 5.00000000000000000000e-01) (51, 5, 5.00000000000000000000e-01) (51, 5, 5.00000000000000000000e-01) (51, 5, 5.00000000000000000000e-01) (51, 5, 5.00000000000000000000e-01) (51, 5, 5.00000000000000000000e-01) (51, 5, 5.00000000000000000000e-01) (51, 5, 5.00000000000000000000e-01) (51, 5, 5.00000000000000000000e-01) (51, 5, 5.00000000000000000000e-01) (51, 5, 5.00000000000000000000e-01) (51, 5, 5.00000000000000000000e-01) (51, 5, 5.00000000000000000000e-01) (51, 5, 5.00000000000000000000e-01) (51, 5, 5.00000000000000000000e-01) (51, 5, 5.00000000000000000000e-01) (51, 5, 5.00000000000000000000e-01) (51, 5, 5.00000000000000000000e-01) (51, 5, 5.00000000000000000000e-01) (51, 5, 5.00000000000000000000e-01) (51, 5, 5.00000000000000000000e-01) (51, 5, 5.00000000000000000000e-01) (51, 5, 5.00000000000000000000e-01) (51, 5, 5.00000000000000000000e-01) (51, 5, 5.00000000000000000000e-01) (51, 5, 5.00000000000000000000e-01) (51, 5, 5.00000000000000000000e-01) (51, 5, 5.00000000000000000000e-01) (51, 5, 5.00000000000000000000e-01) (51, 5, 5.00000000000000000000e-01) (51, 5, 5.00000000000000000000e-01) (51, 5, 5.00000000000000000000e-01) (51, 5, 5.00000000000000000000e-01) (51, 5, 5.00000000000000000000e-01) (51, 5, 5.00000000000000000000e-01) (51, 5, 5.00000000000000000000e-01) (51, 5, 5.00000000000000000000e-01) (51, 5, 5.00000000000000000000e-01) (51, 5, 5.00000000000000000000e-01) (51, 5, 5.00000000000000000000e-01) (51, 5, 5.00000000000000000000e-01) (51, 5, 5.00000000000000000000e-01) (51, 5, 5.00000000000000000000e-01) (51, 5, 5.00000000000000000000e-01) (51, 5, 5.00000000000000000000e-01) (51, 5, 5.00000000000000000000e-01) (51, 5, 5.00000000000000000000e-01) (51, 5, 5.00000000000000000000e-01) (51, 5, 5.00000000000000000000e-01) (51, 5, 5.00000000000000000000e-01) (51, 5, 5.00000000000000000000e-01) (51, 5, 5.00000000000000000000e-01) (51, 5, 5.00000000000000000000e-01) (51, 5, 5.00000000000000000000e-01) (51, 5, 5.00000000000000000000e-01) (51, 5, 5.00000000000000000000e-01) (51, 5, 5.00000000000000000000e-01) (51, 5, 5.00000000000000000000e-01) (51, 5, 5.00000000000000000000e-01) (51, 5, 5.00000000000000000000e-01) (51, 5, 5.00000000000000000000e-01) (51, 5, 5.00000000000000000000e-01) (51, 5, 5.00000000000000000000e-01) (51, 5, 5.00000000000000000000e-01) (51, 5, 5.00000000000000000000e-01) (51, 5, 5.00000000000000000000e-01) (51, 5, 5.00000000000000000000e-01) (51, 5, 5.00000000000000000000e-01) (51, 5, 5.00000000000000000000e-01) (51, 5, 5.00000000000000000000e-01) (51, 5, 5.00000000000000000000e-01) (51, 5, 5.00000000000000000000e-01) (51, 5, 5.00000000000000000000e-01) (51, 5, 5.00000000000000000000e-01) (51, 5, 5.00000000000000000000e-01) (51, 5, 5.00000000000000000000e-01) (51, 5, 5.00000000000000000000e-01) (51, 5, 5.00000000000000000000e-01) (51, 5, 5.00000000000000000000e-01) (51, 5, 5.00000000000000000000e-01) (51, 5, 5.00000000000000000000e-01) (51, 5, 5.00000000000000000000e-01) (51, 5, 5.00000000000000000000e-01) (51, 5, 5.00000000000000000000e-01) (51, 5, 5.00000000000000000000e-01) (51, 5, 5.00000000000000000000e-01) (51, 5, 5.00000000000000000000e-01) (0, 5, 0.00000000000000000000e+00) (101, 5, 5.00000000000000000000e-01) (101, 5, 5.00000000000000000000e-01) (101, 5, 5.00000000000000000000e-01) (101, 5, 5.00000000000000000000e-01) (101, 5, 5.00000000000000000000e-01) (101, 5, 5.00000000000000000000e-01) (101, 5, 5.00000000000000000000e-01) (101, 5, 5.00000000000000000000e-01) (101, 5, 5.00000000000000000000e-01) (101, 5, 5.00000000000000000000e-01) (101, 5, 5.00000000000000000000e-01) (101, 5, 5.00000000000000000000e-01) (101, 5, 5.00000000000000000000e-01) (101, 5, 5.00000000000000000000e-01) (101, 5, 5.00000000000000000000e-01) (101, 5, 5.00000000000000000000e-01) (101, 5, 5.00000000000000000000e-01) (101, 5, 5.00000000000000000000e-01) (101, 5, 5.00000000000000000000e-01) (101, 5, 5.00000000000000000000e-01) (101, 5, 5.00000000000000000000e-01) (101, 5, 5.00000000000000000000e-01) (101, 5, 5.00000000000000000000e-01) (101, 5, 5.00000000000000000000e-01) (101, 5, 5.00000000000000000000e-01) (0, 5, 0.00000000000000000000e+00) 
connections (connected_to_neuron, weight)=(0, 5.66522865295410156250e+01) (1, 5.66675300598144531250e+01) (2, 5.66842231750488281250e+01) (3, 5.65839118957519531250e+01) (4, 5.67245140075683593750e+01) (5, 5.66168022155761718750e+01) (6, 5.65983390808105468750e+01) (7, 5.65764808654785156250e+01) (8, 5.66799583435058593750e+01) (9, 5.67374000549316406250e+01) (10, 5.67168083190917968750e+01) (11, 5.66572990417480468750e+01) (12, 5.66979789733886718750e+01) (13, 5.65944709777832031250e+01) (14, 5.67344627380371093750e+01) (15, 5.66708488464355468750e+01) (16, 5.65581398010253906250e+01) (17, 5.66103248596191406250e+01) (18, 5.66013221740722656250e+01) (19, 5.66163978576660156250e+01) (20, 5.66147117614746093750e+01) (21, 5.65660743713378906250e+01) (22, 5.65425376892089843750e+01) (23, 5.66131706237792968750e+01) (24, 5.66261024475097656250e+01) (25, 5.65380744934082031250e+01) (26, 5.65739784240722656250e+01) (27, 5.65784111022949218750e+01) (28, 5.66457862854003906250e+01) (29, 5.66504402160644531250e+01) (30, 5.65699424743652343750e+01) (31, 5.66495552062988281250e+01) (32, 5.66806526184082031250e+01) (33, 5.67247428894042968750e+01) (34, 5.66388587951660156250e+01) (35, 5.66818428039550781250e+01) (36, 5.67233161926269531250e+01) (37, 5.66082420349121093750e+01) (38, 5.66636161804199218750e+01) (39, 5.66525077819824218750e+01) (40, 5.66644172668457031250e+01) (41, 5.66619453430175781250e+01) (42, 5.65624732971191406250e+01) (43, 5.67029228210449218750e+01) (44, 5.66912803649902343750e+01) (45, 5.65896034240722656250e+01) (46, 5.67270393371582031250e+01) (47, 5.66498451232910156250e+01) (48, 5.66791496276855468750e+01) (49, 5.66890068054199218750e+01) (50, 3.81818115711212158203e-01) (0, 5.66970252990722656250e+01) (1, 5.65812568664550781250e+01) (2, 5.67068061828613281250e+01) (3, 5.66023063659667968750e+01) (4, 5.65785560607910156250e+01) (5, 5.67239723205566406250e+01) (6, 5.65780754089355468750e+01) (7, 5.67063255310058593750e+01) (8, 5.66650123596191406250e+01) (9, 5.66132392883300781250e+01) (10, 5.66319084167480468750e+01) (11, 5.66771430969238281250e+01) (12, 5.66637687683105468750e+01) (13, 5.65586738586425781250e+01) (14, 5.65442848205566406250e+01) (15, 5.65724983215332031250e+01) (16, 5.66447257995605468750e+01) (17, 5.67214012145996093750e+01) (18, 5.66194190979003906250e+01) (19, 5.66169242858886718750e+01) (20, 5.66226310729980468750e+01) (21, 5.66920127868652343750e+01) (22, 5.66809272766113281250e+01) (23, 5.66533775329589843750e+01) (24, 5.66273384094238281250e+01) (25, 5.66048698425292968750e+01) (26, 5.65539512634277343750e+01) (27, 5.66217308044433593750e+01) (28, 5.66931877136230468750e+01) (29, 5.66949577331542968750e+01) (30, 5.66196022033691406250e+01) (31, 5.66205711364746093750e+01) (32, 5.66987724304199218750e+01) (33, 5.67035636901855468750e+01) (34, 5.66228675842285156250e+01) (35, 5.66083488464355468750e+01) (36, 5.66883354187011718750e+01) (37, 5.66390113830566406250e+01) (38, 5.66153602600097656250e+01) (39, 5.67003211975097656250e+01) (40, 5.66061058044433593750e+01) (41, 5.66988639831542968750e+01) (42, 5.66139640808105468750e+01) (43, 5.67173423767089843750e+01) (44, 5.66746940612792968750e+01) (45, 5.66594581604003906250e+01) (46, 5.66568794250488281250e+01) (47, 5.65429954528808593750e+01) (48, 5.65489845275878906250e+01) (49, 5.65395088195800781250e+01) (50, 2.42371872067451477051e-01) (0, 5.65450477600097656250e+01) (1, 5.66765327453613281250e+01) (2, 5.66436500549316406250e+01) (3, 5.66016197204589843750e+01) (4, 5.66176643371582031250e+01) (5, 5.65960121154785156250e+01) (6, 5.65923194885253906250e+01) (7, 5.66768302917480468750e+01) (8, 5.67006111145019531250e+01) (9, 5.66046638488769531250e+01) (10, 5.66442985534667968750e+01) (11, 5.67359428405761718750e+01) (12, 5.67315864562988281250e+01) (13, 5.67262001037597656250e+01) (14, 5.67179832458496093750e+01) (15, 5.65551414489746093750e+01) (16, 5.66880531311035156250e+01) (17, 5.66103477478027343750e+01) (18, 5.66177711486816406250e+01) (19, 5.65603370666503906250e+01) (20, 5.66747627258300781250e+01) (21, 5.66952934265136718750e+01) (22, 5.66718330383300781250e+01) (23, 5.65390434265136718750e+01) (24, 5.67132453918457031250e+01) (25, 5.66642265319824218750e+01) (26, 5.66873435974121093750e+01) (27, 5.65994911193847656250e+01) (28, 5.65894660949707031250e+01) (29, 5.67272758483886718750e+01) (30, 5.66296501159667968750e+01) (31, 5.65582313537597656250e+01) (32, 5.66159858703613281250e+01) (33, 5.65601692199707031250e+01) (34, 5.67314796447753906250e+01) (35, 5.66375389099121093750e+01) (36, 5.66647758483886718750e+01) (37, 5.66306800842285156250e+01) (38, 5.66384315490722656250e+01) (39, 5.66537818908691406250e+01) (40, 5.67270240783691406250e+01) (41, 5.65442695617675781250e+01) (42, 5.66971321105957031250e+01) (43, 5.65781288146972656250e+01) (44, 5.65560951232910156250e+01) (45, 5.65400810241699218750e+01) (46, 5.65921592712402343750e+01) (47, 5.66507301330566406250e+01) (48, 5.66500587463378906250e+01) (49, 5.65686607360839843750e+01) (50, 3.79116952419281005859e-01) (0, 5.67296485900878906250e+01) (1, 5.67297096252441406250e+01) (2, 5.66824378967285156250e+01) (3, 5.67326011657714843750e+01) (4, 5.66558265686035156250e+01) (5, 5.65688056945800781250e+01) (6, 5.65704689025878906250e+01) (7, 5.66779289245605468750e+01) (8, 5.67153358459472656250e+01) (9, 5.67322731018066406250e+01) (10, 5.65685157775878906250e+01) (11, 5.66750831604003906250e+01) (12, 5.65801124572753906250e+01) (13, 5.66790275573730468750e+01) (14, 5.65757331848144531250e+01) (15, 5.66989173889160156250e+01) (16, 5.66084632873535156250e+01) (17, 5.65853843688964843750e+01) (18, 5.66093177795410156250e+01) (19, 5.65592689514160156250e+01) (20, 5.66866188049316406250e+01) (21, 5.65455360412597656250e+01) (22, 5.66282615661621093750e+01) (23, 5.65546913146972656250e+01) (24, 5.66924858093261718750e+01) (25, 5.67050971984863281250e+01) (26, 5.65574684143066406250e+01) (27, 5.67249641418457031250e+01) (28, 5.65630073547363281250e+01) (29, 5.65842475891113281250e+01) (30, 5.65435829162597656250e+01) (31, 5.66088218688964843750e+01) (32, 5.66461982727050781250e+01) (33, 5.65464515686035156250e+01) (34, 5.65736274719238281250e+01) (35, 5.67128410339355468750e+01) (36, 5.67192420959472656250e+01) (37, 5.66692314147949218750e+01) (38, 5.66878395080566406250e+01) (39, 5.65980567932128906250e+01) (40, 5.65538673400878906250e+01) (41, 5.65730247497558593750e+01) (42, 5.67178764343261718750e+01) (43, 5.65902976989746093750e+01) (44, 5.66102027893066406250e+01) (45, 5.66646690368652343750e+01) (46, 5.65816688537597656250e+01) (47, 5.66206169128417968750e+01) (48, 5.65404243469238281250e+01) (49, 5.65514106750488281250e+01) (50, 4.07241940498352050781e-01) (0, 5.66021614074707031250e+01) (1, 5.66833992004394531250e+01) (2, 5.66819801330566406250e+01) (3, 5.67291603088378906250e+01) (4, 5.66494255065917968750e+01) (5, 5.66316184997558593750e+01) (6, 5.65708122253417968750e+01) (7, 5.66516532897949218750e+01) (8, 5.65465202331542968750e+01) (9, 5.66515998840332031250e+01) (10, 5.66617851257324218750e+01) (11, 5.66717033386230468750e+01) (12, 5.65704154968261718750e+01) (13, 5.66391334533691406250e+01) (14, 5.65875511169433593750e+01) (15, 5.66312294006347656250e+01) (16, 5.66755180358886718750e+01) (17, 5.65904655456542968750e+01) (18, 5.66809654235839843750e+01) (19, 5.66669502258300781250e+01) (20, 5.65458412170410156250e+01) (21, 5.66707954406738281250e+01) (22, 5.66945838928222656250e+01) (23, 5.66767692565917968750e+01) (24, 5.67210502624511718750e+01) (25, 5.66612586975097656250e+01) (26, 5.65846900939941406250e+01) (27, 5.65926780700683593750e+01) (28, 5.67024955749511718750e+01) (29, 5.66656913757324218750e+01) (30, 5.67160301208496093750e+01) (31, 5.65916709899902343750e+01) (32, 5.66456565856933593750e+01) (33, 5.66584358215332031250e+01) (34, 5.65434379577636718750e+01) (35, 5.66757164001464843750e+01) (36, 5.65450706481933593750e+01) (37, 5.65543479919433593750e+01) (38, 5.67267417907714843750e+01) (39, 5.65521812438964843750e+01) (40, 5.67182197570800781250e+01) (41, 5.65823707580566406250e+01) (42, 5.67350502014160156250e+01) (43, 5.66458473205566406250e+01) (44, 5.66943626403808593750e+01) (45, 5.66438636779785156250e+01) (46, 5.66967964172363281250e+01) (47, 5.65738334655761718750e+01) (48, 5.67147941589355468750e+01) (49, 5.66369438171386718750e+01) (50, 3.40234875679016113281e-01) (0, 5.67147026062011718750e+01) (1, 5.65506019592285156250e+01) (2, 5.66280937194824218750e+01) (3, 5.66610527038574218750e+01) (4, 5.66028633117675781250e+01) (5, 5.66443443298339843750e+01) (6, 5.66522636413574218750e+01) (7, 5.67321052551269531250e+01) (8, 5.65797080993652343750e+01) (9, 5.66817131042480468750e+01) (10, 5.66227912902832031250e+01) (11, 5.66136589050292968750e+01) (12, 5.66325874328613281250e+01) (13, 5.65995750427246093750e+01) (14, 5.67322807312011718750e+01) (15, 5.66182365417480468750e+01) (16, 5.66529426574707031250e+01) (17, 5.67365989685058593750e+01) (18, 5.66257667541503906250e+01) (19, 5.67276039123535156250e+01) (20, 5.66448249816894531250e+01) (21, 5.67326774597167968750e+01) (22, 5.67274360656738281250e+01) (23, 5.67376823425292968750e+01) (24, 5.67150688171386718750e+01) (25, 5.66834373474121093750e+01) (26, 5.66020317077636718750e+01) (27, 5.66992378234863281250e+01) (28, 5.65763053894042968750e+01) (29, 5.65561180114746093750e+01) (30, 5.67323570251464843750e+01) (31, 5.67104682922363281250e+01) (32, 5.65942192077636718750e+01) (33, 5.65729408264160156250e+01) (34, 5.65939674377441406250e+01) (35, 5.66178016662597656250e+01) (36, 5.67100791931152343750e+01) (37, 5.65684242248535156250e+01) (38, 5.66084785461425781250e+01) (39, 5.66811790466308593750e+01) (40, 5.66699562072753906250e+01) (41, 5.66266517639160156250e+01) (42, 5.66564979553222656250e+01) (43, 5.65599784851074218750e+01) (44, 5.66918907165527343750e+01) (45, 5.66049842834472656250e+01) (46, 5.67317314147949218750e+01) (47, 5.66759757995605468750e+01) (48, 5.66021003723144531250e+01) (49, 5.66502189636230468750e+01) (50, 4.05725628137588500977e-01) (0, 5.67093925476074218750e+01) (1, 5.65716438293457031250e+01) (2, 5.67137641906738281250e+01) (3, 5.65651664733886718750e+01) (4, 5.66845817565917968750e+01) (5, 5.66847038269042968750e+01) (6, 5.65716743469238281250e+01) (7, 5.66615409851074218750e+01) (8, 5.66011695861816406250e+01) (9, 5.66697502136230468750e+01) (10, 5.65561866760253906250e+01) (11, 5.66566200256347656250e+01) (12, 5.66673927307128906250e+01) (13, 5.66248970031738281250e+01) (14, 5.67047233581542968750e+01) (15, 5.65428886413574218750e+01) (16, 5.66914482116699218750e+01) (17, 5.66685676574707031250e+01) (18, 5.67328071594238281250e+01) (19, 5.66613883972167968750e+01) (20, 5.66874351501464843750e+01) (21, 5.65468711853027343750e+01) (22, 5.67370109558105468750e+01) (23, 5.66178474426269531250e+01) (24, 5.66519203186035156250e+01) (25, 5.67288093566894531250e+01) (26, 5.66341896057128906250e+01) (27, 5.65898551940917968750e+01) (28, 5.65674476623535156250e+01) (29, 5.66207008361816406250e+01) (30, 5.66434211730957031250e+01) (31, 5.67062797546386718750e+01) (32, 5.65893592834472656250e+01) (33, 5.66309165954589843750e+01) (34, 5.66166191101074218750e+01) (35, 5.66801872253417968750e+01) (36, 5.66718864440917968750e+01) (37, 5.67163124084472656250e+01) (38, 5.67243614196777343750e+01) (39, 5.65765419006347656250e+01) (40, 5.65901527404785156250e+01) (41, 5.65415077209472656250e+01) (42, 5.67029228210449218750e+01) (43, 5.66959342956542968750e+01) (44, 5.66139564514160156250e+01) (45, 5.66823616027832031250e+01) (46, 5.65690193176269531250e+01) (47, 5.66555671691894531250e+01) (48, 5.65898475646972656250e+01) (49, 5.66047630310058593750e+01) (50, 3.96741241216659545898e-01) (0, 5.66487388610839843750e+01) (1, 5.66876411437988281250e+01) (2, 5.66501426696777343750e+01) (3, 5.65436592102050781250e+01) (4, 5.65640983581542968750e+01) (5, 5.65676383972167968750e+01) (6, 5.65588111877441406250e+01) (7, 5.66907691955566406250e+01) (8, 5.65459632873535156250e+01) (9, 5.66247673034667968750e+01) (10, 5.65624961853027343750e+01) (11, 5.66049079895019531250e+01) (12, 5.66768074035644531250e+01) (13, 5.66659660339355468750e+01) (14, 5.65771903991699218750e+01) (15, 5.66276206970214843750e+01) (16, 5.65633583068847656250e+01) (17, 5.66769905090332031250e+01) (18, 5.67277336120605468750e+01) (19, 5.66380271911621093750e+01) (20, 5.67074317932128906250e+01) (21, 5.66349754333496093750e+01) (22, 5.67351951599121093750e+01) (23, 5.66155433654785156250e+01) (24, 5.66427192687988281250e+01) (25, 5.66228599548339843750e+01) (26, 5.65984916687011718750e+01) (27, 5.67201881408691406250e+01) (28, 5.67189598083496093750e+01) (29, 5.66021003723144531250e+01) (30, 5.67013130187988281250e+01) (31, 5.66967048645019531250e+01) (32, 5.67145195007324218750e+01) (33, 5.66998100280761718750e+01) (34, 5.65757179260253906250e+01) (35, 5.67087821960449218750e+01) (36, 5.65587882995605468750e+01) (37, 5.65665702819824218750e+01) (38, 5.66536369323730468750e+01) (39, 5.66095237731933593750e+01) (40, 5.65455970764160156250e+01) (41, 5.66612510681152343750e+01) (42, 5.66375007629394531250e+01) (43, 5.65546607971191406250e+01) (44, 5.67188682556152343750e+01) (45, 5.66189613342285156250e+01) (46, 5.66212501525878906250e+01) (47, 5.65643806457519531250e+01) (48, 5.66118125915527343750e+01) (49, 5.65585365295410156250e+01) (50, -1.67227745056152343750e-01) (0, 5.65404472351074218750e+01) (1, 5.66208534240722656250e+01) (2, 5.66856880187988281250e+01) (3, 5.66506538391113281250e+01) (4, 5.65444602966308593750e+01) (5, 5.65956535339355468750e+01) (6, 5.66480598449707031250e+01) (7, 5.65614356994628906250e+01) (8, 5.66438179016113281250e+01) (9, 5.67262763977050781250e+01) (10, 5.65985755920410156250e+01) (11, 5.65971488952636718750e+01) (12, 5.67314872741699218750e+01) (13, 5.67089729309082031250e+01) (14, 5.66232109069824218750e+01) (15, 5.66758079528808593750e+01) (16, 5.66257667541503906250e+01) (17, 5.66716880798339843750e+01) (18, 5.66893959045410156250e+01) (19, 5.65412635803222656250e+01) (20, 5.66565284729003906250e+01) (21, 5.66405754089355468750e+01) (22, 5.65714759826660156250e+01) (23, 5.66119804382324218750e+01) (24, 5.66438865661621093750e+01) (25, 5.66288185119628906250e+01) (26, 5.67093315124511718750e+01) (27, 5.66301536560058593750e+01) (28, 5.66757926940917968750e+01) (29, 5.67289009094238281250e+01) (30, 5.66564216613769531250e+01) (31, 5.65425148010253906250e+01) (32, 5.65906715393066406250e+01) (33, 5.66897315979003906250e+01) (34, 5.66735954284667968750e+01) (35, 5.65440025329589843750e+01) (36, 5.65713768005371093750e+01) (37, 5.65596885681152343750e+01) (38, 5.67247657775878906250e+01) (39, 5.67155799865722656250e+01) (40, 5.65567665100097656250e+01) (41, 5.66769981384277343750e+01) (42, 5.66308937072753906250e+01) (43, 5.65874366760253906250e+01) (44, 5.66770591735839843750e+01) (45, 5.65886039733886718750e+01) (46, 5.66383628845214843750e+01) (47, 5.66588478088378906250e+01) (48, 5.66192893981933593750e+01) (49, 5.65788230895996093750e+01) (50, -2.02231377363204956055e-01) (0, 5.66059150695800781250e+01) (1, 5.67290992736816406250e+01) (2, 5.65889472961425781250e+01) (3, 5.67312736511230468750e+01) (4, 5.66084327697753906250e+01) (5, 5.65550727844238281250e+01) (6, 5.66092262268066406250e+01) (7, 5.65793113708496093750e+01) (8, 5.67271766662597656250e+01) (9, 5.66419715881347656250e+01) (10, 5.67242546081542968750e+01) (11, 5.65917854309082031250e+01) (12, 5.65627784729003906250e+01) (13, 5.66789665222167968750e+01) (14, 5.66931953430175781250e+01) (15, 5.67112388610839843750e+01) (16, 5.67275810241699218750e+01) (17, 5.66092262268066406250e+01) (18, 5.66459770202636718750e+01) (19, 5.65694313049316406250e+01) (20, 5.65615425109863281250e+01) (21, 5.66071205139160156250e+01) (22, 5.65768165588378906250e+01) (23, 5.67319145202636718750e+01) (24, 5.66235771179199218750e+01) (25, 5.67291908264160156250e+01) (26, 5.66161537170410156250e+01) (27, 5.66070289611816406250e+01) (28, 5.65895423889160156250e+01) (29, 5.65452461242675781250e+01) (30, 5.65624656677246093750e+01) (31, 5.65756263732910156250e+01) (32, 5.66880760192871093750e+01) (33, 5.65557823181152343750e+01) (34, 5.66550331115722656250e+01) (35, 5.65977287292480468750e+01) (36, 5.67056312561035156250e+01) (37, 5.67019309997558593750e+01) (38, 5.66689491271972656250e+01) (39, 5.66523857116699218750e+01) (40, 5.66918601989746093750e+01) (41, 5.65743064880371093750e+01) (42, 5.67137489318847656250e+01) (43, 5.66670188903808593750e+01) (44, 5.65966300964355468750e+01) (45, 5.66268806457519531250e+01) (46, 5.66166496276855468750e+01) (47, 5.66924247741699218750e+01) (48, 5.65699958801269531250e+01) (49, 5.66022071838378906250e+01) (50, -3.09353582561016082764e-02) (0, 5.65797538757324218750e+01) (1, 5.65562171936035156250e+01) (2, 5.66742286682128906250e+01) (3, 5.66377067565917968750e+01) (4, 5.67157402038574218750e+01) (5, 5.67132453918457031250e+01) (6, 5.67148780822753906250e+01) (7, 5.65606117248535156250e+01) (8, 5.66722373962402343750e+01) (9, 5.66888236999511718750e+01) (10, 5.65908088684082031250e+01) (11, 5.67111473083496093750e+01) (12, 5.67266502380371093750e+01) (13, 5.66844596862792968750e+01) (14, 5.66964149475097656250e+01) (15, 5.66093635559082031250e+01) (16, 5.67091712951660156250e+01) (17, 5.65385780334472656250e+01) (18, 5.66294288635253906250e+01) (19, 5.66230659484863281250e+01) (20, 5.67332954406738281250e+01) (21, 5.65600013732910156250e+01) (22, 5.66154136657714843750e+01) (23, 5.67194862365722656250e+01) (24, 5.66657600402832031250e+01) (25, 5.65431556701660156250e+01) (26, 5.65871849060058593750e+01) (27, 5.66517524719238281250e+01) (28, 5.66921882629394531250e+01) (29, 5.66961097717285156250e+01) (30, 5.67257499694824218750e+01) (31, 5.65613594055175781250e+01) (32, 5.66347084045410156250e+01) (33, 5.67127418518066406250e+01) (34, 5.65686836242675781250e+01) (35, 5.66778831481933593750e+01) (36, 5.65777320861816406250e+01) (37, 5.67203636169433593750e+01) (38, 5.66923713684082031250e+01) (39, 5.66972236633300781250e+01) (40, 5.66582450866699218750e+01) (41, 5.67339134216308593750e+01) (42, 5.66743736267089843750e+01) (43, 5.67196464538574218750e+01) (44, 5.65767478942871093750e+01) (45, 5.65480690002441406250e+01) (46, 5.65420417785644531250e+01) (47, 5.67287712097167968750e+01) (48, 5.66851768493652343750e+01) (49, 5.66985282897949218750e+01) (50, 4.13020908832550048828e-01) (0, 5.66929130554199218750e+01) (1, 5.66080284118652343750e+01) (2, 5.66236305236816406250e+01) (3, 5.65391654968261718750e+01) (4, 5.66698417663574218750e+01) (5, 5.66529121398925781250e+01) (6, 5.66576576232910156250e+01) (7, 5.66439247131347656250e+01) (8, 5.65963935852050781250e+01) (9, 5.65668449401855468750e+01) (10, 5.65870094299316406250e+01) (11, 5.65865516662597656250e+01) (12, 5.65440483093261718750e+01) (13, 5.66944770812988281250e+01) (14, 5.66004981994628906250e+01) (15, 5.66323280334472656250e+01) (16, 5.67217979431152343750e+01) (17, 5.66944999694824218750e+01) (18, 5.65650901794433593750e+01) (19, 5.65511741638183593750e+01) (20, 5.66074867248535156250e+01) (21, 5.66705741882324218750e+01) (22, 5.66582374572753906250e+01) (23, 5.66455955505371093750e+01) (24, 5.66889762878417968750e+01) (25, 5.66728477478027343750e+01) (26, 5.66881141662597656250e+01) (27, 5.67150001525878906250e+01) (28, 5.65962944030761718750e+01) (29, 5.66265754699707031250e+01) (30, 5.67329978942871093750e+01) (31, 5.66625099182128906250e+01) (32, 5.67060737609863281250e+01) (33, 5.66438102722167968750e+01) (34, 5.66310539245605468750e+01) (35, 5.65507087707519531250e+01) (36, 5.65994377136230468750e+01) (37, 5.65746040344238281250e+01) (38, 5.65517311096191406250e+01) (39, 5.66123695373535156250e+01) (40, 5.66547279357910156250e+01) (41, 5.65539360046386718750e+01) (42, 5.65800590515136718750e+01) (43, 5.66225471496582031250e+01) (44, 5.65562477111816406250e+01) (45, 5.66005287170410156250e+01) (46, 5.65451240539550781250e+01) (47, 5.65382728576660156250e+01) (48, 5.66001701354980468750e+01) (49, 5.66239204406738281250e+01) (50, 4.12347942590713500977e-01) (0, 5.66120414733886718750e+01) (1, 5.65791358947753906250e+01) (2, 5.66959877014160156250e+01) (3, 5.65515022277832031250e+01) (4, 5.66853981018066406250e+01) (5, 5.67264213562011718750e+01) (6, 5.65431251525878906250e+01) (7, 5.65700721740722656250e+01) (8, 5.66688346862792968750e+01) (9, 5.67012596130371093750e+01) (10, 5.67154502868652343750e+01) (11, 5.65457496643066406250e+01) (12, 5.67142753601074218750e+01) (13, 5.66963996887207031250e+01) (14, 5.65891380310058593750e+01) (15, 5.65868034362792968750e+01) (16, 5.66864051818847656250e+01) (17, 5.66491432189941406250e+01) (18, 5.66582450866699218750e+01) (19, 5.65931739807128906250e+01) (20, 5.66390571594238281250e+01) (21, 5.66371574401855468750e+01) (22, 5.66722602844238281250e+01) (23, 5.66688652038574218750e+01) (24, 5.67029228210449218750e+01) (25, 5.66403541564941406250e+01) (26, 5.66755561828613281250e+01) (27, 5.66284980773925781250e+01) (28, 5.66908454895019531250e+01) (29, 5.65499687194824218750e+01) (30, 5.67050895690917968750e+01) (31, 5.67292900085449218750e+01) (32, 5.66269721984863281250e+01) (33, 5.66061744689941406250e+01) (34, 5.66025047302246093750e+01) (35, 5.66596565246582031250e+01) (36, 5.67059288024902343750e+01) (37, 5.65454978942871093750e+01) (38, 5.66970024108886718750e+01) (39, 5.67156867980957031250e+01) (40, 5.66883583068847656250e+01) (41, 5.66392021179199218750e+01) (42, 5.66151313781738281250e+01) (43, 5.65967750549316406250e+01) (44, 5.66390571594238281250e+01) (45, 5.67039756774902343750e+01) (46, 5.65737342834472656250e+01) (47, 5.65516700744628906250e+01) (48, 5.66138801574707031250e+01) (49, 5.66660804748535156250e+01) (50, -1.47788047790527343750e-01) (0, 5.67060890197753906250e+01) (1, 5.66017799377441406250e+01) (2, 5.65603370666503906250e+01) (3, 5.67218666076660156250e+01) (4, 5.67032814025878906250e+01) (5, 5.67281227111816406250e+01) (6, 5.65450859069824218750e+01) (7, 5.67235298156738281250e+01) (8, 5.66887626647949218750e+01) (9, 5.66256523132324218750e+01) (10, 5.66143989562988281250e+01) (11, 5.66583747863769531250e+01) (12, 5.65703468322753906250e+01) (13, 5.65792198181152343750e+01) (14, 5.65888404846191406250e+01) (15, 5.65394020080566406250e+01) (16, 5.65848884582519531250e+01) (17, 5.65505943298339843750e+01) (18, 5.66659965515136718750e+01) (19, 5.66251640319824218750e+01) (20, 5.67029228210449218750e+01) (21, 5.66896476745605468750e+01) (22, 5.67119407653808593750e+01) (23, 5.66702003479003906250e+01) (24, 5.67023658752441406250e+01) (25, 5.66380958557128906250e+01) (26, 5.65751228332519531250e+01) (27, 5.67086067199707031250e+01) (28, 5.66427040100097656250e+01) (29, 5.66320228576660156250e+01) (30, 5.66036109924316406250e+01) (31, 5.66271629333496093750e+01) (32, 5.65707664489746093750e+01) (33, 5.67095527648925781250e+01) (34, 5.66471595764160156250e+01) (35, 5.66840553283691406250e+01) (36, 5.65893974304199218750e+01) (37, 5.66298332214355468750e+01) (38, 5.67253532409667968750e+01) (39, 5.66296424865722656250e+01) (40, 5.67202873229980468750e+01) (41, 5.66095390319824218750e+01) (42, 5.66429176330566406250e+01) (43, 5.65853843688964843750e+01) (44, 5.66921730041503906250e+01) (45, 5.66832847595214843750e+01) (46, 5.67336387634277343750e+01) (47, 5.67371864318847656250e+01) (48, 5.66856575012207031250e+01) (49, 5.65940589904785156250e+01) (50, 4.02429729700088500977e-01) (0, 5.65995216369628906250e+01) (1, 5.65660133361816406250e+01) (2, 5.66200218200683593750e+01) (3, 5.67275276184082031250e+01) (4, 5.67064781188964843750e+01) (5, 5.66350059509277343750e+01) (6, 5.66438484191894531250e+01) (7, 5.65624504089355468750e+01) (8, 5.66859779357910156250e+01) (9, 5.66331825256347656250e+01) (10, 5.66709480285644531250e+01) (11, 5.67213554382324218750e+01) (12, 5.65734748840332031250e+01) (13, 5.66237907409667968750e+01) (14, 5.67026786804199218750e+01) (15, 5.67267723083496093750e+01) (16, 5.67213706970214843750e+01) (17, 5.66895866394042968750e+01) (18, 5.65709953308105468750e+01) (19, 5.65423393249511718750e+01) (20, 5.65603675842285156250e+01) (21, 5.66737327575683593750e+01) (22, 5.66405982971191406250e+01) (23, 5.66912651062011718750e+01) (24, 5.65689811706542968750e+01) (25, 5.66961860656738281250e+01) (26, 5.65849113464355468750e+01) (27, 5.65533027648925781250e+01) (28, 5.67076225280761718750e+01) (29, 5.66766548156738281250e+01) (30, 5.65422248840332031250e+01) (31, 5.67215690612792968750e+01) (32, 5.66732521057128906250e+01) (33, 5.65954399108886718750e+01) (34, 5.66580314636230468750e+01) (35, 5.66002769470214843750e+01) (36, 5.66310539245605468750e+01) (37, 5.67234611511230468750e+01) (38, 5.67200431823730468750e+01) (39, 5.67247886657714843750e+01) (40, 5.65793266296386718750e+01) (41, 5.65526542663574218750e+01) (42, 5.66920356750488281250e+01) (43, 5.65851783752441406250e+01) (44, 5.66037940979003906250e+01) (45, 5.66580009460449218750e+01) (46, 5.66526832580566406250e+01) (47, 5.66345863342285156250e+01) (48, 5.65776176452636718750e+01) (49, 5.66224327087402343750e+01) (50, -2.14450627565383911133e-01) (0, 5.66634864807128906250e+01) (1, 5.65633811950683593750e+01) (2, 5.66559562683105468750e+01) (3, 5.66481666564941406250e+01) (4, 5.66213722229003906250e+01) (5, 5.66732826232910156250e+01) (6, 5.66400642395019531250e+01) (7, 5.65611228942871093750e+01) (8, 5.66668281555175781250e+01) (9, 5.66437416076660156250e+01) (10, 5.66288261413574218750e+01) (11, 5.66322517395019531250e+01) (12, 5.67274589538574218750e+01) (13, 5.66807746887207031250e+01) (14, 5.65379295349121093750e+01) (15, 5.66134910583496093750e+01) (16, 5.65507316589355468750e+01) (17, 5.66322517395019531250e+01) (18, 5.66527442932128906250e+01) (19, 5.66616554260253906250e+01) (20, 5.67272224426269531250e+01) (21, 5.66434059143066406250e+01) (22, 5.66869087219238281250e+01) (23, 5.66879158020019531250e+01) (24, 5.66672172546386718750e+01) (25, 5.65517768859863281250e+01) (26, 5.66224403381347656250e+01) (27, 5.65623435974121093750e+01) (28, 5.66122398376464843750e+01) (29, 5.65778465270996093750e+01) (30, 5.66627998352050781250e+01) (31, 5.65796852111816406250e+01) (32, 5.66624565124511718750e+01) (33, 5.65676612854003906250e+01) (34, 5.67301139831542968750e+01) (35, 5.66928596496582031250e+01) (36, 5.67014579772949218750e+01) (37, 5.65436363220214843750e+01) (38, 5.66377067565917968750e+01) (39, 5.67201499938964843750e+01) (40, 5.65994606018066406250e+01) (41, 5.66198005676269531250e+01) (42, 5.65693702697753906250e+01) (43, 5.66325569152832031250e+01) (44, 5.65763587951660156250e+01) (45, 5.66377754211425781250e+01) (46, 5.65964546203613281250e+01) (47, 5.67274742126464843750e+01) (48, 5.67057151794433593750e+01) (49, 5.65796623229980468750e+01) (50, 4.05203372240066528320e-01) (0, 5.65948829650878906250e+01) (1, 5.66410865783691406250e+01) (2, 5.67141990661621093750e+01) (3, 5.65779914855957031250e+01) (4, 5.66824760437011718750e+01) (5, 5.65458259582519531250e+01) (6, 5.67323036193847656250e+01) (7, 5.66224479675292968750e+01) (8, 5.65657005310058593750e+01) (9, 5.67076454162597656250e+01) (10, 5.66283454895019531250e+01) (11, 5.65417976379394531250e+01) (12, 5.67293510437011718750e+01) (13, 5.66192054748535156250e+01) (14, 5.65834083557128906250e+01) (15, 5.67155799865722656250e+01) (16, 5.65665092468261718750e+01) (17, 5.66059989929199218750e+01) (18, 5.66066627502441406250e+01) (19, 5.66592979431152343750e+01) (20, 5.66015052795410156250e+01) (21, 5.65826988220214843750e+01) (22, 5.65913200378417968750e+01) (23, 5.66817436218261718750e+01) (24, 5.66427879333496093750e+01) (25, 5.66192970275878906250e+01) (26, 5.65411643981933593750e+01) (27, 5.66302528381347656250e+01) (28, 5.66722908020019531250e+01) (29, 5.66982688903808593750e+01) (30, 5.66241035461425781250e+01) (31, 5.65550880432128906250e+01) (32, 5.65772209167480468750e+01) (33, 5.65439796447753906250e+01) (34, 5.66089286804199218750e+01) (35, 5.66241798400878906250e+01) (36, 5.67308158874511718750e+01) (37, 5.67056312561035156250e+01) (38, 5.65415077209472656250e+01) (39, 5.67195930480957031250e+01) (40, 5.67280387878417968750e+01) (41, 5.65749397277832031250e+01) (42, 5.66166725158691406250e+01) (43, 5.66467628479003906250e+01) (44, 5.66827201843261718750e+01) (45, 5.67198982238769531250e+01) (46, 5.67020683288574218750e+01) (47, 5.65879859924316406250e+01) (48, 5.65922203063964843750e+01) (49, 5.66156959533691406250e+01) (50, 4.21664059162139892578e-01) (0, 5.67312355041503906250e+01) (1, 5.65759315490722656250e+01) (2, 5.65542793273925781250e+01) (3, 5.65950736999511718750e+01) (4, 5.67056236267089843750e+01) (5, 5.66938591003417968750e+01) (6, 5.66135597229003906250e+01) (7, 5.65691261291503906250e+01) (8, 5.65547981262207031250e+01) (9, 5.65515022277832031250e+01) (10, 5.66677055358886718750e+01) (11, 5.65976600646972656250e+01) (12, 5.66794090270996093750e+01) (13, 5.65973854064941406250e+01) (14, 5.67197380065917968750e+01) (15, 5.67261009216308593750e+01) (16, 5.66800346374511718750e+01) (17, 5.67193336486816406250e+01) (18, 5.67374916076660156250e+01) (19, 5.66568031311035156250e+01) (20, 5.67317008972167968750e+01) (21, 5.66458778381347656250e+01) (22, 5.66745414733886718750e+01) (23, 5.66116218566894531250e+01) (24, 5.66213111877441406250e+01) (25, 5.65589790344238281250e+01) (26, 5.66569709777832031250e+01) (27, 5.66963539123535156250e+01) (28, 5.66792259216308593750e+01) (29, 5.66243247985839843750e+01) (30, 5.66175270080566406250e+01) (31, 5.67234306335449218750e+01) (32, 5.67361946105957031250e+01) (33, 5.66454429626464843750e+01) (34, 5.65582008361816406250e+01) (35, 5.65490760803222656250e+01) (36, 5.67369728088378906250e+01) (37, 5.65479164123535156250e+01) (38, 5.67226600646972656250e+01) (39, 5.66810798645019531250e+01) (40, 5.65418128967285156250e+01) (41, 5.66999320983886718750e+01) (42, 5.66595878601074218750e+01) (43, 5.66136665344238281250e+01) (44, 5.65470924377441406250e+01) (45, 5.65753364562988281250e+01) (46, 5.66584358215332031250e+01) (47, 5.66454353332519531250e+01) (48, 5.66563301086425781250e+01) (49, 5.65656471252441406250e+01) (50, 3.27039092779159545898e-01) (0, 5.66368217468261718750e+01) (1, 5.66328468322753906250e+01) (2, 5.66470146179199218750e+01) (3, 5.66730766296386718750e+01) (4, 5.66632499694824218750e+01) (5, 5.65653038024902343750e+01) (6, 5.67085838317871093750e+01) (7, 5.66291084289550781250e+01) (8, 5.66202125549316406250e+01) (9, 5.66774330139160156250e+01) (10, 5.66484336853027343750e+01) (11, 5.67046928405761718750e+01) (12, 5.67366447448730468750e+01) (13, 5.66130867004394531250e+01) (14, 5.66432838439941406250e+01) (15, 5.65447120666503906250e+01) (16, 5.66525840759277343750e+01) (17, 5.66279869079589843750e+01) (18, 5.66983909606933593750e+01) (19, 5.67163734436035156250e+01) (20, 5.66176948547363281250e+01) (21, 5.66192893981933593750e+01) (22, 5.66836357116699218750e+01) (23, 5.66257133483886718750e+01) (24, 5.66666984558105468750e+01) (25, 5.66244087219238281250e+01) (26, 5.65623054504394531250e+01) (27, 5.66564216613769531250e+01) (28, 5.67279243469238281250e+01) (29, 5.67201194763183593750e+01) (30, 5.66186408996582031250e+01) (31, 5.67121238708496093750e+01) (32, 5.67214546203613281250e+01) (33, 5.65533332824707031250e+01) (34, 5.65904808044433593750e+01) (35, 5.66434745788574218750e+01) (36, 5.66028404235839843750e+01) (37, 5.66348228454589843750e+01) (38, 5.67132225036621093750e+01) (39, 5.65412330627441406250e+01) (40, 5.66088676452636718750e+01) (41, 5.66269874572753906250e+01) (42, 5.65813789367675781250e+01) (43, 5.65766487121582031250e+01) (44, 5.66614799499511718750e+01) (45, 5.65570869445800781250e+01) (46, 5.66339607238769531250e+01) (47, 5.65702934265136718750e+01) (48, 5.65861244201660156250e+01) (49, 5.65871009826660156250e+01) (50, 3.58429491519927978516e-01) (0, 5.65707283020019531250e+01) (1, 5.67009086608886718750e+01) (2, 5.66714515686035156250e+01) (3, 5.66999320983886718750e+01) (4, 5.66241416931152343750e+01) (5, 5.66325798034667968750e+01) (6, 5.67338676452636718750e+01) (7, 5.65407600402832031250e+01) (8, 5.66162834167480468750e+01) (9, 5.67158088684082031250e+01) (10, 5.66946830749511718750e+01) (11, 5.66584358215332031250e+01) (12, 5.65678825378417968750e+01) (13, 5.66318397521972656250e+01) (14, 5.65797538757324218750e+01) (15, 5.66665534973144531250e+01) (16, 5.66648674011230468750e+01) (17, 5.66429557800292968750e+01) (18, 5.66422386169433593750e+01) (19, 5.65858192443847656250e+01) (20, 5.66045417785644531250e+01) (21, 5.66787605285644531250e+01) (22, 5.67285270690917968750e+01) (23, 5.66712684631347656250e+01) (24, 5.65391273498535156250e+01) (25, 5.66307792663574218750e+01) (26, 5.66196022033691406250e+01) (27, 5.67132225036621093750e+01) (28, 5.65976982116699218750e+01) (29, 5.67114677429199218750e+01) (30, 5.65790290832519531250e+01) (31, 5.67184257507324218750e+01) (32, 5.66680030822753906250e+01) (33, 5.66338844299316406250e+01) (34, 5.66387672424316406250e+01) (35, 5.65773811340332031250e+01) (36, 5.66191825866699218750e+01) (37, 5.66684074401855468750e+01) (38, 5.66542091369628906250e+01) (39, 5.66244163513183593750e+01) (40, 5.66468620300292968750e+01) (41, 5.67325706481933593750e+01) (42, 5.66595726013183593750e+01) (43, 5.66964149475097656250e+01) (44, 5.67216911315917968750e+01) (45, 5.65703849792480468750e+01) (46, 5.65549278259277343750e+01) (47, 5.65967750549316406250e+01) (48, 5.66226539611816406250e+01) (49, 5.65773963928222656250e+01) (50, 3.97226065397262573242e-01) (0, 5.65705757141113281250e+01) (1, 5.67364540100097656250e+01) (2, 5.67275962829589843750e+01) (3, 5.65389289855957031250e+01) (4, 5.66974296569824218750e+01) (5, 5.67040748596191406250e+01) (6, 5.65586738586425781250e+01) (7, 5.67083091735839843750e+01) (8, 5.66080665588378906250e+01) (9, 5.66959266662597656250e+01) (10, 5.66716194152832031250e+01) (11, 5.67247123718261718750e+01) (12, 5.66310462951660156250e+01) (13, 5.65967140197753906250e+01) (14, 5.67010383605957031250e+01) (15, 5.67179756164550781250e+01) (16, 5.65758094787597656250e+01) (17, 5.66813850402832031250e+01) (18, 5.66124916076660156250e+01) (19, 5.67204627990722656250e+01) (20, 5.66582450866699218750e+01) (21, 5.66632423400878906250e+01) (22, 5.66829414367675781250e+01) (23, 5.65505714416503906250e+01) (24, 5.65751991271972656250e+01) (25, 5.66956443786621093750e+01) (26, 5.66207237243652343750e+01) (27, 5.66779212951660156250e+01) (28, 5.66339149475097656250e+01) (29, 5.66084938049316406250e+01) (30, 5.65811958312988281250e+01) (31, 5.66013984680175781250e+01) (32, 5.65429344177246093750e+01) (33, 5.65606498718261718750e+01) (34, 5.67343330383300781250e+01) (35, 5.65713386535644531250e+01) (36, 5.65704841613769531250e+01) (37, 5.65897102355957031250e+01) (38, 5.65405235290527343750e+01) (39, 5.65871086120605468750e+01) (40, 5.66767616271972656250e+01) (41, 5.66402015686035156250e+01) (42, 5.65908546447753906250e+01) (43, 5.67013435363769531250e+01) (44, 5.67262153625488281250e+01) (45, 5.65516548156738281250e+01) (46, 5.65680580139160156250e+01) (47, 5.65620536804199218750e+01) (48, 5.65862617492675781250e+01) (49, 5.65875663757324218750e+01) (50, -2.07777217030525207520e-01) (0, 5.66238746643066406250e+01) (1, 5.66184730529785156250e+01) (2, 5.65867500305175781250e+01) (3, 5.66529121398925781250e+01) (4, 5.65597190856933593750e+01) (5, 5.65686683654785156250e+01) (6, 5.67181282043457031250e+01) (7, 5.65477485656738281250e+01) (8, 5.67040519714355468750e+01) (9, 5.65620155334472656250e+01) (10, 5.67202796936035156250e+01) (11, 5.66106681823730468750e+01) (12, 5.66591072082519531250e+01) (13, 5.66095695495605468750e+01) (14, 5.66070747375488281250e+01) (15, 5.65591697692871093750e+01) (16, 5.66951408386230468750e+01) (17, 5.67322578430175781250e+01) (18, 5.67205009460449218750e+01) (19, 5.66529273986816406250e+01) (20, 5.66761817932128906250e+01) (21, 5.67087821960449218750e+01) (22, 5.67120475769042968750e+01) (23, 5.66747016906738281250e+01) (24, 5.65423774719238281250e+01) (25, 5.65535774230957031250e+01) (26, 5.67338371276855468750e+01) (27, 5.66818733215332031250e+01) (28, 5.66802330017089843750e+01) (29, 5.67310752868652343750e+01) (30, 5.66207695007324218750e+01) (31, 5.65850334167480468750e+01) (32, 5.66119651794433593750e+01) (33, 5.66125755310058593750e+01) (34, 5.65449867248535156250e+01) (35, 5.67097282409667968750e+01) (36, 5.67353096008300781250e+01) (37, 5.65819435119628906250e+01) (38, 5.67237586975097656250e+01) (39, 5.65975990295410156250e+01) (40, 5.65449028015136718750e+01) (41, 5.66963615417480468750e+01) (42, 5.66621665954589843750e+01) (43, 5.66033592224121093750e+01) (44, 5.66666145324707031250e+01) (45, 5.67084388732910156250e+01) (46, 5.67118949890136718750e+01) (47, 5.65435676574707031250e+01) (48, 5.67359580993652343750e+01) (49, 5.65558509826660156250e+01) (50, 4.15662139654159545898e-01) (0, 5.65537681579589843750e+01) (1, 5.66519279479980468750e+01) (2, 5.67249031066894531250e+01) (3, 5.66991844177246093750e+01) (4, 5.66099128723144531250e+01) (5, 5.66375007629394531250e+01) (6, 5.65940361022949218750e+01) (7, 5.65505332946777343750e+01) (8, 5.66706352233886718750e+01) (9, 5.66379737854003906250e+01) (10, 5.65637931823730468750e+01) (11, 5.65703163146972656250e+01) (12, 5.66963996887207031250e+01) (13, 5.66884880065917968750e+01) (14, 5.66792564392089843750e+01) (15, 5.66717948913574218750e+01) (16, 5.67018547058105468750e+01) (17, 5.65818824768066406250e+01) (18, 5.65514030456542968750e+01) (19, 5.65534019470214843750e+01) (20, 5.66976737976074218750e+01) (21, 5.66682929992675781250e+01) (22, 5.66834831237792968750e+01) (23, 5.65445594787597656250e+01) (24, 5.66780586242675781250e+01) (25, 5.67175407409667968750e+01) (26, 5.66087150573730468750e+01) (27, 5.66175575256347656250e+01) (28, 5.67102394104003906250e+01) (29, 5.66756858825683593750e+01) (30, 5.65456199645996093750e+01) (31, 5.66466331481933593750e+01) (32, 5.66821403503417968750e+01) (33, 5.66470298767089843750e+01) (34, 5.65771217346191406250e+01) (35, 5.66956138610839843750e+01) (36, 5.65645103454589843750e+01) (37, 5.67326774597167968750e+01) (38, 5.66597709655761718750e+01) (39, 5.66152687072753906250e+01) (40, 5.65437889099121093750e+01) (41, 5.66570320129394531250e+01) (42, 5.66692390441894531250e+01) (43, 5.67317619323730468750e+01) (44, 5.66818580627441406250e+01) (45, 5.66134529113769531250e+01) (46, 5.65885047912597656250e+01) (47, 5.67072563171386718750e+01) (48, 5.66590538024902343750e+01) (49, 5.66602363586425781250e+01) (50, 3.96120876073837280273e-01) (0, 5.65541725158691406250e+01) (1, 5.66566123962402343750e+01) (2, 5.66982994079589843750e+01) (3, 5.67011680603027343750e+01) (4, 5.66840934753417968750e+01) (5, 5.67348213195800781250e+01) (6, 5.65617179870605468750e+01) (7, 5.67108573913574218750e+01) (8, 5.65727272033691406250e+01) (9, 5.65631217956542968750e+01) (10, 5.66524543762207031250e+01) (11, 5.67371482849121093750e+01) (12, 5.67221488952636718750e+01) (13, 5.66583976745605468750e+01) (14, 5.66503944396972656250e+01) (15, 5.65486869812011718750e+01) (16, 5.67015800476074218750e+01) (17, 5.65877647399902343750e+01) (18, 5.67300834655761718750e+01) (19, 5.66941642761230468750e+01) (20, 5.65478248596191406250e+01) (21, 5.66919975280761718750e+01) (22, 5.66153678894042968750e+01) (23, 5.66634864807128906250e+01) (24, 5.67068901062011718750e+01) (25, 5.65859718322753906250e+01) (26, 5.67031288146972656250e+01) (27, 5.66415214538574218750e+01) (28, 5.65977058410644531250e+01) (29, 5.65922889709472656250e+01) (30, 5.65874061584472656250e+01) (31, 5.66606559753417968750e+01) (32, 5.65794563293457031250e+01) (33, 5.65643043518066406250e+01) (34, 5.66152305603027343750e+01) (35, 5.66584358215332031250e+01) (36, 5.66036796569824218750e+01) (37, 5.66549491882324218750e+01) (38, 5.66052665710449218750e+01) (39, 5.66465263366699218750e+01) (40, 5.67323417663574218750e+01) (41, 5.66874351501464843750e+01) (42, 5.65606575012207031250e+01) (43, 5.66972846984863281250e+01) (44, 5.66031761169433593750e+01) (45, 5.66841697692871093750e+01) (46, 5.67071876525878906250e+01) (47, 5.65540962219238281250e+01) (48, 5.66235771179199218750e+01) (49, 5.66101799011230468750e+01) (50, 4.29269522428512573242e-01) (0, 5.65718803405761718750e+01) (1, 5.65742378234863281250e+01) (2, 5.66871833801269531250e+01) (3, 5.66472206115722656250e+01) (4, 5.65938377380371093750e+01) (5, 5.66037864685058593750e+01) (6, 5.67345924377441406250e+01) (7, 5.66300086975097656250e+01) (8, 5.66707954406738281250e+01) (9, 5.66957283020019531250e+01) (10, 5.66938133239746093750e+01) (11, 5.66366767883300781250e+01) (12, 5.66294517517089843750e+01) (13, 5.65888557434082031250e+01) (14, 5.65918998718261718750e+01) (15, 5.65556678771972656250e+01) (16, 5.65955848693847656250e+01) (17, 5.66324729919433593750e+01) (18, 5.67009925842285156250e+01) (19, 5.67105369567871093750e+01) (20, 5.66786918640136718750e+01) (21, 5.65575904846191406250e+01) (22, 5.65496253967285156250e+01) (23, 5.66509132385253906250e+01) (24, 5.67241249084472656250e+01) (25, 5.66454124450683593750e+01) (26, 5.65423088073730468750e+01) (27, 5.67188301086425781250e+01) (28, 5.65391120910644531250e+01) (29, 5.66743583679199218750e+01) (30, 5.66435508728027343750e+01) (31, 5.66216697692871093750e+01) (32, 5.66988410949707031250e+01) (33, 5.67267646789550781250e+01) (34, 5.66825218200683593750e+01) (35, 5.65430564880371093750e+01) (36, 5.65388526916503906250e+01) (37, 5.66367454528808593750e+01) (38, 5.67347831726074218750e+01) (39, 5.66228675842285156250e+01) (40, 5.66400413513183593750e+01) (41, 5.65601692199707031250e+01) (42, 5.67371025085449218750e+01) (43, 5.67376060485839843750e+01) (44, 5.66124305725097656250e+01) (45, 5.66482505798339843750e+01) (46, 5.65917854309082031250e+01) (47, 5.66124305725097656250e+01) (48, 5.66841468811035156250e+01) (49, 5.67058677673339843750e+01) (50, 1.75658520311117172241e-02) (0, 5.65961265563964843750e+01) (1, 5.67015266418457031250e+01) (2, 5.66158943176269531250e+01) (3, 5.66973991394042968750e+01) (4, 5.67301216125488281250e+01) (5, 5.66470069885253906250e+01) (6, 5.66108283996582031250e+01) (7, 5.65969276428222656250e+01) (8, 5.66429786682128906250e+01) (9, 5.66807289123535156250e+01) (10, 5.65728950500488281250e+01) (11, 5.65808677673339843750e+01) (12, 5.67014884948730468750e+01) (13, 5.66121940612792968750e+01) (14, 5.66439323425292968750e+01) (15, 5.66124458312988281250e+01) (16, 5.65496101379394531250e+01) (17, 5.66083641052246093750e+01) (18, 5.67263221740722656250e+01) (19, 5.66748847961425781250e+01) (20, 5.66667137145996093750e+01) (21, 5.66442222595214843750e+01) (22, 5.65561180114746093750e+01) (23, 5.66768913269042968750e+01) (24, 5.66759681701660156250e+01) (25, 5.67022514343261718750e+01) (26, 5.67297554016113281250e+01) (27, 5.66976127624511718750e+01) (28, 5.66345939636230468750e+01) (29, 5.66268959045410156250e+01) (30, 5.65655097961425781250e+01) (31, 5.67272529602050781250e+01) (32, 5.66368904113769531250e+01) (33, 5.66404762268066406250e+01) (34, 5.65809440612792968750e+01) (35, 5.65597190856933593750e+01) (36, 5.65614128112792968750e+01) (37, 5.66265449523925781250e+01) (38, 5.66676445007324218750e+01) (39, 5.65933876037597656250e+01) (40, 5.66935615539550781250e+01) (41, 5.65872001647949218750e+01) (42, 5.65444526672363281250e+01) (43, 5.65964088439941406250e+01) (44, 5.66548271179199218750e+01) (45, 5.65803489685058593750e+01) (46, 5.65705299377441406250e+01) (47, 5.65926170349121093750e+01) (48, 5.65698661804199218750e+01) (49, 5.65434226989746093750e+01) (50, 8.06433893740177154541e-03) (0, 5.67244682312011718750e+01) (1, 5.67028007507324218750e+01) (2, 5.67095756530761718750e+01) (3, 5.66549034118652343750e+01) (4, 5.66491737365722656250e+01) (5, 5.66938056945800781250e+01) (6, 5.66227531433105468750e+01) (7, 5.67117424011230468750e+01) (8, 5.67242546081542968750e+01) (9, 5.66274833679199218750e+01) (10, 5.66578712463378906250e+01) (11, 5.65593070983886718750e+01) (12, 5.65388221740722656250e+01) (13, 5.66639442443847656250e+01) (14, 5.66522254943847656250e+01) (15, 5.66326637268066406250e+01) (16, 5.66467781066894531250e+01) (17, 5.66641654968261718750e+01) (18, 5.65545692443847656250e+01) (19, 5.65902976989746093750e+01) (20, 5.66583061218261718750e+01) (21, 5.65407447814941406250e+01) (22, 5.66980323791503906250e+01) (23, 5.67205162048339843750e+01) (24, 5.65456962585449218750e+01) (25, 5.65651512145996093750e+01) (26, 5.66029701232910156250e+01) (27, 5.65575675964355468750e+01) (28, 5.67199668884277343750e+01) (29, 5.65630455017089843750e+01) (30, 5.67163505554199218750e+01) (31, 5.66888084411621093750e+01) (32, 5.67343711853027343750e+01) (33, 5.66286354064941406250e+01) (34, 5.65935478210449218750e+01) (35, 5.66341209411621093750e+01) (36, 5.65711860656738281250e+01) (37, 5.66894264221191406250e+01) (38, 5.67290916442871093750e+01) (39, 5.65788230895996093750e+01) (40, 5.65678749084472656250e+01) (41, 5.65526618957519531250e+01) (42, 5.65423545837402343750e+01) (43, 5.66414070129394531250e+01) (44, 5.65389900207519531250e+01) (45, 5.65646171569824218750e+01) (46, 5.67247123718261718750e+01) (47, 5.66572380065917968750e+01) (48, 5.65500450134277343750e+01) (49, 5.67140312194824218750e+01) (50, -4.87271100282669067383e-02) (0, 5.65595283508300781250e+01) (1, 5.66995353698730468750e+01) (2, 5.67109336853027343750e+01) (3, 5.66839637756347656250e+01) (4, 5.65388298034667968750e+01) (5, 5.65654945373535156250e+01) (6, 5.66721458435058593750e+01) (7, 5.66109504699707031250e+01) (8, 5.66623344421386718750e+01) (9, 5.66726646423339843750e+01) (10, 5.65446205139160156250e+01) (11, 5.67306938171386718750e+01) (12, 5.67340812683105468750e+01) (13, 5.66366691589355468750e+01) (14, 5.66979789733886718750e+01) (15, 5.65848808288574218750e+01) (16, 5.66776008605957031250e+01) (17, 5.65414161682128906250e+01) (18, 5.66173515319824218750e+01) (19, 5.66076240539550781250e+01) (20, 5.66218681335449218750e+01) (21, 5.66058540344238281250e+01) (22, 5.67279624938964843750e+01) (23, 5.65768775939941406250e+01) (24, 5.65722084045410156250e+01) (25, 5.66965751647949218750e+01) (26, 5.66825370788574218750e+01) (27, 5.66771354675292968750e+01) (28, 5.66470985412597656250e+01) (29, 5.65422096252441406250e+01) (30, 5.65428733825683593750e+01) (31, 5.66797294616699218750e+01) (32, 5.65622901916503906250e+01) (33, 5.66061897277832031250e+01) (34, 5.65867958068847656250e+01) (35, 5.66470069885253906250e+01) (36, 5.65433998107910156250e+01) (37, 5.66738166809082031250e+01) (38, 5.65717582702636718750e+01) (39, 5.66664619445800781250e+01) (40, 5.65483436584472656250e+01) (41, 5.67101325988769531250e+01) (42, 5.65863380432128906250e+01) (43, 5.66212882995605468750e+01) (44, 5.65807075500488281250e+01) (45, 5.66446952819824218750e+01) (46, 5.67208518981933593750e+01) (47, 5.67035408020019531250e+01) (48, 5.65754432678222656250e+01) (49, 5.66395912170410156250e+01) (50, -4.18418878689408302307e-03) (0, 5.66759986877441406250e+01) (1, 5.66380043029785156250e+01) (2, 5.66968421936035156250e+01) (3, 5.66274452209472656250e+01) (4, 5.65892295837402343750e+01) (5, 5.67183723449707031250e+01) (6, 5.65616035461425781250e+01) (7, 5.66175422668457031250e+01) (8, 5.65599174499511718750e+01) (9, 5.67009391784667968750e+01) (10, 5.65772438049316406250e+01) (11, 5.65388298034667968750e+01) (12, 5.67168083190917968750e+01) (13, 5.65917930603027343750e+01) (14, 5.66486320495605468750e+01) (15, 5.66072502136230468750e+01) (16, 5.67204170227050781250e+01) (17, 5.65844459533691406250e+01) (18, 5.65699348449707031250e+01) (19, 5.66161918640136718750e+01) (20, 5.65629005432128906250e+01) (21, 5.66853752136230468750e+01) (22, 5.66730537414550781250e+01) (23, 5.66161613464355468750e+01) (24, 5.66542015075683593750e+01) (25, 5.66804847717285156250e+01) (26, 5.66530265808105468750e+01) (27, 5.66635017395019531250e+01) (28, 5.67007484436035156250e+01) (29, 5.67239723205566406250e+01) (30, 5.67266960144042968750e+01) (31, 5.65695533752441406250e+01) (32, 5.65830726623535156250e+01) (33, 5.67306022644042968750e+01) (34, 5.65807228088378906250e+01) (35, 5.66814384460449218750e+01) (36, 5.65384330749511718750e+01) (37, 5.66527824401855468750e+01) (38, 5.66653861999511718750e+01) (39, 5.66257362365722656250e+01) (40, 5.66547660827636718750e+01) (41, 5.66236686706542968750e+01) (42, 5.66903419494628906250e+01) (43, 5.66463050842285156250e+01) (44, 5.65822563171386718750e+01) (45, 5.66474952697753906250e+01) (46, 5.66784782409667968750e+01) (47, 5.66674690246582031250e+01) (48, 5.66686973571777343750e+01) (49, 5.66184883117675781250e+01) (50, -1.40180796384811401367e-01) (0, 5.67138938903808593750e+01) (1, 5.66249427795410156250e+01) (2, 5.65494499206542968750e+01) (3, 5.65833473205566406250e+01) (4, 5.66183280944824218750e+01) (5, 5.67267265319824218750e+01) (6, 5.65914649963378906250e+01) (7, 5.66375007629394531250e+01) (8, 5.66484489440917968750e+01) (9, 5.66589622497558593750e+01) (10, 5.67257804870605468750e+01) (11, 5.66449775695800781250e+01) (12, 5.65841712951660156250e+01) (13, 5.66089820861816406250e+01) (14, 5.67092704772949218750e+01) (15, 5.66786460876464843750e+01) (16, 5.66765251159667968750e+01) (17, 5.67147865295410156250e+01) (18, 5.65545997619628906250e+01) (19, 5.67204780578613281250e+01) (20, 5.66194877624511718750e+01) (21, 5.66746177673339843750e+01) (22, 5.67264823913574218750e+01) (23, 5.65979499816894531250e+01) (24, 5.65659141540527343750e+01) (25, 5.66241798400878906250e+01) (26, 5.67351264953613281250e+01) (27, 5.67285728454589843750e+01) (28, 5.67188529968261718750e+01) (29, 5.66875877380371093750e+01) (30, 5.67082557678222656250e+01) (31, 5.67288856506347656250e+01) (32, 5.67295646667480468750e+01) (33, 5.67084846496582031250e+01) (34, 5.66228523254394531250e+01) (35, 5.66441764831542968750e+01) (36, 5.66333045959472656250e+01) (37, 5.65674400329589843750e+01) (38, 5.65779685974121093750e+01) (39, 5.66551856994628906250e+01) (40, 5.65544471740722656250e+01) (41, 5.65919151306152343750e+01) (42, 5.65897178649902343750e+01) (43, 5.66179237365722656250e+01) (44, 5.67117576599121093750e+01) (45, 5.66651115417480468750e+01) (46, 5.66898841857910156250e+01) (47, 5.66930046081542968750e+01) (48, 5.65555076599121093750e+01) (49, 5.65397987365722656250e+01) (50, -1.65327280759811401367e-01) (0, 5.66206703186035156250e+01) (1, 5.65673866271972656250e+01) (2, 5.65636558532714843750e+01) (3, 5.66268043518066406250e+01) (4, 5.66977958679199218750e+01) (5, 5.65545463562011718750e+01) (6, 5.67219047546386718750e+01) (7, 5.66666374206542968750e+01) (8, 5.66130409240722656250e+01) (9, 5.65690879821777343750e+01) (10, 5.66040992736816406250e+01) (11, 5.66227455139160156250e+01) (12, 5.65964927673339843750e+01) (13, 5.66841316223144531250e+01) (14, 5.66006813049316406250e+01) (15, 5.65941047668457031250e+01) (16, 5.66399879455566406250e+01) (17, 5.65578346252441406250e+01) (18, 5.67361564636230468750e+01) (19, 5.66105384826660156250e+01) (20, 5.66444282531738281250e+01) (21, 5.66164970397949218750e+01) (22, 5.66445808410644531250e+01) (23, 5.67308540344238281250e+01) (24, 5.66502647399902343750e+01) (25, 5.65881080627441406250e+01) (26, 5.66940650939941406250e+01) (27, 5.66945610046386718750e+01) (28, 5.66074256896972656250e+01) (29, 5.66174659729003906250e+01) (30, 5.65662879943847656250e+01) (31, 5.66082954406738281250e+01) (32, 5.66410026550292968750e+01) (33, 5.66942863464355468750e+01) (34, 5.66973152160644531250e+01) (35, 5.66483268737792968750e+01) (36, 5.66688194274902343750e+01) (37, 5.66253395080566406250e+01) (38, 5.66860542297363281250e+01) (39, 5.66602363586425781250e+01) (40, 5.67272453308105468750e+01) (41, 5.66820793151855468750e+01) (42, 5.66764717102050781250e+01) (43, 5.66371955871582031250e+01) (44, 5.66614646911621093750e+01) (45, 5.65548133850097656250e+01) (46, 5.66199531555175781250e+01) (47, 5.65579872131347656250e+01) (48, 5.67364311218261718750e+01) (49, 5.65448875427246093750e+01) (50, 3.76987010240554809570e-01) (0, 5.65659904479980468750e+01) (1, 5.66247901916503906250e+01) (2, 5.66258811950683593750e+01) (3, 5.66931724548339843750e+01) (4, 5.65705299377441406250e+01) (5, 5.67279777526855468750e+01) (6, 5.67052726745605468750e+01) (7, 5.66697425842285156250e+01) (8, 5.66516685485839843750e+01) (9, 5.66868247985839843750e+01) (10, 5.67177314758300781250e+01) (11, 5.66782569885253906250e+01) (12, 5.65497322082519531250e+01) (13, 5.66377906799316406250e+01) (14, 5.66813011169433593750e+01) (15, 5.66822929382324218750e+01) (16, 5.66209754943847656250e+01) (17, 5.66712303161621093750e+01) (18, 5.65476799011230468750e+01) (19, 5.66584587097167968750e+01) (20, 5.65403938293457031250e+01) (21, 5.66477928161621093750e+01) (22, 5.65779838562011718750e+01) (23, 5.65942268371582031250e+01) (24, 5.67331123352050781250e+01) (25, 5.66293220520019531250e+01) (26, 5.66750526428222656250e+01) (27, 5.66159477233886718750e+01) (28, 5.66155128479003906250e+01) (29, 5.66804466247558593750e+01) (30, 5.66036949157714843750e+01) (31, 5.66531105041503906250e+01) (32, 5.66273765563964843750e+01) (33, 5.66971092224121093750e+01) (34, 5.67300910949707031250e+01) (35, 5.65451545715332031250e+01) (36, 5.67363548278808593750e+01) (37, 5.66183204650878906250e+01) (38, 5.66115303039550781250e+01) (39, 5.65972557067871093750e+01) (40, 5.65958290100097656250e+01) (41, 5.66773338317871093750e+01) (42, 5.66678657531738281250e+01) (43, 5.66910057067871093750e+01) (44, 5.66376686096191406250e+01) (45, 5.66485786437988281250e+01) (46, 5.66657752990722656250e+01) (47, 5.65565376281738281250e+01) (48, 5.66809349060058593750e+01) (49, 5.65464820861816406250e+01) (50, -5.57156354188919067383e-02) (0, 5.67122077941894531250e+01) (1, 5.65378227233886718750e+01) (2, 5.67325401306152343750e+01) (3, 5.66332359313964843750e+01) (4, 5.66781044006347656250e+01) (5, 5.65982398986816406250e+01) (6, 5.66868324279785156250e+01) (7, 5.67345390319824218750e+01) (8, 5.65695838928222656250e+01) (9, 5.66739616394042968750e+01) (10, 5.66002006530761718750e+01) (11, 5.65997352600097656250e+01) (12, 5.66772193908691406250e+01) (13, 5.66840095520019531250e+01) (14, 5.66434669494628906250e+01) (15, 5.66328849792480468750e+01) (16, 5.65392646789550781250e+01) (17, 5.66621360778808593750e+01) (18, 5.66697578430175781250e+01) (19, 5.67114372253417968750e+01) (20, 5.67129936218261718750e+01) (21, 5.66679115295410156250e+01) (22, 5.66063423156738281250e+01) (23, 5.66356925964355468750e+01) (24, 5.65510597229003906250e+01) (25, 5.66825141906738281250e+01) (26, 5.66921577453613281250e+01) (27, 5.66413002014160156250e+01) (28, 5.65892143249511718750e+01) (29, 5.66706275939941406250e+01) (30, 5.66172752380371093750e+01) (31, 5.66057777404785156250e+01) (32, 5.66516609191894531250e+01) (33, 5.66894950866699218750e+01) (34, 5.67206077575683593750e+01) (35, 5.66804924011230468750e+01) (36, 5.66801033020019531250e+01) (37, 5.66265602111816406250e+01) (38, 5.67020072937011718750e+01) (39, 5.65792274475097656250e+01) (40, 5.65929985046386718750e+01) (41, 5.66468620300292968750e+01) (42, 5.66051139831542968750e+01) (43, 5.66547279357910156250e+01) (44, 5.65810813903808593750e+01) (45, 5.67314414978027343750e+01) (46, 5.67271919250488281250e+01) (47, 5.65942878723144531250e+01) (48, 5.65454597473144531250e+01) (49, 5.65879859924316406250e+01) (50, 4.00543749332427978516e-01) (0, 5.66657752990722656250e+01) (1, 5.66845817565917968750e+01) (2, 5.67150306701660156250e+01) (3, 5.65825004577636718750e+01) (4, 5.65452919006347656250e+01) (5, 5.67362022399902343750e+01) (6, 5.67009162902832031250e+01) (7, 5.65685768127441406250e+01) (8, 5.66577568054199218750e+01) (9, 5.66807899475097656250e+01) (10, 5.65387382507324218750e+01) (11, 5.66875724792480468750e+01) (12, 5.66615715026855468750e+01) (13, 5.66124076843261718750e+01) (14, 5.66385993957519531250e+01) (15, 5.67323493957519531250e+01) (16, 5.66086692810058593750e+01) (17, 5.65834846496582031250e+01) (18, 5.67183189392089843750e+01) (19, 5.66241111755371093750e+01) (20, 5.66113090515136718750e+01) (21, 5.67296257019042968750e+01) (22, 5.66539878845214843750e+01) (23, 5.65858802795410156250e+01) (24, 5.65466651916503906250e+01) (25, 5.66807746887207031250e+01) (26, 5.66714744567871093750e+01) (27, 5.66928672790527343750e+01) (28, 5.66305503845214843750e+01) (29, 5.65649681091308593750e+01) (30, 5.65602226257324218750e+01) (31, 5.65561485290527343750e+01) (32, 5.65915794372558593750e+01) (33, 5.66108818054199218750e+01) (34, 5.66905632019042968750e+01) (35, 5.65956916809082031250e+01) (36, 5.66769828796386718750e+01) (37, 5.66554603576660156250e+01) (38, 5.67157783508300781250e+01) (39, 5.66591529846191406250e+01) (40, 5.66212348937988281250e+01) (41, 5.65629310607910156250e+01) (42, 5.65402107238769531250e+01) (43, 5.66425819396972656250e+01) (44, 5.66089286804199218750e+01) (45, 5.66612968444824218750e+01) (46, 5.66346168518066406250e+01) (47, 5.66693840026855468750e+01) (48, 5.65629310607910156250e+01) (49, 5.66027488708496093750e+01) (50, 4.21109110116958618164e-01) (0, 5.66836738586425781250e+01) (1, 5.65892372131347656250e+01) (2, 5.65541114807128906250e+01) (3, 5.66213722229003906250e+01) (4, 5.66143913269042968750e+01) (5, 5.67097740173339843750e+01) (6, 5.67236137390136718750e+01) (7, 5.67121696472167968750e+01) (8, 5.65663185119628906250e+01) (9, 5.67141761779785156250e+01) (10, 5.67302589416503906250e+01) (11, 5.66314430236816406250e+01) (12, 5.65943183898925781250e+01) (13, 5.66621513366699218750e+01) (14, 5.66220359802246093750e+01) (15, 5.66541175842285156250e+01) (16, 5.67170677185058593750e+01) (17, 5.66673240661621093750e+01) (18, 5.66491432189941406250e+01) (19, 5.65562477111816406250e+01) (20, 5.67264137268066406250e+01) (21, 5.66940879821777343750e+01) (22, 5.65985908508300781250e+01) (23, 5.66362190246582031250e+01) (24, 5.66487464904785156250e+01) (25, 5.65985145568847656250e+01) (26, 5.65964164733886718750e+01) (27, 5.67332572937011718750e+01) (28, 5.66145668029785156250e+01) (29, 5.65446891784667968750e+01) (30, 5.65836448669433593750e+01) (31, 5.66244010925292968750e+01) (32, 5.65924568176269531250e+01) (33, 5.66277122497558593750e+01) (34, 5.65723533630371093750e+01) (35, 5.66812782287597656250e+01) (36, 5.65438499450683593750e+01) (37, 5.66345252990722656250e+01) (38, 5.66881446838378906250e+01) (39, 5.65678443908691406250e+01) (40, 5.66546287536621093750e+01) (41, 5.65739326477050781250e+01) (42, 5.67050514221191406250e+01) (43, 5.66604957580566406250e+01) (44, 5.66000404357910156250e+01) (45, 5.67070274353027343750e+01) (46, 5.66794242858886718750e+01) (47, 5.65715751647949218750e+01) (48, 5.66990165710449218750e+01) (49, 5.67091560363769531250e+01) (50, 3.77258837223052978516e-01) (0, 5.66577186584472656250e+01) (1, 5.67141685485839843750e+01) (2, 5.66949195861816406250e+01) (3, 5.65819511413574218750e+01) (4, 5.66941947937011718750e+01) (5, 5.65537757873535156250e+01) (6, 5.67372016906738281250e+01) (7, 5.65471229553222656250e+01) (8, 5.65964851379394531250e+01) (9, 5.66320075988769531250e+01) (10, 5.66116218566894531250e+01) (11, 5.66031684875488281250e+01) (12, 5.65704689025878906250e+01) (13, 5.65434837341308593750e+01) (14, 5.65976676940917968750e+01) (15, 5.66215248107910156250e+01) (16, 5.65722312927246093750e+01) (17, 5.66086616516113281250e+01) (18, 5.66676445007324218750e+01) (19, 5.65841941833496093750e+01) (20, 5.66590385437011718750e+01) (21, 5.65461235046386718750e+01) (22, 5.66948356628417968750e+01) (23, 5.66843147277832031250e+01) (24, 5.67124519348144531250e+01) (25, 5.66280479431152343750e+01) (26, 5.66119956970214843750e+01) (27, 5.65756568908691406250e+01) (28, 5.67150459289550781250e+01) (29, 5.65751762390136718750e+01) (30, 5.65515403747558593750e+01) (31, 5.66770896911621093750e+01) (32, 5.66618537902832031250e+01) (33, 5.65474586486816406250e+01) (34, 5.66985893249511718750e+01) (35, 5.65384559631347656250e+01) (36, 5.66878089904785156250e+01) (37, 5.66866340637207031250e+01) (38, 5.66881217956542968750e+01) (39, 5.65740089416503906250e+01) (40, 5.66925086975097656250e+01) (41, 5.65670814514160156250e+01) (42, 5.66776466369628906250e+01) (43, 5.65695838928222656250e+01) (44, 5.66434364318847656250e+01) (45, 5.66110115051269531250e+01) (46, 5.67263145446777343750e+01) (47, 5.66700401306152343750e+01) (48, 5.66390113830566406250e+01) (49, 5.66245079040527343750e+01) (50, -1.48129850625991821289e-01) (0, 5.66528282165527343750e+01) (1, 5.67125663757324218750e+01) (2, 5.67103919982910156250e+01) (3, 5.67181282043457031250e+01) (4, 5.65942726135253906250e+01) (5, 5.66586570739746093750e+01) (6, 5.67143287658691406250e+01) (7, 5.67190971374511718750e+01) (8, 5.67346229553222656250e+01) (9, 5.66629066467285156250e+01) (10, 5.66604499816894531250e+01) (11, 5.66998100280761718750e+01) (12, 5.66481819152832031250e+01) (13, 5.66165428161621093750e+01) (14, 5.67325935363769531250e+01) (15, 5.66361808776855468750e+01) (16, 5.67248039245605468750e+01) (17, 5.66970024108886718750e+01) (18, 5.66575202941894531250e+01) (19, 5.66706733703613281250e+01) (20, 5.66689033508300781250e+01) (21, 5.66957893371582031250e+01) (22, 5.66463737487792968750e+01) (23, 5.67129096984863281250e+01) (24, 5.66223793029785156250e+01) (25, 5.66748390197753906250e+01) (26, 5.65505638122558593750e+01) (27, 5.65970878601074218750e+01) (28, 5.66175346374511718750e+01) (29, 5.66326560974121093750e+01) (30, 5.65883140563964843750e+01) (31, 5.67271842956542968750e+01) (32, 5.65663566589355468750e+01) (33, 5.65614738464355468750e+01) (34, 5.66982536315917968750e+01) (35, 5.66413307189941406250e+01) (36, 5.66923942565917968750e+01) (37, 5.65766944885253906250e+01) (38, 5.66761207580566406250e+01) (39, 5.66266365051269531250e+01) (40, 5.66114463806152343750e+01) (41, 5.66997718811035156250e+01) (42, 5.65509757995605468750e+01) (43, 5.66155128479003906250e+01) (44, 5.65673179626464843750e+01) (45, 5.65759468078613281250e+01) (46, 5.65571098327636718750e+01) (47, 5.66950721740722656250e+01) (48, 5.66289100646972656250e+01) (49, 5.67079658508300781250e+01) (50, -2.02371746301651000977e-01) (0, 5.66604728698730468750e+01) (1, 5.65549278259277343750e+01) (2, 5.66870536804199218750e+01) (3, 5.66777763366699218750e+01) (4, 5.65438499450683593750e+01) (5, 5.67323265075683593750e+01) (6, 5.66023902893066406250e+01) (7, 5.65989036560058593750e+01) (8, 5.65496940612792968750e+01) (9, 5.66949348449707031250e+01) (10, 5.67104225158691406250e+01) (11, 5.66782493591308593750e+01) (12, 5.67283058166503906250e+01) (13, 5.66283454895019531250e+01) (14, 5.65450859069824218750e+01) (15, 5.65417900085449218750e+01) (16, 5.66182136535644531250e+01) (17, 5.65674018859863281250e+01) (18, 5.65504112243652343750e+01) (19, 5.67118949890136718750e+01) (20, 5.65891456604003906250e+01) (21, 5.66925086975097656250e+01) (22, 5.66165046691894531250e+01) (23, 5.67241401672363281250e+01) (24, 5.67165031433105468750e+01) (25, 5.66310157775878906250e+01) (26, 5.66004600524902343750e+01) (27, 5.66898231506347656250e+01) (28, 5.67188529968261718750e+01) (29, 5.65699806213378906250e+01) (30, 5.66131172180175781250e+01) (31, 5.65604286193847656250e+01) (32, 5.65894203186035156250e+01) (33, 5.66864128112792968750e+01) (34, 5.65532417297363281250e+01) (35, 5.66503715515136718750e+01) (36, 5.66531181335449218750e+01) (37, 5.67014122009277343750e+01) (38, 5.66700935363769531250e+01) (39, 5.66740531921386718750e+01) (40, 5.66800804138183593750e+01) (41, 5.66643943786621093750e+01) (42, 5.66358375549316406250e+01) (43, 5.66537437438964843750e+01) (44, 5.65872077941894531250e+01) (45, 5.65736122131347656250e+01) (46, 5.67089576721191406250e+01) (47, 5.65543403625488281250e+01) (48, 5.65587654113769531250e+01) (49, 5.65392646789550781250e+01) (50, -3.30288782715797424316e-02) (0, 5.66014137268066406250e+01) (1, 5.67174034118652343750e+01) (2, 5.66954231262207031250e+01) (3, 5.67102394104003906250e+01) (4, 5.65385932922363281250e+01) (5, 5.65768394470214843750e+01) (6, 5.65670814514160156250e+01) (7, 5.65567283630371093750e+01) (8, 5.65807609558105468750e+01) (9, 5.66073799133300781250e+01) (10, 5.66984672546386718750e+01) (11, 5.66111488342285156250e+01) (12, 5.67191276550292968750e+01) (13, 5.65456504821777343750e+01) (14, 5.66489601135253906250e+01) (15, 5.65875816345214843750e+01) (16, 5.67345466613769531250e+01) (17, 5.65796318054199218750e+01) (18, 5.65628852844238281250e+01) (19, 5.66281929016113281250e+01) (20, 5.65752830505371093750e+01) (21, 5.66404457092285156250e+01) (22, 5.66193199157714843750e+01) (23, 5.65786857604980468750e+01) (24, 5.66554603576660156250e+01) (25, 5.67318840026855468750e+01) (26, 5.65682182312011718750e+01) (27, 5.66048774719238281250e+01) (28, 5.67304801940917968750e+01) (29, 5.67292594909667968750e+01) (30, 5.66591987609863281250e+01) (31, 5.66314582824707031250e+01) (32, 5.67056465148925781250e+01) (33, 5.65784645080566406250e+01) (34, 5.65690879821777343750e+01) (35, 5.65843315124511718750e+01) (36, 5.66342201232910156250e+01) (37, 5.67268333435058593750e+01) (38, 5.66345329284667968750e+01) (39, 5.67176628112792968750e+01) (40, 5.66612358093261718750e+01) (41, 5.67167549133300781250e+01) (42, 5.65960273742675781250e+01) (43, 5.66069755554199218750e+01) (44, 5.65691642761230468750e+01) (45, 5.65735359191894531250e+01) (46, 5.65594062805175781250e+01) (47, 5.66895332336425781250e+01) (48, 5.66818962097167968750e+01) (49, 5.67185707092285156250e+01) (50, -1.78995311260223388672e-01) (0, 5.67331809997558593750e+01) (1, 5.65831031799316406250e+01) (2, 5.66392250061035156250e+01) (3, 5.65843620300292968750e+01) (4, 5.67149925231933593750e+01) (5, 5.66053276062011718750e+01) (6, 5.66465492248535156250e+01) (7, 5.66094779968261718750e+01) (8, 5.66909141540527343750e+01) (9, 5.65460319519042968750e+01) (10, 5.65521888732910156250e+01) (11, 5.67096900939941406250e+01) (12, 5.67377204895019531250e+01) (13, 5.65668296813964843750e+01) (14, 5.65956230163574218750e+01) (15, 5.66936149597167968750e+01) (16, 5.65484046936035156250e+01) (17, 5.67321815490722656250e+01) (18, 5.66530723571777343750e+01) (19, 5.66236610412597656250e+01) (20, 5.65624046325683593750e+01) (21, 5.65437965393066406250e+01) (22, 5.66593437194824218750e+01) (23, 5.66756172180175781250e+01) (24, 5.66117973327636718750e+01) (25, 5.67270088195800781250e+01) (26, 5.66737174987792968750e+01) (27, 5.66658592224121093750e+01) (28, 5.65648155212402343750e+01) (29, 5.66252861022949218750e+01) (30, 5.67213325500488281250e+01) (31, 5.66522865295410156250e+01) (32, 5.65478096008300781250e+01) (33, 5.66592826843261718750e+01) (34, 5.66411170959472656250e+01) (35, 5.67154502868652343750e+01) (36, 5.66270179748535156250e+01) (37, 5.66065330505371093750e+01) (38, 5.66717033386230468750e+01) (39, 5.67259559631347656250e+01) (40, 5.67313804626464843750e+01) (41, 5.65580863952636718750e+01) (42, 5.66063423156738281250e+01) (43, 5.66044349670410156250e+01) (44, 5.66975135803222656250e+01) (45, 5.67084541320800781250e+01) (46, 5.66484107971191406250e+01) (47, 5.66803779602050781250e+01) (48, 5.66183280944824218750e+01) (49, 5.66348457336425781250e+01) (50, 3.86877983808517456055e-01) (0, 5.66559791564941406250e+01) (1, 5.65763587951660156250e+01) (2, 5.66222419738769531250e+01) (3, 5.67037315368652343750e+01) (4, 5.65814323425292968750e+01) (5, 5.65430335998535156250e+01) (6, 5.66903572082519531250e+01) (7, 5.66030769348144531250e+01) (8, 5.65476570129394531250e+01) (9, 5.67253837585449218750e+01) (10, 5.66788368225097656250e+01) (11, 5.66955986022949218750e+01) (12, 5.67029533386230468750e+01) (13, 5.65410575866699218750e+01) (14, 5.66468467712402343750e+01) (15, 5.65670890808105468750e+01) (16, 5.66997184753417968750e+01) (17, 5.67033119201660156250e+01) (18, 5.65434761047363281250e+01) (19, 5.66040382385253906250e+01) (20, 5.65774650573730468750e+01) (21, 5.65968132019042968750e+01) (22, 5.66049766540527343750e+01) (23, 5.66267051696777343750e+01) (24, 5.65884284973144531250e+01) (25, 5.66259117126464843750e+01) (26, 5.66352577209472656250e+01) (27, 5.66726188659667968750e+01) (28, 5.65720176696777343750e+01) (29, 5.67162284851074218750e+01) (30, 5.66258659362792968750e+01) (31, 5.65618019104003906250e+01) (32, 5.65843009948730468750e+01) (33, 5.66511726379394531250e+01) (34, 5.66716117858886718750e+01) (35, 5.65747718811035156250e+01) (36, 5.65889091491699218750e+01) (37, 5.66243782043457031250e+01) (38, 5.66381721496582031250e+01) (39, 5.66747550964355468750e+01) (40, 5.67153968811035156250e+01) (41, 5.66894493103027343750e+01) (42, 5.65378913879394531250e+01) (43, 5.66052665710449218750e+01) (44, 5.66915245056152343750e+01) (45, 5.66881904602050781250e+01) (46, 5.66700553894042968750e+01) (47, 5.66943168640136718750e+01) (48, 5.65555915832519531250e+01) (49, 5.65386238098144531250e+01) (50, 4.22934085130691528320e-01) (0, 5.66965751647949218750e+01) (1, 5.66550712585449218750e+01) (2, 5.66640434265136718750e+01) (3, 5.66062660217285156250e+01) (4, 5.67045478820800781250e+01) (5, 5.66378822326660156250e+01) (6, 5.66442604064941406250e+01) (7, 5.66332206726074218750e+01) (8, 5.66602973937988281250e+01) (9, 5.66423988342285156250e+01) (10, 5.66704597473144531250e+01) (11, 5.66701469421386718750e+01) (12, 5.66986961364746093750e+01) (13, 5.65926399230957031250e+01) (14, 5.66847496032714843750e+01) (15, 5.66482200622558593750e+01) (16, 5.66535911560058593750e+01) (17, 5.66047325134277343750e+01) (18, 5.65857582092285156250e+01) (19, 5.66306495666503906250e+01) (20, 5.65581398010253906250e+01) (21, 5.66109199523925781250e+01) (22, 5.65814857482910156250e+01) (23, 5.66790733337402343750e+01) (24, 5.66705207824707031250e+01) (25, 5.66075019836425781250e+01) (26, 5.66706886291503906250e+01) (27, 5.67344245910644531250e+01) (28, 5.66562614440917968750e+01) (29, 5.66327247619628906250e+01) (30, 5.67340049743652343750e+01) (31, 5.66685676574707031250e+01) (32, 5.66585121154785156250e+01) (33, 5.66811027526855468750e+01) (34, 5.66161079406738281250e+01) (35, 5.65627937316894531250e+01) (36, 5.66873741149902343750e+01) (37, 5.66602592468261718750e+01) (38, 5.66801567077636718750e+01) (39, 5.65695838928222656250e+01) (40, 5.66597328186035156250e+01) (41, 5.65966529846191406250e+01) (42, 5.66156501770019531250e+01) (43, 5.66138038635253906250e+01) (44, 5.67206153869628906250e+01) (45, 5.65962867736816406250e+01) (46, 5.65812416076660156250e+01) (47, 5.66896018981933593750e+01) (48, 5.65775184631347656250e+01) (49, 5.65668373107910156250e+01) (50, -3.95718291401863098145e-02) (0, 5.66092567443847656250e+01) (1, 5.66788597106933593750e+01) (2, 5.66073341369628906250e+01) (3, 5.67321891784667968750e+01) (4, 5.65602378845214843750e+01) (5, 5.65677680969238281250e+01) (6, 5.66716346740722656250e+01) (7, 5.66762886047363281250e+01) (8, 5.67267265319824218750e+01) (9, 5.66426124572753906250e+01) (10, 5.66120109558105468750e+01) (11, 5.66967048645019531250e+01) (12, 5.67318153381347656250e+01) (13, 5.66553382873535156250e+01) (14, 5.66090965270996093750e+01) (15, 5.66423301696777343750e+01) (16, 5.65566444396972656250e+01) (17, 5.65789527893066406250e+01) (18, 5.66942939758300781250e+01) (19, 5.66674156188964843750e+01) (20, 5.66928367614746093750e+01) (21, 5.65754585266113281250e+01) (22, 5.65711631774902343750e+01) (23, 5.65926704406738281250e+01) (24, 5.65842475891113281250e+01) (25, 5.66953849792480468750e+01) (26, 5.66417732238769531250e+01) (27, 5.66510353088378906250e+01) (28, 5.67145576477050781250e+01) (29, 5.66401710510253906250e+01) (30, 5.66444282531738281250e+01) (31, 5.65995826721191406250e+01) (32, 5.65966835021972656250e+01) (33, 5.66187934875488281250e+01) (34, 5.66089820861816406250e+01) (35, 5.66785392761230468750e+01) (36, 5.66205024719238281250e+01) (37, 5.66296730041503906250e+01) (38, 5.67359199523925781250e+01) (39, 5.65990028381347656250e+01) (40, 5.66149864196777343750e+01) (41, 5.65993156433105468750e+01) (42, 5.67056388854980468750e+01) (43, 5.66402626037597656250e+01) (44, 5.66810035705566406250e+01) (45, 5.67087821960449218750e+01) (46, 5.66238746643066406250e+01) (47, 5.66382484436035156250e+01) (48, 5.65511436462402343750e+01) (49, 5.65392799377441406250e+01) (50, 1.07665397226810455322e-02) (0, 5.65461463928222656250e+01) (1, 5.66327018737792968750e+01) (2, 5.65682792663574218750e+01) (3, 5.67335472106933593750e+01) (4, 5.65486335754394531250e+01) (5, 5.65901222229003906250e+01) (6, 5.66470756530761718750e+01) (7, 5.67068748474121093750e+01) (8, 5.66108055114746093750e+01) (9, 5.66231422424316406250e+01) (10, 5.65914039611816406250e+01) (11, 5.66379356384277343750e+01) (12, 5.66431388854980468750e+01) (13, 5.66968955993652343750e+01) (14, 5.67160835266113281250e+01) (15, 5.66514396667480468750e+01) (16, 5.65637397766113281250e+01) (17, 5.66802253723144531250e+01) (18, 5.66451606750488281250e+01) (19, 5.66836204528808593750e+01) (20, 5.66390647888183593750e+01) (21, 5.66484489440917968750e+01) (22, 5.66285743713378906250e+01) (23, 5.66569862365722656250e+01) (24, 5.65844612121582031250e+01) (25, 5.67068061828613281250e+01) (26, 5.66968193054199218750e+01) (27, 5.65415229797363281250e+01) (28, 5.66056861877441406250e+01) (29, 5.65908699035644531250e+01) (30, 5.66846275329589843750e+01) (31, 5.66084327697753906250e+01) (32, 5.66626853942871093750e+01) (33, 5.66001853942871093750e+01) (34, 5.66552238464355468750e+01) (35, 5.66826896667480468750e+01) (36, 5.67369194030761718750e+01) (37, 5.67213249206542968750e+01) (38, 5.65560111999511718750e+01) (39, 5.67006340026855468750e+01) (40, 5.65834388732910156250e+01) (41, 5.66966514587402343750e+01) (42, 5.66373023986816406250e+01) (43, 5.65790443420410156250e+01) (44, 5.65489616394042968750e+01) (45, 5.66950950622558593750e+01) (46, 5.66651115417480468750e+01) (47, 5.67015800476074218750e+01) (48, 5.67372550964355468750e+01) (49, 5.65410194396972656250e+01) (50, -4.35269251465797424316e-02) (0, 5.66292304992675781250e+01) (1, 5.67029685974121093750e+01) (2, 5.65576515197753906250e+01) (3, 5.65888404846191406250e+01) (4, 5.65407218933105468750e+01) (5, 5.65553169250488281250e+01) (6, 5.65811576843261718750e+01) (7, 5.65536766052246093750e+01) (8, 5.66093406677246093750e+01) (9, 5.66526832580566406250e+01) (10, 5.66016578674316406250e+01) (11, 5.66875038146972656250e+01) (12, 5.66222419738769531250e+01) (13, 5.65696067810058593750e+01) (14, 5.65875053405761718750e+01) (15, 5.67095909118652343750e+01) (16, 5.66487007141113281250e+01) (17, 5.67171363830566406250e+01) (18, 5.65489768981933593750e+01) (19, 5.65587654113769531250e+01) (20, 5.66633415222167968750e+01) (21, 5.66980781555175781250e+01) (22, 5.65976295471191406250e+01) (23, 5.66402397155761718750e+01) (24, 5.67307014465332031250e+01) (25, 5.65782203674316406250e+01) (26, 5.66577339172363281250e+01) (27, 5.67165260314941406250e+01) (28, 5.66574821472167968750e+01) (29, 5.65547981262207031250e+01) (30, 5.65857429504394531250e+01) (31, 5.65737800598144531250e+01) (32, 5.67185020446777343750e+01) (33, 5.66034584045410156250e+01) (34, 5.65543556213378906250e+01) (35, 5.66947975158691406250e+01) (36, 5.65627632141113281250e+01) (37, 5.65850944519042968750e+01) (38, 5.66572227478027343750e+01) (39, 5.66698417663574218750e+01) (40, 5.67058830261230468750e+01) (41, 5.65935707092285156250e+01) (42, 5.65905799865722656250e+01) (43, 5.65766639709472656250e+01) (44, 5.67150840759277343750e+01) (45, 5.66257591247558593750e+01) (46, 5.65681571960449218750e+01) (47, 5.66609153747558593750e+01) (48, 5.66929817199707031250e+01) (49, 5.65551490783691406250e+01) (50, 1.46356830373406410217e-03) (0, 5.65481605529785156250e+01) (1, 5.65665016174316406250e+01) (2, 5.66901359558105468750e+01) (3, 5.65698890686035156250e+01) (4, 5.67188148498535156250e+01) (5, 5.65870933532714843750e+01) (6, 5.66983604431152343750e+01) (7, 5.67325248718261718750e+01) (8, 5.66771888732910156250e+01) (9, 5.65485038757324218750e+01) (10, 5.65783271789550781250e+01) (11, 5.65785102844238281250e+01) (12, 5.65459938049316406250e+01) (13, 5.67284431457519531250e+01) (14, 5.66595344543457031250e+01) (15, 5.67315864562988281250e+01) (16, 5.67173957824707031250e+01) (17, 5.66602592468261718750e+01) (18, 5.67123451232910156250e+01) (19, 5.66694297790527343750e+01) (20, 5.66920280456542968750e+01) (21, 5.65409812927246093750e+01) (22, 5.65488777160644531250e+01) (23, 5.66459770202636718750e+01) (24, 5.67371177673339843750e+01) (25, 5.65819282531738281250e+01) (26, 5.65962257385253906250e+01) (27, 5.66968803405761718750e+01) (28, 5.66949958801269531250e+01) (29, 5.67081413269042968750e+01) (30, 5.66230888366699218750e+01) (31, 5.65844917297363281250e+01) (32, 5.65732688903808593750e+01) (33, 5.67129325866699218750e+01) (34, 5.67012596130371093750e+01) (35, 5.66384620666503906250e+01) (36, 5.66478691101074218750e+01) (37, 5.66736564636230468750e+01) (38, 5.65830497741699218750e+01) (39, 5.65484199523925781250e+01) (40, 5.67102470397949218750e+01) (41, 5.67352333068847656250e+01) (42, 5.65760688781738281250e+01) (43, 5.66646842956542968750e+01) (44, 5.65899391174316406250e+01) (45, 5.66673011779785156250e+01) (46, 5.66964378356933593750e+01) (47, 5.66636009216308593750e+01) (48, 5.65838356018066406250e+01) (49, 5.67016181945800781250e+01) (50, -1.78433805704116821289e-01) (0, 5.67334556579589843750e+01) (1, 5.67232322692871093750e+01) (2, 5.66556892395019531250e+01) (3, 5.65454292297363281250e+01) (4, 5.67374229431152343750e+01) (5, 5.67101249694824218750e+01) (6, 5.66489906311035156250e+01) (7, 5.66523475646972656250e+01) (8, 5.67096595764160156250e+01) (9, 5.66538658142089843750e+01) (10, 5.66180686950683593750e+01) (11, 5.65993309020996093750e+01) (12, 5.65408897399902343750e+01) (13, 5.66394081115722656250e+01) (14, 5.67366447448730468750e+01) (15, 5.66793479919433593750e+01) (16, 5.66096687316894531250e+01) (17, 5.66585197448730468750e+01) (18, 5.65470924377441406250e+01) (19, 5.66122245788574218750e+01) (20, 5.66156196594238281250e+01) (21, 5.67350883483886718750e+01) (22, 5.67095146179199218750e+01) (23, 5.67224769592285156250e+01) (24, 5.65708656311035156250e+01) (25, 5.65758094787597656250e+01) (26, 5.65745735168457031250e+01) (27, 5.66456642150878906250e+01) (28, 5.66059150695800781250e+01) (29, 5.65775718688964843750e+01) (30, 5.66865043640136718750e+01) (31, 5.66445503234863281250e+01) (32, 5.65462150573730468750e+01) (33, 5.67226676940917968750e+01) (34, 5.66223258972167968750e+01) (35, 5.67162742614746093750e+01) (36, 5.67157402038574218750e+01) (37, 5.65932044982910156250e+01) (38, 5.66737556457519531250e+01) (39, 5.65717201232910156250e+01) (40, 5.67237205505371093750e+01) (41, 5.66358222961425781250e+01) (42, 5.65778846740722656250e+01) (43, 5.66684684753417968750e+01) (44, 5.66908149719238281250e+01) (45, 5.67081565856933593750e+01) (46, 5.66029243469238281250e+01) (47, 5.65785484313964843750e+01) (48, 5.66710319519042968750e+01) (49, 5.66381187438964843750e+01) (50, -2.20369875431060791016e-01) (0, 5.66720695495605468750e+01) (1, 5.67255897521972656250e+01) (2, 5.66273384094238281250e+01) (3, 5.66944389343261718750e+01) (4, 5.65982551574707031250e+01) (5, 5.66049308776855468750e+01) (6, 5.66299858093261718750e+01) (7, 5.67210197448730468750e+01) (8, 5.65449485778808593750e+01) (9, 5.66953010559082031250e+01) (10, 5.65382881164550781250e+01) (11, 5.65458106994628906250e+01) (12, 5.65578269958496093750e+01) (13, 5.65858879089355468750e+01) (14, 5.67058296203613281250e+01) (15, 5.66444511413574218750e+01) (16, 5.67007255554199218750e+01) (17, 5.67130241394042968750e+01) (18, 5.66401023864746093750e+01) (19, 5.65449333190917968750e+01) (20, 5.65381584167480468750e+01) (21, 5.66375617980957031250e+01) (22, 5.65954017639160156250e+01) (23, 5.65739631652832031250e+01) (24, 5.67214012145996093750e+01) (25, 5.66116676330566406250e+01) (26, 5.66973381042480468750e+01) (27, 5.66083106994628906250e+01) (28, 5.65592689514160156250e+01) (29, 5.65913734436035156250e+01) (30, 5.67302665710449218750e+01) (31, 5.66375465393066406250e+01) (32, 5.65550041198730468750e+01) (33, 5.65510215759277343750e+01) (34, 5.66188850402832031250e+01) (35, 5.66443595886230468750e+01) (36, 5.65903816223144531250e+01) (37, 5.66559867858886718750e+01) (38, 5.67351646423339843750e+01) (39, 5.66086463928222656250e+01) (40, 5.65382881164550781250e+01) (41, 5.65497779846191406250e+01) (42, 5.66619377136230468750e+01) (43, 5.65417213439941406250e+01) (44, 5.65851478576660156250e+01) (45, 5.67118949890136718750e+01) (46, 5.65444297790527343750e+01) (47, 5.65568885803222656250e+01) (48, 5.66443290710449218750e+01) (49, 5.65425987243652343750e+01) (50, -4.20742705464363098145e-02) (0, 5.66825065612792968750e+01) (1, 5.65417747497558593750e+01) (2, 5.67309150695800781250e+01) (3, 5.65433998107910156250e+01) (4, 5.66239356994628906250e+01) (5, 5.65552253723144531250e+01) (6, 5.65620918273925781250e+01) (7, 5.66810111999511718750e+01) (8, 5.65805778503417968750e+01) (9, 5.65881538391113281250e+01) (10, 5.67207221984863281250e+01) (11, 5.67348136901855468750e+01) (12, 5.67242088317871093750e+01) (13, 5.65597267150878906250e+01) (14, 5.66458778381347656250e+01) (15, 5.66978721618652343750e+01) (16, 5.66448707580566406250e+01) (17, 5.66920661926269531250e+01) (18, 5.65943870544433593750e+01) (19, 5.67302436828613281250e+01) (20, 5.65706825256347656250e+01) (21, 5.66759376525878906250e+01) (22, 5.66686210632324218750e+01) (23, 5.67007255554199218750e+01) (24, 5.66676216125488281250e+01) (25, 5.65963172912597656250e+01) (26, 5.65649147033691406250e+01) (27, 5.65664482116699218750e+01) (28, 5.66256980895996093750e+01) (29, 5.65989036560058593750e+01) (30, 5.66990470886230468750e+01) (31, 5.66216697692871093750e+01) (32, 5.66376762390136718750e+01) (33, 5.65788917541503906250e+01) (34, 5.66647682189941406250e+01) (35, 5.65468482971191406250e+01) (36, 5.65766792297363281250e+01) (37, 5.66733207702636718750e+01) (38, 5.66819725036621093750e+01) (39, 5.66895179748535156250e+01) (40, 5.66787834167480468750e+01) (41, 5.66381034851074218750e+01) (42, 5.65903892517089843750e+01) (43, 5.67078742980957031250e+01) (44, 5.67369880676269531250e+01) (45, 5.66911659240722656250e+01) (46, 5.66453590393066406250e+01) (47, 5.66086769104003906250e+01) (48, 5.67128257751464843750e+01) (49, 5.67027702331542968750e+01) (50, -3.11673097312450408936e-02) (0, 5.67103919982910156250e+01) (1, 5.65716590881347656250e+01) (2, 5.67143821716308593750e+01) (3, 5.66323280334472656250e+01) (4, 5.65630836486816406250e+01) (5, 5.66481819152832031250e+01) (6, 5.66673393249511718750e+01) (7, 5.65668678283691406250e+01) (8, 5.65561256408691406250e+01) (9, 5.65481910705566406250e+01) (10, 5.67224922180175781250e+01) (11, 5.65581779479980468750e+01) (12, 5.66450996398925781250e+01) (13, 5.66929283142089843750e+01) (14, 5.66521034240722656250e+01) (15, 5.66813545227050781250e+01) (16, 5.67290534973144531250e+01) (17, 5.67123222351074218750e+01) (18, 5.66852989196777343750e+01) (19, 5.65924491882324218750e+01) (20, 5.67094078063964843750e+01) (21, 5.65931739807128906250e+01) (22, 5.66882743835449218750e+01) (23, 5.67129249572753906250e+01) (24, 5.65617866516113281250e+01) (25, 5.65888328552246093750e+01) (26, 5.66604957580566406250e+01) (27, 5.66659355163574218750e+01) (28, 5.66519279479980468750e+01) (29, 5.65963096618652343750e+01) (30, 5.66282005310058593750e+01) (31, 5.67209281921386718750e+01) (32, 5.66270256042480468750e+01) (33, 5.66073036193847656250e+01) (34, 5.67163658142089843750e+01) (35, 5.67026786804199218750e+01) (36, 5.67137260437011718750e+01) (37, 5.65393028259277343750e+01) (38, 5.66805076599121093750e+01) (39, 5.67209281921386718750e+01) (40, 5.65539283752441406250e+01) (41, 5.66529273986816406250e+01) (42, 5.66794242858886718750e+01) (43, 5.65770988464355468750e+01) (44, 5.66098976135253906250e+01) (45, 5.66619834899902343750e+01) (46, 5.65702476501464843750e+01) (47, 5.66041603088378906250e+01) (48, 5.66695365905761718750e+01) (49, 5.65422325134277343750e+01) (50, 4.48117166757583618164e-01) (0, 5.65959281921386718750e+01) (1, 5.66835212707519531250e+01) (2, 5.65453071594238281250e+01) (3, 5.67240562438964843750e+01) (4, 5.65821189880371093750e+01) (5, 5.66651725769042968750e+01) (6, 5.66239280700683593750e+01) (7, 5.66851539611816406250e+01) (8, 5.67052879333496093750e+01) (9, 5.66845207214355468750e+01) (10, 5.65746726989746093750e+01) (11, 5.66803245544433593750e+01) (12, 5.65560493469238281250e+01) (13, 5.66878166198730468750e+01) (14, 5.67046394348144531250e+01) (15, 5.66508827209472656250e+01) (16, 5.66226921081542968750e+01) (17, 5.65735816955566406250e+01) (18, 5.67281455993652343750e+01) (19, 5.67243309020996093750e+01) (20, 5.66115226745605468750e+01) (21, 5.66565971374511718750e+01) (22, 5.66997337341308593750e+01) (23, 5.66402244567871093750e+01) (24, 5.66941337585449218750e+01) (25, 5.65510673522949218750e+01) (26, 5.66898002624511718750e+01) (27, 5.65484046936035156250e+01) (28, 5.66379280090332031250e+01) (29, 5.66041069030761718750e+01) (30, 5.66090431213378906250e+01) (31, 5.65606498718261718750e+01) (32, 5.66760444641113281250e+01) (33, 5.67109260559082031250e+01) (34, 5.66879692077636718750e+01) (35, 5.67371101379394531250e+01) (36, 5.66730232238769531250e+01) (37, 5.66428565979003906250e+01) (38, 5.66177101135253906250e+01) (39, 5.66888160705566406250e+01) (40, 5.66423835754394531250e+01) (41, 5.67195854187011718750e+01) (42, 5.66585044860839843750e+01) (43, 5.66773567199707031250e+01) (44, 5.65724601745605468750e+01) (45, 5.65566749572753906250e+01) (46, 5.67219047546386718750e+01) (47, 5.65931892395019531250e+01) (48, 5.66166419982910156250e+01) (49, 5.67198600769042968750e+01) (50, 4.74203616380691528320e-01) (0, 5.66935844421386718750e+01) (1, 5.66043205261230468750e+01) (2, 5.66170997619628906250e+01) (3, 5.66796684265136718750e+01) (4, 5.66817283630371093750e+01) (5, 5.67288551330566406250e+01) (6, 5.66598777770996093750e+01) (7, 5.66526145935058593750e+01) (8, 5.66079292297363281250e+01) (9, 5.65686378479003906250e+01) (10, 5.66247978210449218750e+01) (11, 5.66866340637207031250e+01) (12, 5.65745048522949218750e+01) (13, 5.66976966857910156250e+01) (14, 5.66469459533691406250e+01) (15, 5.67051734924316406250e+01) (16, 5.67253303527832031250e+01) (17, 5.66419410705566406250e+01) (18, 5.65759773254394531250e+01) (19, 5.65768699645996093750e+01) (20, 5.67014122009277343750e+01) (21, 5.66374320983886718750e+01) (22, 5.67265129089355468750e+01) (23, 5.65896644592285156250e+01) (24, 5.66437568664550781250e+01) (25, 5.65467796325683593750e+01) (26, 5.65537757873535156250e+01) (27, 5.65486030578613281250e+01) (28, 5.67247657775878906250e+01) (29, 5.65900230407714843750e+01) (30, 5.66860084533691406250e+01) (31, 5.66038856506347656250e+01) (32, 5.66893119812011718750e+01) (33, 5.66462440490722656250e+01) (34, 5.66446723937988281250e+01) (35, 5.66150474548339843750e+01) (36, 5.65869712829589843750e+01) (37, 5.65820960998535156250e+01) (38, 5.66838188171386718750e+01) (39, 5.65578880310058593750e+01) (40, 5.65763893127441406250e+01) (41, 5.65635261535644531250e+01) (42, 5.66799049377441406250e+01) (43, 5.65801353454589843750e+01) (44, 5.65832252502441406250e+01) (45, 5.66070137023925781250e+01) (46, 5.67031440734863281250e+01) (47, 5.66122169494628906250e+01) (48, 5.66928749084472656250e+01) (49, 5.67264213562011718750e+01) (50, 3.90375286340713500977e-01) (0, 5.65393562316894531250e+01) (1, 5.66591300964355468750e+01) (2, 5.67318840026855468750e+01) (3, 5.66309242248535156250e+01) (4, 5.66412315368652343750e+01) (5, 5.66102409362792968750e+01) (6, 5.66368598937988281250e+01) (7, 5.66555213928222656250e+01) (8, 5.67054939270019531250e+01) (9, 5.67333488464355468750e+01) (10, 5.67296257019042968750e+01) (11, 5.65617179870605468750e+01) (12, 5.67213478088378906250e+01) (13, 5.66187705993652343750e+01) (14, 5.66654777526855468750e+01) (15, 5.66047782897949218750e+01) (16, 5.65594291687011718750e+01) (17, 5.66452751159667968750e+01) (18, 5.66359367370605468750e+01) (19, 5.67266731262207031250e+01) (20, 5.65443382263183593750e+01) (21, 5.66876411437988281250e+01) (22, 5.65710792541503906250e+01) (23, 5.65739555358886718750e+01) (24, 5.67259101867675781250e+01) (25, 5.67276878356933593750e+01) (26, 5.66313972473144531250e+01) (27, 5.66473579406738281250e+01) (28, 5.65556297302246093750e+01) (29, 5.66501350402832031250e+01) (30, 5.65452613830566406250e+01) (31, 5.67141380310058593750e+01) (32, 5.65743446350097656250e+01) (33, 5.66044044494628906250e+01) (34, 5.66484489440917968750e+01) (35, 5.67147102355957031250e+01) (36, 5.66175575256347656250e+01) (37, 5.66137733459472656250e+01) (38, 5.65818214416503906250e+01) (39, 5.66945838928222656250e+01) (40, 5.65445671081542968750e+01) (41, 5.66129493713378906250e+01) (42, 5.67034492492675781250e+01) (43, 5.65929450988769531250e+01) (44, 5.65976600646972656250e+01) (45, 5.65954933166503906250e+01) (46, 5.65714302062988281250e+01) (47, 5.66191673278808593750e+01) (48, 5.65976295471191406250e+01) (49, 5.66521949768066406250e+01) (50, 3.42212438583374023438e-01) (0, 5.66484336853027343750e+01) (1, 5.66819496154785156250e+01) (2, 5.65817604064941406250e+01) (3, 5.67210502624511718750e+01) (4, 5.65677604675292968750e+01) (5, 5.65915946960449218750e+01) (6, 5.66550025939941406250e+01) (7, 5.66794853210449218750e+01) (8, 5.66036415100097656250e+01) (9, 5.66131935119628906250e+01) (10, 5.66137657165527343750e+01) (11, 5.66984977722167968750e+01) (12, 5.65626335144042968750e+01) (13, 5.65822792053222656250e+01) (14, 5.66859169006347656250e+01) (15, 5.65910682678222656250e+01) (16, 5.66160087585449218750e+01) (17, 5.66542472839355468750e+01) (18, 5.66975669860839843750e+01) (19, 5.67020301818847656250e+01) (20, 5.65598793029785156250e+01) (21, 5.66490821838378906250e+01) (22, 5.66638145446777343750e+01) (23, 5.66607780456542968750e+01) (24, 5.65818824768066406250e+01) (25, 5.66762351989746093750e+01) (26, 5.65392494201660156250e+01) (27, 5.66547889709472656250e+01) (28, 5.66658058166503906250e+01) (29, 5.66457252502441406250e+01) (30, 5.67095222473144531250e+01) (31, 5.66799888610839843750e+01) (32, 5.66653709411621093750e+01) (33, 5.65719261169433593750e+01) (34, 5.67050895690917968750e+01) (35, 5.67243995666503906250e+01) (36, 5.65783424377441406250e+01) (37, 5.66760673522949218750e+01) (38, 5.67185325622558593750e+01) (39, 5.65411796569824218750e+01) (40, 5.66523323059082031250e+01) (41, 5.65939521789550781250e+01) (42, 5.66066627502441406250e+01) (43, 5.65674476623535156250e+01) (44, 5.66534690856933593750e+01) (45, 5.66948661804199218750e+01) (46, 5.65585899353027343750e+01) (47, 5.66449623107910156250e+01) (48, 5.67292137145996093750e+01) (49, 5.66181373596191406250e+01) (50, 4.52163815498352050781e-01) (0, 5.66990852355957031250e+01) (1, 5.65965766906738281250e+01) (2, 5.66335487365722656250e+01) (3, 5.66924247741699218750e+01) (4, 5.66321220397949218750e+01) (5, 5.66869621276855468750e+01) (6, 5.67317314147949218750e+01) (7, 5.65760765075683593750e+01) (8, 5.65874671936035156250e+01) (9, 5.65789222717285156250e+01) (10, 5.66510276794433593750e+01) (11, 5.66253318786621093750e+01) (12, 5.66406059265136718750e+01) (13, 5.65499916076660156250e+01) (14, 5.65467491149902343750e+01) (15, 5.67102088928222656250e+01) (16, 5.66733741760253906250e+01) (17, 5.65790061950683593750e+01) (18, 5.67094535827636718750e+01) (19, 5.65778999328613281250e+01) (20, 5.66876182556152343750e+01) (21, 5.66299934387207031250e+01) (22, 5.66381721496582031250e+01) (23, 5.66579780578613281250e+01) (24, 5.67146568298339843750e+01) (25, 5.65489845275878906250e+01) (26, 5.66750144958496093750e+01) (27, 5.65836143493652343750e+01) (28, 5.65765876770019531250e+01) (29, 5.66049385070800781250e+01) (30, 5.67073249816894531250e+01) (31, 5.67100257873535156250e+01) (32, 5.66558570861816406250e+01) (33, 5.66060829162597656250e+01) (34, 5.65436973571777343750e+01) (35, 5.66115226745605468750e+01) (36, 5.67292518615722656250e+01) (37, 5.66229057312011718750e+01) (38, 5.66700630187988281250e+01) (39, 5.66382408142089843750e+01) (40, 5.66226539611816406250e+01) (41, 5.66489906311035156250e+01) (42, 5.65920829772949218750e+01) (43, 5.67139244079589843750e+01) (44, 5.65426521301269531250e+01) (45, 5.66310462951660156250e+01) (46, 5.66701393127441406250e+01) (47, 5.66559638977050781250e+01) (48, 5.66414527893066406250e+01) (49, 5.65992774963378906250e+01) (50, 4.04562026262283325195e-01) (0, 5.65989799499511718750e+01) (1, 5.66711845397949218750e+01) (2, 5.67294578552246093750e+01) (3, 5.66174049377441406250e+01) (4, 5.66031227111816406250e+01) (5, 5.66839179992675781250e+01) (6, 5.66677970886230468750e+01) (7, 5.67169303894042968750e+01) (8, 5.66284141540527343750e+01) (9, 5.66336402893066406250e+01) (10, 