FANN_FLO_2.1
num_layers=2
learning_rate=0.700000
connection_rate=1.000000
network_type=0
learning_momentum=0.000000
training_algorithm=2
train_error_function=1
train_stop_function=0
cascade_output_change_fraction=0.010000
quickprop_decay=-0.000100
quickprop_mu=1.750000
rprop_increase_factor=1.200000
rprop_decrease_factor=0.500000
rprop_delta_min=0.000000
rprop_delta_max=50.000000
rprop_delta_zero=0.100000
cascade_output_stagnation_epochs=12
cascade_candidate_change_fraction=0.010000
cascade_candidate_stagnation_epochs=12
cascade_max_out_epochs=150
cascade_min_out_epochs=50
cascade_max_cand_epochs=150
cascade_min_cand_epochs=50
cascade_num_candidate_groups=2
bit_fail_limit=3.49999994039535520000e-001
cascade_candidate_limit=1.00000000000000000000e+003
cascade_weight_multiplier=4.00000005960464480000e-001
cascade_activation_functions_count=10
cascade_activation_functions=3 5 7 8 10 11 14 15 16 17 
cascade_activation_steepnesses_count=4
cascade_activation_steepnesses=2.50000000000000000000e-001 5.00000000000000000000e-001 7.50000000000000000000e-001 1.00000000000000000000e+000 
layer_sizes=51 101 
scale_included=0
neurons (num_inputs, activation_function, activation_steepness)=(0, 0, 0.00000000000000000000e+000) (0, 0, 0.00000000000000000000e+000) (0, 0, 0.00000000000000000000e+000) (0, 0, 0.00000000000000000000e+000) (0, 0, 0.00000000000000000000e+000) (0, 0, 0.00000000000000000000e+000) (0, 0, 0.00000000000000000000e+000) (0, 0, 0.00000000000000000000e+000) (0, 0, 0.00000000000000000000e+000) (0, 0, 0.00000000000000000000e+000) (0, 0, 0.00000000000000000000e+000) (0, 0, 0.00000000000000000000e+000) (0, 0, 0.00000000000000000000e+000) (0, 0, 0.00000000000000000000e+000) (0, 0, 0.00000000000000000000e+000) (0, 0, 0.00000000000000000000e+000) (0, 0, 0.00000000000000000000e+000) (0, 0, 0.00000000000000000000e+000) (0, 0, 0.00000000000000000000e+000) (0, 0, 0.00000000000000000000e+000) (0, 0, 0.00000000000000000000e+000) (0, 0, 0.00000000000000000000e+000) (0, 0, 0.00000000000000000000e+000) (0, 0, 0.00000000000000000000e+000) (0, 0, 0.00000000000000000000e+000) (0, 0, 0.00000000000000000000e+000) (0, 0, 0.00000000000000000000e+000) (0, 0, 0.00000000000000000000e+000) (0, 0, 0.00000000000000000000e+000) (0, 0, 0.00000000000000000000e+000) (0, 0, 0.00000000000000000000e+000) (0, 0, 0.00000000000000000000e+000) (0, 0, 0.00000000000000000000e+000) (0, 0, 0.00000000000000000000e+000) (0, 0, 0.00000000000000000000e+000) (0, 0, 0.00000000000000000000e+000) (0, 0, 0.00000000000000000000e+000) (0, 0, 0.00000000000000000000e+000) (0, 0, 0.00000000000000000000e+000) (0, 0, 0.00000000000000000000e+000) (0, 0, 0.00000000000000000000e+000) (0, 0, 0.00000000000000000000e+000) (0, 0, 0.00000000000000000000e+000) (0, 0, 0.00000000000000000000e+000) (0, 0, 0.00000000000000000000e+000) (0, 0, 0.00000000000000000000e+000) (0, 0, 0.00000000000000000000e+000) (0, 0, 0.00000000000000000000e+000) (0, 0, 0.00000000000000000000e+000) (0, 0, 0.00000000000000000000e+000) (0, 0, 0.00000000000000000000e+000) (51, 5, 5.00000000000000000000e-001) (51, 5, 5.00000000000000000000e-001) (51, 5, 5.00000000000000000000e-001) (51, 5, 5.00000000000000000000e-001) (51, 5, 5.00000000000000000000e-001) (51, 5, 5.00000000000000000000e-001) (51, 5, 5.00000000000000000000e-001) (51, 5, 5.00000000000000000000e-001) (51, 5, 5.00000000000000000000e-001) (51, 5, 5.00000000000000000000e-001) (51, 5, 5.00000000000000000000e-001) (51, 5, 5.00000000000000000000e-001) (51, 5, 5.00000000000000000000e-001) (51, 5, 5.00000000000000000000e-001) (51, 5, 5.00000000000000000000e-001) (51, 5, 5.00000000000000000000e-001) (51, 5, 5.00000000000000000000e-001) (51, 5, 5.00000000000000000000e-001) (51, 5, 5.00000000000000000000e-001) (51, 5, 5.00000000000000000000e-001) (51, 5, 5.00000000000000000000e-001) (51, 5, 5.00000000000000000000e-001) (51, 5, 5.00000000000000000000e-001) (51, 5, 5.00000000000000000000e-001) (51, 5, 5.00000000000000000000e-001) (51, 5, 5.00000000000000000000e-001) (51, 5, 5.00000000000000000000e-001) (51, 5, 5.00000000000000000000e-001) (51, 5, 5.00000000000000000000e-001) (51, 5, 5.00000000000000000000e-001) (51, 5, 5.00000000000000000000e-001) (51, 5, 5.00000000000000000000e-001) (51, 5, 5.00000000000000000000e-001) (51, 5, 5.00000000000000000000e-001) (51, 5, 5.00000000000000000000e-001) (51, 5, 5.00000000000000000000e-001) (51, 5, 5.00000000000000000000e-001) (51, 5, 5.00000000000000000000e-001) (51, 5, 5.00000000000000000000e-001) (51, 5, 5.00000000000000000000e-001) (51, 5, 5.00000000000000000000e-001) (51, 5, 5.00000000000000000000e-001) (51, 5, 5.00000000000000000000e-001) (51, 5, 5.00000000000000000000e-001) (51, 5, 5.00000000000000000000e-001) (51, 5, 5.00000000000000000000e-001) (51, 5, 5.00000000000000000000e-001) (51, 5, 5.00000000000000000000e-001) (51, 5, 5.00000000000000000000e-001) (51, 5, 5.00000000000000000000e-001) (51, 5, 5.00000000000000000000e-001) (51, 5, 5.00000000000000000000e-001) (51, 5, 5.00000000000000000000e-001) (51, 5, 5.00000000000000000000e-001) (51, 5, 5.00000000000000000000e-001) (51, 5, 5.00000000000000000000e-001) (51, 5, 5.00000000000000000000e-001) (51, 5, 5.00000000000000000000e-001) (51, 5, 5.00000000000000000000e-001) (51, 5, 5.00000000000000000000e-001) (51, 5, 5.00000000000000000000e-001) (51, 5, 5.00000000000000000000e-001) (51, 5, 5.00000000000000000000e-001) (51, 5, 5.00000000000000000000e-001) (51, 5, 5.00000000000000000000e-001) (51, 5, 5.00000000000000000000e-001) (51, 5, 5.00000000000000000000e-001) (51, 5, 5.00000000000000000000e-001) (51, 5, 5.00000000000000000000e-001) (51, 5, 5.00000000000000000000e-001) (51, 5, 5.00000000000000000000e-001) (51, 5, 5.00000000000000000000e-001) (51, 5, 5.00000000000000000000e-001) (51, 5, 5.00000000000000000000e-001) (51, 5, 5.00000000000000000000e-001) (51, 5, 5.00000000000000000000e-001) (51, 5, 5.00000000000000000000e-001) (51, 5, 5.00000000000000000000e-001) (51, 5, 5.00000000000000000000e-001) (51, 5, 5.00000000000000000000e-001) (51, 5, 5.00000000000000000000e-001) (51, 5, 5.00000000000000000000e-001) (51, 5, 5.00000000000000000000e-001) (51, 5, 5.00000000000000000000e-001) (51, 5, 5.00000000000000000000e-001) (51, 5, 5.00000000000000000000e-001) (51, 5, 5.00000000000000000000e-001) (51, 5, 5.00000000000000000000e-001) (51, 5, 5.00000000000000000000e-001) (51, 5, 5.00000000000000000000e-001) (51, 5, 5.00000000000000000000e-001) (51, 5, 5.00000000000000000000e-001) (51, 5, 5.00000000000000000000e-001) (51, 5, 5.00000000000000000000e-001) (51, 5, 5.00000000000000000000e-001) (51, 5, 5.00000000000000000000e-001) (51, 5, 5.00000000000000000000e-001) (51, 5, 5.00000000000000000000e-001) (51, 5, 5.00000000000000000000e-001) (51, 5, 5.00000000000000000000e-001) (0, 5, 0.00000000000000000000e+000) 
connections (connected_to_neuron, weight)=(0, 9.18212905526161190000e-002) (1, -4.85249804454124980000e+036) (2, 1.63495987500000000000e+006) (3, 1.63495987500000000000e+006) (4, 1.63495975000000000000e+006) (5, 1.63495987500000000000e+006) (6, 1.63495987500000000000e+006) (7, 1.63495987500000000000e+006) (8, 1.63495987500000000000e+006) (9, 1.63495975000000000000e+006) (10, 1.63496000000000000000e+006) (11, 1.63496000000000000000e+006) (12, 1.63495987500000000000e+006) (13, 1.63495987500000000000e+006) (14, 1.63495975000000000000e+006) (15, 1.63495975000000000000e+006) (16, 1.63496000000000000000e+006) (17, 1.63495987500000000000e+006) (18, 1.63495975000000000000e+006) (19, 1.63495987500000000000e+006) (20, 1.63495987500000000000e+006) (21, 1.63495987500000000000e+006) (22, 1.63495987500000000000e+006) (23, 1.63495987500000000000e+006) (24, 1.63495987500000000000e+006) (25, 1.63495987500000000000e+006) (26, 1.63495975000000000000e+006) (27, 1.63495975000000000000e+006) (28, 1.63495987500000000000e+006) (29, 1.63496000000000000000e+006) (30, 1.63495987500000000000e+006) (31, 1.63496000000000000000e+006) (32, 1.63496000000000000000e+006) (33, 1.63496000000000000000e+006) (34, 1.63495975000000000000e+006) (35, 1.63495987500000000000e+006) (36, 1.63496000000000000000e+006) (37, 1.63495987500000000000e+006) (38, 1.63495975000000000000e+006) (39, 1.63495987500000000000e+006) (40, 1.63495975000000000000e+006) (41, 1.63496000000000000000e+006) (42, 1.63495987500000000000e+006) (43, 1.63495987500000000000e+006) (44, 1.63495987500000000000e+006) (45, 1.63495987500000000000e+006) (46, 1.63496000000000000000e+006) (47, 1.63496000000000000000e+006) (48, 1.63495975000000000000e+006) (49, 1.63495975000000000000e+006) (50, -9.07272398471832280000e-002) (0, -5.95214851200580600000e-002) (1, 4.85249804454124980000e+036) (2, -1.63495987500000000000e+006) (3, -1.63495987500000000000e+006) (4, -1.63495987500000000000e+006) (5, -1.63496000000000000000e+006) (6, -1.63496000000000000000e+006) (7, -1.63496000000000000000e+006) (8, -1.63495975000000000000e+006) (9, -1.63495987500000000000e+006) (10, -1.63496000000000000000e+006) (11, -1.63495987500000000000e+006) (12, -1.63496000000000000000e+006) (13, -1.63495987500000000000e+006) (14, -1.63496000000000000000e+006) (15, -1.63495987500000000000e+006) (16, -1.63495975000000000000e+006) (17, -1.63495975000000000000e+006) (18, -1.63495975000000000000e+006) (19, -1.63495987500000000000e+006) (20, -1.63495975000000000000e+006) (21, -1.63495975000000000000e+006) (22, -1.63495975000000000000e+006) (23, -1.63495975000000000000e+006) (24, -1.63495975000000000000e+006) (25, -1.63495975000000000000e+006) (26, -1.63496000000000000000e+006) (27, -1.63495987500000000000e+006) (28, -1.63495987500000000000e+006) (29, -1.63495975000000000000e+006) (30, -1.63495987500000000000e+006) (31, -1.63495975000000000000e+006) (32, -1.63495975000000000000e+006) (33, -1.63495975000000000000e+006) (34, -1.63495975000000000000e+006) (35, -1.63495987500000000000e+006) (36, -1.63495987500000000000e+006) (37, -1.63495987500000000000e+006) (38, -1.63495987500000000000e+006) (39, -1.63495975000000000000e+006) (40, -1.63495987500000000000e+006) (41, -1.63495987500000000000e+006) (42, -1.63495987500000000000e+006) (43, -1.63495987500000000000e+006) (44, -1.63496000000000000000e+006) (45, -1.63495987500000000000e+006) (46, -1.63495987500000000000e+006) (47, -1.63495987500000000000e+006) (48, -1.63495987500000000000e+006) (49, -1.63495987500000000000e+006) (50, -1.22832693159580230000e-003) (0, 6.00280761718750000000e-002) (1, -4.85249804454124980000e+036) (2, 1.63495987500000000000e+006) (3, 1.63495987500000000000e+006) (4, 1.63496000000000000000e+006) (5, 1.63495987500000000000e+006) (6, 1.63496000000000000000e+006) (7, 1.63496000000000000000e+006) (8, 1.63495987500000000000e+006) (9, 1.63495987500000000000e+006) (10, 1.63495975000000000000e+006) (11, 1.63496000000000000000e+006) (12, 1.63495987500000000000e+006) (13, 1.63495987500000000000e+006) (14, 1.63495987500000000000e+006) (15, 1.63495987500000000000e+006) (16, 1.63495987500000000000e+006) (17, 1.63495987500000000000e+006) (18, 1.63495987500000000000e+006) (19, 1.63495975000000000000e+006) (20, 1.63495975000000000000e+006) (21, 1.63496000000000000000e+006) (22, 1.63495987500000000000e+006) (23, 1.63495987500000000000e+006) (24, 1.63495975000000000000e+006) (25, 1.63495987500000000000e+006) (26, 1.63495987500000000000e+006) (27, 1.63495975000000000000e+006) (28, 1.63495975000000000000e+006) (29, 1.63495987500000000000e+006) (30, 1.63495987500000000000e+006) (31, 1.63495987500000000000e+006) (32, 1.63495987500000000000e+006) (33, 1.63496000000000000000e+006) (34, 1.63495975000000000000e+006) (35, 1.63495975000000000000e+006) (36, 1.63496000000000000000e+006) (37, 1.63495975000000000000e+006) (38, 1.63495987500000000000e+006) (39, 1.63495987500000000000e+006) (40, 1.63495975000000000000e+006) (41, 1.63495975000000000000e+006) (42, 1.63495987500000000000e+006) (43, 1.63495987500000000000e+006) (44, 1.63495975000000000000e+006) (45, 1.63495987500000000000e+006) (46, 1.63495987500000000000e+006) (47, 1.63495975000000000000e+006) (48, 1.63495975000000000000e+006) (49, 1.63495975000000000000e+006) (50, -9.10873487591743470000e-002) (0, -9.42749008536338810000e-002) (1, -4.85249804454124980000e+036) (2, 1.63495975000000000000e+006) (3, 1.63495975000000000000e+006) (4, 1.63495987500000000000e+006) (5, 1.63495987500000000000e+006) (6, 1.63496000000000000000e+006) (7, 1.63495987500000000000e+006) (8, 1.63495987500000000000e+006) (9, 1.63496000000000000000e+006) (10, 1.63495987500000000000e+006) (11, 1.63495987500000000000e+006) (12, 1.63495975000000000000e+006) (13, 1.63495987500000000000e+006) (14, 1.63495987500000000000e+006) (15, 1.63495987500000000000e+006) (16, 1.63495987500000000000e+006) (17, 1.63495987500000000000e+006) (18, 1.63496000000000000000e+006) (19, 1.63495987500000000000e+006) (20, 1.63495987500000000000e+006) (21, 1.63495987500000000000e+006) (22, 1.63495975000000000000e+006) (23, 1.63495975000000000000e+006) (24, 1.63496000000000000000e+006) (25, 1.63495987500000000000e+006) (26, 1.63495987500000000000e+006) (27, 1.63495975000000000000e+006) (28, 1.63496000000000000000e+006) (29, 1.63495975000000000000e+006) (30, 1.63495975000000000000e+006) (31, 1.63495975000000000000e+006) (32, 1.63495987500000000000e+006) (33, 1.63496000000000000000e+006) (34, 1.63495987500000000000e+006) (35, 1.63495987500000000000e+006) (36, 1.63495987500000000000e+006) (37, 1.63495975000000000000e+006) (38, 1.63496000000000000000e+006) (39, 1.63495987500000000000e+006) (40, 1.63495987500000000000e+006) (41, 1.63495987500000000000e+006) (42, 1.63495975000000000000e+006) (43, 1.63495987500000000000e+006) (44, 1.63495987500000000000e+006) (45, 1.63496000000000000000e+006) (46, 1.63495987500000000000e+006) (47, 1.63495987500000000000e+006) (48, 1.63496000000000000000e+006) (49, 1.63495975000000000000e+006) (50, 4.05044555664062500000e-002) (0, 6.63635283708572390000e-002) (1, -3.99552662470570960000e+036) (2, 1.34621925000000000000e+006) (3, 1.34621937500000000000e+006) (4, 1.34621912500000000000e+006) (5, 1.34621937500000000000e+006) (6, 1.34621925000000000000e+006) (7, 1.34621925000000000000e+006) (8, 1.34621925000000000000e+006) (9, 1.34621925000000000000e+006) (10, 1.34621925000000000000e+006) (11, 1.34621925000000000000e+006) (12, 1.34621912500000000000e+006) (13, 1.34621925000000000000e+006) (14, 1.34621925000000000000e+006) (15, 1.34621912500000000000e+006) (16, 1.34621925000000000000e+006) (17, 1.34621912500000000000e+006) (18, 1.34621925000000000000e+006) (19, 1.34621925000000000000e+006) (20, 1.34621937500000000000e+006) (21, 1.34621925000000000000e+006) (22, 1.34621925000000000000e+006) (23, 1.34621937500000000000e+006) (24, 1.34621912500000000000e+006) (25, 1.34621925000000000000e+006) (26, 1.34621925000000000000e+006) (27, 1.34621925000000000000e+006) (28, 1.34621925000000000000e+006) (29, 1.34621925000000000000e+006) (30, 1.34621925000000000000e+006) (31, 1.34621925000000000000e+006) (32, 1.34621925000000000000e+006) (33, 1.34621925000000000000e+006) (34, 1.34621912500000000000e+006) (35, 1.34621925000000000000e+006) (36, 1.34621912500000000000e+006) (37, 1.34621925000000000000e+006) (38, 1.34621912500000000000e+006) (39, 1.34621925000000000000e+006) (40, 1.34621937500000000000e+006) (41, 1.34621937500000000000e+006) (42, 1.34621925000000000000e+006) (43, 1.34621925000000000000e+006) (44, 1.34621925000000000000e+006) (45, 1.34621937500000000000e+006) (46, 1.34621925000000000000e+006) (47, 1.34621937500000000000e+006) (48, 1.34621925000000000000e+006) (49, 1.34621925000000000000e+006) (50, 5.92213943600654600000e-002) (0, 1.47766117006540300000e-002) (1, 4.85249804454124980000e+036) (2, -1.63496000000000000000e+006) (3, -1.63495975000000000000e+006) (4, -1.63496000000000000000e+006) (5, -1.63495975000000000000e+006) (6, -1.63495987500000000000e+006) (7, -1.63495987500000000000e+006) (8, -1.63495987500000000000e+006) (9, -1.63495987500000000000e+006) (10, -1.63496000000000000000e+006) (11, -1.63495987500000000000e+006) (12, -1.63495987500000000000e+006) (13, -1.63495987500000000000e+006) (14, -1.63495987500000000000e+006) (15, -1.63495987500000000000e+006) (16, -1.63495987500000000000e+006) (17, -1.63495987500000000000e+006) (18, -1.63495987500000000000e+006) (19, -1.63495975000000000000e+006) (20, -1.63495987500000000000e+006) (21, -1.63495975000000000000e+006) (22, -1.63495975000000000000e+006) (23, -1.63495987500000000000e+006) (24, -1.63496000000000000000e+006) (25, -1.63495987500000000000e+006) (26, -1.63496000000000000000e+006) (27, -1.63495975000000000000e+006) (28, -1.63496000000000000000e+006) (29, -1.63495975000000000000e+006) (30, -1.63496000000000000000e+006) (31, -1.63495975000000000000e+006) (32, -1.63495987500000000000e+006) (33, -1.63495975000000000000e+006) (34, -1.63496000000000000000e+006) (35, -1.63495975000000000000e+006) (36, -1.63495987500000000000e+006) (37, -1.63495987500000000000e+006) (38, -1.63496000000000000000e+006) (39, -1.63495987500000000000e+006) (40, -1.63495975000000000000e+006) (41, -1.63495987500000000000e+006) (42, -1.63496000000000000000e+006) (43, -1.63495975000000000000e+006) (44, -1.63495975000000000000e+006) (45, -1.63495975000000000000e+006) (46, -1.63495987500000000000e+006) (47, -1.63496000000000000000e+006) (48, -1.63495987500000000000e+006) (49, -1.63495975000000000000e+006) (50, 1.12022407352924350000e-001) (0, -3.08715831488370900000e-002) (1, -4.85249804454124980000e+036) (2, 1.63495987500000000000e+006) (3, 1.63496000000000000000e+006) (4, 1.63496000000000000000e+006) (5, 1.63495975000000000000e+006) (6, 1.63496000000000000000e+006) (7, 1.63495987500000000000e+006) (8, 1.63495987500000000000e+006) (9, 1.63495987500000000000e+006) (10, 1.63495987500000000000e+006) (11, 1.63495975000000000000e+006) (12, 1.63495975000000000000e+006) (13, 1.63495987500000000000e+006) (14, 1.63495975000000000000e+006) (15, 1.63495987500000000000e+006) (16, 1.63495987500000000000e+006) (17, 1.63495987500000000000e+006) (18, 1.63495975000000000000e+006) (19, 1.63495987500000000000e+006) (20, 1.63495987500000000000e+006) (21, 1.63495987500000000000e+006) (22, 1.63495975000000000000e+006) (23, 1.63495975000000000000e+006) (24, 1.63496000000000000000e+006) (25, 1.63496000000000000000e+006) (26, 1.63495987500000000000e+006) (27, 1.63495987500000000000e+006) (28, 1.63496000000000000000e+006) (29, 1.63496000000000000000e+006) (30, 1.63495987500000000000e+006) (31, 1.63495975000000000000e+006) (32, 1.63496000000000000000e+006) (33, 1.63495987500000000000e+006) (34, 1.63495987500000000000e+006) (35, 1.63495987500000000000e+006) (36, 1.63495975000000000000e+006) (37, 1.63495975000000000000e+006) (38, 1.63495987500000000000e+006) (39, 1.63495987500000000000e+006) (40, 1.63495987500000000000e+006) (41, 1.63495987500000000000e+006) (42, 1.63495987500000000000e+006) (43, 1.63495987500000000000e+006) (44, 1.63496000000000000000e+006) (45, 1.63495975000000000000e+006) (46, 1.63496000000000000000e+006) (47, 1.63495975000000000000e+006) (48, 1.63495987500000000000e+006) (49, 1.63495987500000000000e+006) (50, -8.85910093784332280000e-002) (0, 2.78503429144620900000e-002) (1, -4.85249804454124980000e+036) (2, 1.63495975000000000000e+006) (3, 1.63495975000000000000e+006) (4, 1.63495987500000000000e+006) (5, 1.63495987500000000000e+006) (6, 1.63495975000000000000e+006) (7, 1.63495987500000000000e+006) (8, 1.63495987500000000000e+006) (9, 1.63495987500000000000e+006) (10, 1.63495975000000000000e+006) (11, 1.63496000000000000000e+006) (12, 1.63495987500000000000e+006) (13, 1.63495987500000000000e+006) (14, 1.63495987500000000000e+006) (15, 1.63495987500000000000e+006) (16, 1.63496000000000000000e+006) (17, 1.63495987500000000000e+006) (18, 1.63495987500000000000e+006) (19, 1.63495987500000000000e+006) (20, 1.63495987500000000000e+006) (21, 1.63495975000000000000e+006) (22, 1.63495987500000000000e+006) (23, 1.63495987500000000000e+006) (24, 1.63495987500000000000e+006) (25, 1.63495987500000000000e+006) (26, 1.63496000000000000000e+006) (27, 1.63495975000000000000e+006) (28, 1.63495987500000000000e+006) (29, 1.63495987500000000000e+006) (30, 1.63496000000000000000e+006) (31, 1.63496000000000000000e+006) (32, 1.63495987500000000000e+006) (33, 1.63496000000000000000e+006) (34, 1.63495987500000000000e+006) (35, 1.63495987500000000000e+006) (36, 1.63495987500000000000e+006) (37, 1.63495987500000000000e+006) (38, 1.63495987500000000000e+006) (39, 1.63496000000000000000e+006) (40, 1.63495987500000000000e+006) (41, 1.63495975000000000000e+006) (42, 1.63495975000000000000e+006) (43, 1.63495987500000000000e+006) (44, 1.63495987500000000000e+006) (45, 1.63495975000000000000e+006) (46, 1.63495987500000000000e+006) (47, 1.63495987500000000000e+006) (48, 1.63495987500000000000e+006) (49, 1.63495975000000000000e+006) (50, -1.10307320952415470000e-001) (0, 4.78393547236919400000e-002) (1, -4.85249804454124980000e+036) (2, 1.63495975000000000000e+006) (3, 1.63495987500000000000e+006) (4, 1.63495987500000000000e+006) (5, 1.63495987500000000000e+006) (6, 1.63495987500000000000e+006) (7, 1.63495987500000000000e+006) (8, 1.63495987500000000000e+006) (9, 1.63495987500000000000e+006) (10, 1.63496000000000000000e+006) (11, 1.63495987500000000000e+006) (12, 1.63496000000000000000e+006) (13, 1.63495987500000000000e+006) (14, 1.63495987500000000000e+006) (15, 1.63496000000000000000e+006) (16, 1.63495987500000000000e+006) (17, 1.63495975000000000000e+006) (18, 1.63495975000000000000e+006) (19, 1.63495987500000000000e+006) (20, 1.63495975000000000000e+006) (21, 1.63495975000000000000e+006) (22, 1.63496000000000000000e+006) (23, 1.63495987500000000000e+006) (24, 1.63495987500000000000e+006) (25, 1.63496000000000000000e+006) (26, 1.63495987500000000000e+006) (27, 1.63495975000000000000e+006) (28, 1.63495987500000000000e+006) (29, 1.63495975000000000000e+006) (30, 1.63495987500000000000e+006) (31, 1.63496000000000000000e+006) (32, 1.63496000000000000000e+006) (33, 1.63496000000000000000e+006) (34, 1.63495975000000000000e+006) (35, 1.63496000000000000000e+006) (36, 1.63496000000000000000e+006) (37, 1.63496000000000000000e+006) (38, 1.63495987500000000000e+006) (39, 1.63495975000000000000e+006) (40, 1.63495975000000000000e+006) (41, 1.63495987500000000000e+006) (42, 1.63495987500000000000e+006) (43, 1.63495975000000000000e+006) (44, 1.63495987500000000000e+006) (45, 1.63495987500000000000e+006) (46, 1.63495987500000000000e+006) (47, 1.63495975000000000000e+006) (48, 1.63495987500000000000e+006) (49, 1.63495987500000000000e+006) (50, 6.68838471174240110000e-002) (0, -7.14721670374274250000e-003) (1, 4.85249804454124980000e+036) (2, -1.63495987500000000000e+006) (3, -1.63495975000000000000e+006) (4, -1.63495987500000000000e+006) (5, -1.63495987500000000000e+006) (6, -1.63495987500000000000e+006) (7, -1.63495987500000000000e+006) (8, -1.63495975000000000000e+006) (9, -1.63495975000000000000e+006) (10, -1.63496000000000000000e+006) (11, -1.63495987500000000000e+006) (12, -1.63495987500000000000e+006) (13, -1.63495987500000000000e+006) (14, -1.63496000000000000000e+006) (15, -1.63495987500000000000e+006) (16, -1.63495975000000000000e+006) (17, -1.63495975000000000000e+006) (18, -1.63495987500000000000e+006) (19, -1.63495987500000000000e+006) (20, -1.63495987500000000000e+006) (21, -1.63495975000000000000e+006) (22, -1.63495987500000000000e+006) (23, -1.63495975000000000000e+006) (24, -1.63495987500000000000e+006) (25, -1.63495987500000000000e+006) (26, -1.63495987500000000000e+006) (27, -1.63496000000000000000e+006) (28, -1.63495987500000000000e+006) (29, -1.63496000000000000000e+006) (30, -1.63495987500000000000e+006) (31, -1.63496000000000000000e+006) (32, -1.63495987500000000000e+006) (33, -1.63495987500000000000e+006) (34, -1.63495975000000000000e+006) (35, -1.63496000000000000000e+006) (36, -1.63496000000000000000e+006) (37, -1.63495987500000000000e+006) (38, -1.63495987500000000000e+006) (39, -1.63495987500000000000e+006) (40, -1.63495975000000000000e+006) (41, -1.63495987500000000000e+006) (42, -1.63495975000000000000e+006) (43, -1.63496000000000000000e+006) (44, -1.63495987500000000000e+006) (45, -1.63495987500000000000e+006) (46, -1.63495987500000000000e+006) (47, -1.63495987500000000000e+006) (48, -1.63495975000000000000e+006) (49, -1.63495987500000000000e+006) (50, -8.02139267325401310000e-002) (0, 4.35913093388080600000e-002) (1, 4.85249804454124980000e+036) (2, -1.63495987500000000000e+006) (3, -1.63496000000000000000e+006) (4, -1.63495987500000000000e+006) (5, -1.63495987500000000000e+006) (6, -1.63495987500000000000e+006) (7, -1.63495987500000000000e+006) (8, -1.63495987500000000000e+006) (9, -1.63495987500000000000e+006) (10, -1.63495987500000000000e+006) (11, -1.63495987500000000000e+006) (12, -1.63495987500000000000e+006) (13, -1.63495987500000000000e+006) (14, -1.63496000000000000000e+006) (15, -1.63495975000000000000e+006) (16, -1.63495987500000000000e+006) (17, -1.63495975000000000000e+006) (18, -1.63495975000000000000e+006) (19, -1.63495975000000000000e+006) (20, -1.63495975000000000000e+006) (21, -1.63495987500000000000e+006) (22, -1.63495987500000000000e+006) (23, -1.63495987500000000000e+006) (24, -1.63495975000000000000e+006) (25, -1.63495987500000000000e+006) (26, -1.63495987500000000000e+006) (27, -1.63495987500000000000e+006) (28, -1.63495987500000000000e+006) (29, -1.63495975000000000000e+006) (30, -1.63495987500000000000e+006) (31, -1.63495987500000000000e+006) (32, -1.63495987500000000000e+006) (33, -1.63496000000000000000e+006) (34, -1.63495987500000000000e+006) (35, -1.63495987500000000000e+006) (36, -1.63495987500000000000e+006) (37, -1.63495975000000000000e+006) (38, -1.63495987500000000000e+006) (39, -1.63496000000000000000e+006) (40, -1.63495987500000000000e+006) (41, -1.63495987500000000000e+006) (42, -1.63495987500000000000e+006) (43, -1.63495987500000000000e+006) (44, -1.63495987500000000000e+006) (45, -1.63495975000000000000e+006) (46, -1.63496000000000000000e+006) (47, -1.63495987500000000000e+006) (48, -1.63495987500000000000e+006) (49, -1.63495975000000000000e+006) (50, -6.47720322012901310000e-002) (0, -5.29113784432411190000e-002) (1, -4.85249804454124980000e+036) (2, 1.63495987500000000000e+006) (3, 1.63495987500000000000e+006) (4, 1.63495987500000000000e+006) (5, 1.63495987500000000000e+006) (6, 1.63495975000000000000e+006) (7, 1.63495987500000000000e+006) (8, 1.63495987500000000000e+006) (9, 1.63495987500000000000e+006) (10, 1.63495987500000000000e+006) (11, 1.63495987500000000000e+006) (12, 1.63495987500000000000e+006) (13, 1.63496000000000000000e+006) (14, 1.63495987500000000000e+006) (15, 1.63495987500000000000e+006) (16, 1.63495987500000000000e+006) (17, 1.63495987500000000000e+006) (18, 1.63495987500000000000e+006) (19, 1.63495987500000000000e+006) (20, 1.63495987500000000000e+006) (21, 1.63495975000000000000e+006) (22, 1.63495975000000000000e+006) (23, 1.63496000000000000000e+006) (24, 1.63495987500000000000e+006) (25, 1.63495987500000000000e+006) (26, 1.63495987500000000000e+006) (27, 1.63495987500000000000e+006) (28, 1.63495987500000000000e+006) (29, 1.63495987500000000000e+006) (30, 1.63495987500000000000e+006) (31, 1.63496000000000000000e+006) (32, 1.63495987500000000000e+006) (33, 1.63495987500000000000e+006) (34, 1.63495987500000000000e+006) (35, 1.63495987500000000000e+006) (36, 1.63495987500000000000e+006) (37, 1.63496000000000000000e+006) (38, 1.63496000000000000000e+006) (39, 1.63495975000000000000e+006) (40, 1.63495975000000000000e+006) (41, 1.63496000000000000000e+006) (42, 1.63495975000000000000e+006) (43, 1.63495987500000000000e+006) (44, 1.63495987500000000000e+006) (45, 1.63495987500000000000e+006) (46, 1.63495975000000000000e+006) (47, 1.63495987500000000000e+006) (48, 1.63495975000000000000e+006) (49, 1.63495987500000000000e+006) (50, -5.98739683628082280000e-002) (0, -6.85424804687500000000e-002) (1, 4.85249804454124980000e+036) (2, -1.63496000000000000000e+006) (3, -1.63495987500000000000e+006) (4, -1.63495987500000000000e+006) (5, -1.63496000000000000000e+006) (6, -1.63495987500000000000e+006) (7, -1.63495987500000000000e+006) (8, -1.63495987500000000000e+006) (9, -1.63495987500000000000e+006) (10, -1.63495987500000000000e+006) (11, -1.63495975000000000000e+006) (12, -1.63495987500000000000e+006) (13, -1.63495975000000000000e+006) (14, -1.63495987500000000000e+006) (15, -1.63496000000000000000e+006) (16, -1.63495987500000000000e+006) (17, -1.63495975000000000000e+006) (18, -1.63495987500000000000e+006) (19, -1.63496000000000000000e+006) (20, -1.63495975000000000000e+006) (21, -1.63495975000000000000e+006) (22, -1.63495987500000000000e+006) (23, -1.63495975000000000000e+006) (24, -1.63496000000000000000e+006) (25, -1.63495987500000000000e+006) (26, -1.63496000000000000000e+006) (27, -1.63495987500000000000e+006) (28, -1.63495987500000000000e+006) (29, -1.63495975000000000000e+006) (30, -1.63495987500000000000e+006) (31, -1.63495975000000000000e+006) (32, -1.63495987500000000000e+006) (33, -1.63495987500000000000e+006) (34, -1.63495987500000000000e+006) (35, -1.63495987500000000000e+006) (36, -1.63495975000000000000e+006) (37, -1.63496000000000000000e+006) (38, -1.63495975000000000000e+006) (39, -1.63495987500000000000e+006) (40, -1.63495987500000000000e+006) (41, -1.63495975000000000000e+006) (42, -1.63495975000000000000e+006) (43, -1.63496000000000000000e+006) (44, -1.63495987500000000000e+006) (45, -1.63495987500000000000e+006) (46, -1.63496000000000000000e+006) (47, -1.63495987500000000000e+006) (48, -1.63495987500000000000e+006) (49, -1.63495987500000000000e+006) (50, -1.04263275861740110000e-002) (0, 9.70886275172233580000e-002) (1, 4.85249804454124980000e+036) (2, -1.63496000000000000000e+006) (3, -1.63495987500000000000e+006) (4, -1.63496000000000000000e+006) (5, -1.63495987500000000000e+006) (6, -1.63495987500000000000e+006) (7, -1.63495987500000000000e+006) (8, -1.63495987500000000000e+006) (9, -1.63495987500000000000e+006) (10, -1.63495975000000000000e+006) (11, -1.63495987500000000000e+006) (12, -1.63495987500000000000e+006) (13, -1.63495987500000000000e+006) (14, -1.63495987500000000000e+006) (15, -1.63495987500000000000e+006) (16, -1.63495975000000000000e+006) (17, -1.63495987500000000000e+006) (18, -1.63495987500000000000e+006) (19, -1.63496000000000000000e+006) (20, -1.63495987500000000000e+006) (21, -1.63495987500000000000e+006) (22, -1.63495987500000000000e+006) (23, -1.63495987500000000000e+006) (24, -1.63495987500000000000e+006) (25, -1.63495975000000000000e+006) (26, -1.63495987500000000000e+006) (27, -1.63496000000000000000e+006) (28, -1.63495987500000000000e+006) (29, -1.63495987500000000000e+006) (30, -1.63495987500000000000e+006) (31, -1.63495975000000000000e+006) (32, -1.63495987500000000000e+006) (33, -1.63495987500000000000e+006) (34, -1.63495975000000000000e+006) (35, -1.63495975000000000000e+006) (36, -1.63495987500000000000e+006) (37, -1.63495987500000000000e+006) (38, -1.63495987500000000000e+006) (39, -1.63495987500000000000e+006) (40, -1.63495975000000000000e+006) (41, -1.63495987500000000000e+006) (42, -1.63496000000000000000e+006) (43, -1.63495987500000000000e+006) (44, -1.63495975000000000000e+006) (45, -1.63495975000000000000e+006) (46, -1.63496000000000000000e+006) (47, -1.63495987500000000000e+006) (48, -1.63496000000000000000e+006) (49, -1.63495987500000000000e+006) (50, 2.41867117583751680000e-002) (0, 8.04748535156250000000e-002) (1, 4.85249804454124980000e+036) (2, -1.63495987500000000000e+006) (3, -1.63495975000000000000e+006) (4, -1.63495987500000000000e+006) (5, -1.63495987500000000000e+006) (6, -1.63495975000000000000e+006) (7, -1.63496000000000000000e+006) (8, -1.63495975000000000000e+006) (9, -1.63495987500000000000e+006) (10, -1.63495987500000000000e+006) (11, -1.63495987500000000000e+006) (12, -1.63495987500000000000e+006) (13, -1.63495987500000000000e+006) (14, -1.63495987500000000000e+006) (15, -1.63495987500000000000e+006) (16, -1.63495987500000000000e+006) (17, -1.63495987500000000000e+006) (18, -1.63495987500000000000e+006) (19, -1.63496000000000000000e+006) (20, -1.63495987500000000000e+006) (21, -1.63495987500000000000e+006) (22, -1.63495987500000000000e+006) (23, -1.63495987500000000000e+006) (24, -1.63495987500000000000e+006) (25, -1.63495975000000000000e+006) (26, -1.63495987500000000000e+006) (27, -1.63495987500000000000e+006) (28, -1.63495975000000000000e+006) (29, -1.63495987500000000000e+006) (30, -1.63496000000000000000e+006) (31, -1.63496000000000000000e+006) (32, -1.63496000000000000000e+006) (33, -1.63495987500000000000e+006) (34, -1.63495975000000000000e+006) (35, -1.63495987500000000000e+006) (36, -1.63495987500000000000e+006) (37, -1.63495975000000000000e+006) (38, -1.63495987500000000000e+006) (39, -1.63495987500000000000e+006) (40, -1.63495975000000000000e+006) (41, -1.63495987500000000000e+006) (42, -1.63495987500000000000e+006) (43, -1.63495987500000000000e+006) (44, -1.63495987500000000000e+006) (45, -1.63495975000000000000e+006) (46, -1.63495987500000000000e+006) (47, -1.63496000000000000000e+006) (48, -1.63495987500000000000e+006) (49, -1.63495987500000000000e+006) (50, 1.10911570489406590000e-001) (0, 5.30822761356830600000e-002) (1, 4.85249804454124980000e+036) (2, -1.63495975000000000000e+006) (3, -1.63496000000000000000e+006) (4, -1.63495975000000000000e+006) (5, -1.63495987500000000000e+006) (6, -1.63496000000000000000e+006) (7, -1.63495987500000000000e+006) (8, -1.63495987500000000000e+006) (9, -1.63495975000000000000e+006) (10, -1.63495975000000000000e+006) (11, -1.63495987500000000000e+006) (12, -1.63495987500000000000e+006) (13, -1.63495987500000000000e+006) (14, -1.63495987500000000000e+006) (15, -1.63495987500000000000e+006) (16, -1.63495987500000000000e+006) (17, -1.63495987500000000000e+006) (18, -1.63495975000000000000e+006) (19, -1.63495987500000000000e+006) (20, -1.63495987500000000000e+006) (21, -1.63495987500000000000e+006) (22, -1.63495987500000000000e+006) (23, -1.63495987500000000000e+006) (24, -1.63495987500000000000e+006) (25, -1.63495987500000000000e+006) (26, -1.63495975000000000000e+006) (27, -1.63495987500000000000e+006) (28, -1.63495987500000000000e+006) (29, -1.63495987500000000000e+006) (30, -1.63495987500000000000e+006) (31, -1.63495987500000000000e+006) (32, -1.63495987500000000000e+006) (33, -1.63495987500000000000e+006) (34, -1.63495987500000000000e+006) (35, -1.63496000000000000000e+006) (36, -1.63495975000000000000e+006) (37, -1.63495975000000000000e+006) (38, -1.63495975000000000000e+006) (39, -1.63496000000000000000e+006) (40, -1.63495987500000000000e+006) (41, -1.63495987500000000000e+006) (42, -1.63495987500000000000e+006) (43, -1.63496000000000000000e+006) (44, -1.63495975000000000000e+006) (45, -1.63495987500000000000e+006) (46, -1.63495975000000000000e+006) (47, -1.63495987500000000000e+006) (48, -1.63495987500000000000e+006) (49, -1.63495987500000000000e+006) (50, -2.92495675384998320000e-002) (0, -7.40417465567588810000e-002) (1, 4.85249804454124980000e+036) (2, -1.63495975000000000000e+006) (3, -1.63495987500000000000e+006) (4, -1.63495987500000000000e+006) (5, -1.63495987500000000000e+006) (6, -1.63496000000000000000e+006) (7, -1.63495987500000000000e+006) (8, -1.63495987500000000000e+006) (9, -1.63495987500000000000e+006) (10, -1.63495975000000000000e+006) (11, -1.63495975000000000000e+006) (12, -1.63496000000000000000e+006) (13, -1.63495987500000000000e+006) (14, -1.63495975000000000000e+006) (15, -1.63495987500000000000e+006) (16, -1.63495987500000000000e+006) (17, -1.63496000000000000000e+006) (18, -1.63495987500000000000e+006) (19, -1.63495987500000000000e+006) (20, -1.63495975000000000000e+006) (21, -1.63495987500000000000e+006) (22, -1.63496000000000000000e+006) (23, -1.63495987500000000000e+006) (24, -1.63496000000000000000e+006) (25, -1.63495975000000000000e+006) (26, -1.63495987500000000000e+006) (27, -1.63495987500000000000e+006) (28, -1.63495987500000000000e+006) (29, -1.63495987500000000000e+006) (30, -1.63495987500000000000e+006) (31, -1.63496000000000000000e+006) (32, -1.63495987500000000000e+006) (33, -1.63495987500000000000e+006) (34, -1.63496000000000000000e+006) (35, -1.63495975000000000000e+006) (36, -1.63495975000000000000e+006) (37, -1.63496000000000000000e+006) (38, -1.63496000000000000000e+006) (39, -1.63496000000000000000e+006) (40, -1.63495975000000000000e+006) (41, -1.63495987500000000000e+006) (42, -1.63495987500000000000e+006) (43, -1.63495975000000000000e+006) (44, -1.63495975000000000000e+006) (45, -1.63496000000000000000e+006) (46, -1.63495975000000000000e+006) (47, -1.63495987500000000000e+006) (48, -1.63495987500000000000e+006) (49, -1.63495987500000000000e+006) (50, 1.95602476596832280000e-002) (0, -9.72290039062500000000e-002) (1, -4.85249804454124980000e+036) (2, 1.63495987500000000000e+006) (3, 1.63495975000000000000e+006) (4, 1.63495987500000000000e+006) (5, 1.63495987500000000000e+006) (6, 1.63495987500000000000e+006) (7, 1.63495987500000000000e+006) (8, 1.63495975000000000000e+006) (9, 1.63495987500000000000e+006) (10, 1.63495987500000000000e+006) (11, 1.63495987500000000000e+006) (12, 1.63495987500000000000e+006) (13, 1.63496000000000000000e+006) (14, 1.63495987500000000000e+006) (15, 1.63495987500000000000e+006) (16, 1.63496000000000000000e+006) (17, 1.63495987500000000000e+006) (18, 1.63495987500000000000e+006) (19, 1.63495987500000000000e+006) (20, 1.63496000000000000000e+006) (21, 1.63495975000000000000e+006) (22, 1.63495975000000000000e+006) (23, 1.63495987500000000000e+006) (24, 1.63496000000000000000e+006) (25, 1.63495975000000000000e+006) (26, 1.63495987500000000000e+006) (27, 1.63495975000000000000e+006) (28, 1.63495975000000000000e+006) (29, 1.63496000000000000000e+006) (30, 1.63495987500000000000e+006) (31, 1.63495987500000000000e+006) (32, 1.63495987500000000000e+006) (33, 1.63495987500000000000e+006) (34, 1.63495987500000000000e+006) (35, 1.63495987500000000000e+006) (36, 1.63496000000000000000e+006) (37, 1.63495975000000000000e+006) (38, 1.63496000000000000000e+006) (39, 1.63495987500000000000e+006) (40, 1.63495987500000000000e+006) (41, 1.63495987500000000000e+006) (42, 1.63495987500000000000e+006) (43, 1.63496000000000000000e+006) (44, 1.63495975000000000000e+006) (45, 1.63495987500000000000e+006) (46, 1.63495987500000000000e+006) (47, 1.63495987500000000000e+006) (48, 1.63495987500000000000e+006) (49, 1.63495987500000000000e+006) (50, -6.48910552263259890000e-002) (0, 3.24890129268169400000e-002) (1, 4.85249804454124980000e+036) (2, -1.63495987500000000000e+006) (3, -1.63495975000000000000e+006) (4, -1.63496000000000000000e+006) (5, -1.63495987500000000000e+006) (6, -1.63495975000000000000e+006) (7, -1.63495987500000000000e+006) (8, -1.63495987500000000000e+006) (9, -1.63496000000000000000e+006) (10, -1.63495987500000000000e+006) (11, -1.63495975000000000000e+006) (12, -1.63495975000000000000e+006) (13, -1.63495987500000000000e+006) (14, -1.63495987500000000000e+006) (15, -1.63496000000000000000e+006) (16, -1.63495987500000000000e+006) (17, -1.63495987500000000000e+006) (18, -1.63495987500000000000e+006) (19, -1.63496000000000000000e+006) (20, -1.63495975000000000000e+006) (21, -1.63495987500000000000e+006) (22, -1.63495975000000000000e+006) (23, -1.63495987500000000000e+006) (24, -1.63495987500000000000e+006) (25, -1.63496000000000000000e+006) (26, -1.63495987500000000000e+006) (27, -1.63495987500000000000e+006) (28, -1.63495987500000000000e+006) (29, -1.63495987500000000000e+006) (30, -1.63495987500000000000e+006) (31, -1.63495987500000000000e+006) (32, -1.63495975000000000000e+006) (33, -1.63495987500000000000e+006) (34, -1.63495987500000000000e+006) (35, -1.63495987500000000000e+006) (36, -1.63495987500000000000e+006) (37, -1.63495987500000000000e+006) (38, -1.63495987500000000000e+006) (39, -1.63496000000000000000e+006) (40, -1.63495975000000000000e+006) (41, -1.63495975000000000000e+006) (42, -1.63495987500000000000e+006) (43, -1.63495987500000000000e+006) (44, -1.63495987500000000000e+006) (45, -1.63495987500000000000e+006) (46, -1.63495987500000000000e+006) (47, -1.63495987500000000000e+006) (48, -1.63495987500000000000e+006) (49, -1.63495987500000000000e+006) (50, -7.06328824162483220000e-003) (0, 3.92578132450580600000e-002) (1, 4.85249804454124980000e+036) (2, -1.63496000000000000000e+006) (3, -1.63496000000000000000e+006) (4, -1.63496000000000000000e+006) (5, -1.63496000000000000000e+006) (6, -1.63495987500000000000e+006) (7, -1.63496000000000000000e+006) (8, -1.63495987500000000000e+006) (9, -1.63495987500000000000e+006) (10, -1.63495987500000000000e+006) (11, -1.63495975000000000000e+006) (12, -1.63495987500000000000e+006) (13, -1.63495987500000000000e+006) (14, -1.63495975000000000000e+006) (15, -1.63495987500000000000e+006) (16, -1.63495987500000000000e+006) (17, -1.63495975000000000000e+006) (18, -1.63495987500000000000e+006) (19, -1.63495987500000000000e+006) (20, -1.63495987500000000000e+006) (21, -1.63495975000000000000e+006) (22, -1.63495975000000000000e+006) (23, -1.63496000000000000000e+006) (24, -1.63495987500000000000e+006) (25, -1.63496000000000000000e+006) (26, -1.63495987500000000000e+006) (27, -1.63495987500000000000e+006) (28, -1.63495975000000000000e+006) (29, -1.63495987500000000000e+006) (30, -1.63495987500000000000e+006) (31, -1.63496000000000000000e+006) (32, -1.63495987500000000000e+006) (33, -1.63495975000000000000e+006) (34, -1.63495987500000000000e+006) (35, -1.63496000000000000000e+006) (36, -1.63495987500000000000e+006) (37, -1.63495987500000000000e+006) (38, -1.63496000000000000000e+006) (39, -1.63495987500000000000e+006) (40, -1.63495975000000000000e+006) (41, -1.63495987500000000000e+006) (42, -1.63495987500000000000e+006) (43, -1.63495975000000000000e+006) (44, -1.63495987500000000000e+006) (45, -1.63495987500000000000e+006) (46, -1.63495975000000000000e+006) (47, -1.63495987500000000000e+006) (48, -1.63495987500000000000e+006) (49, -1.63495975000000000000e+006) (50, -2.77908258140087130000e-002) (0, 8.86901840567588810000e-002) (1, 4.85249804454124980000e+036) (2, -1.63496000000000000000e+006) (3, -1.63495987500000000000e+006) (4, -1.63495987500000000000e+006) (5, -1.63495975000000000000e+006) (6, -1.63495975000000000000e+006) (7, -1.63495987500000000000e+006) (8, -1.63495987500000000000e+006) (9, -1.63495987500000000000e+006) (10, -1.63495987500000000000e+006) (11, -1.63495987500000000000e+006) (12, -1.63495987500000000000e+006) (13, -1.63495975000000000000e+006) (14, -1.63495987500000000000e+006) (15, -1.63495987500000000000e+006) (16, -1.63495975000000000000e+006) (17, -1.63495975000000000000e+006) (18, -1.63496000000000000000e+006) (19, -1.63495987500000000000e+006) (20, -1.63496000000000000000e+006) (21, -1.63495975000000000000e+006) (22, -1.63495987500000000000e+006) (23, -1.63495987500000000000e+006) (24, -1.63495987500000000000e+006) (25, -1.63496000000000000000e+006) (26, -1.63495987500000000000e+006) (27, -1.63495975000000000000e+006) (28, -1.63495987500000000000e+006) (29, -1.63495987500000000000e+006) (30, -1.63495987500000000000e+006) (31, -1.63495987500000000000e+006) (32, -1.63495975000000000000e+006) (33, -1.63495987500000000000e+006) (34, -1.63495987500000000000e+006) (35, -1.63495987500000000000e+006) (36, -1.63495987500000000000e+006) (37, -1.63495987500000000000e+006) (38, -1.63496000000000000000e+006) (39, -1.63495987500000000000e+006) (40, -1.63495987500000000000e+006) (41, -1.63495975000000000000e+006) (42, -1.63495975000000000000e+006) (43, -1.63496000000000000000e+006) (44, -1.63495987500000000000e+006) (45, -1.63495987500000000000e+006) (46, -1.63495987500000000000e+006) (47, -1.63495987500000000000e+006) (48, -1.63495987500000000000e+006) (49, -1.63496000000000000000e+006) (50, -2.70400941371917720000e-002) (0, 3.48510742187500000000e-002) (1, -4.85249804454124980000e+036) (2, 1.63495987500000000000e+006) (3, 1.63495987500000000000e+006) (4, 1.63495987500000000000e+006) (5, 1.63495987500000000000e+006) (6, 1.63495987500000000000e+006) (7, 1.63495975000000000000e+006) (8, 1.63495987500000000000e+006) (9, 1.63496000000000000000e+006) (10, 1.63495987500000000000e+006) (11, 1.63495987500000000000e+006) (12, 1.63495987500000000000e+006) (13, 1.63495987500000000000e+006) (14, 1.63495987500000000000e+006) (15, 1.63495987500000000000e+006) (16, 1.63495987500000000000e+006) (17, 1.63495987500000000000e+006) (18, 1.63495987500000000000e+006) (19, 1.63495975000000000000e+006) (20, 1.63496000000000000000e+006) (21, 1.63496000000000000000e+006) (22, 1.63495987500000000000e+006) (23, 1.63495975000000000000e+006) (24, 1.63495987500000000000e+006) (25, 1.63495975000000000000e+006) (26, 1.63495987500000000000e+006) (27, 1.63496000000000000000e+006) (28, 1.63495975000000000000e+006) (29, 1.63495987500000000000e+006) (30, 1.63495975000000000000e+006) (31, 1.63495975000000000000e+006) (32, 1.63495987500000000000e+006) (33, 1.63496000000000000000e+006) (34, 1.63496000000000000000e+006) (35, 1.63495987500000000000e+006) (36, 1.63495987500000000000e+006) (37, 1.63495987500000000000e+006) (38, 1.63495987500000000000e+006) (39, 1.63495987500000000000e+006) (40, 1.63496000000000000000e+006) (41, 1.63495987500000000000e+006) (42, 1.63495987500000000000e+006) (43, 1.63496000000000000000e+006) (44, 1.63495975000000000000e+006) (45, 1.63495975000000000000e+006) (46, 1.63495987500000000000e+006) (47, 1.63495987500000000000e+006) (48, 1.63495987500000000000e+006) (49, 1.63495987500000000000e+006) (50, -1.04374699294567110000e-001) (0, -2.78076175600290300000e-002) (1, 4.73633941709053650000e+036) (2, -1.59582237500000000000e+006) (3, -1.59582225000000000000e+006) (4, -1.59582225000000000000e+006) (5, -1.59582237500000000000e+006) (6, -1.59582250000000000000e+006) (7, -1.59582237500000000000e+006) (8, -1.59582225000000000000e+006) (9, -1.59582225000000000000e+006) (10, -1.59582250000000000000e+006) (11, -1.59582250000000000000e+006) (12, -1.59582250000000000000e+006) (13, -1.59582225000000000000e+006) (14, -1.59582237500000000000e+006) (15, -1.59582250000000000000e+006) (16, -1.59582237500000000000e+006) (17, -1.59582237500000000000e+006) (18, -1.59582237500000000000e+006) (19, -1.59582237500000000000e+006) (20, -1.59582237500000000000e+006) (21, -1.59582250000000000000e+006) (22, -1.59582237500000000000e+006) (23, -1.59582237500000000000e+006) (24, -1.59582237500000000000e+006) (25, -1.59582237500000000000e+006) (26, -1.59582250000000000000e+006) (27, -1.59582237500000000000e+006) (28, -1.59582237500000000000e+006) (29, -1.59582237500000000000e+006) (30, -1.59582237500000000000e+006) (31, -1.59582225000000000000e+006) (32, -1.59582237500000000000e+006) (33, -1.59582237500000000000e+006) (34, -1.59582237500000000000e+006) (35, -1.59582237500000000000e+006) (36, -1.59582237500000000000e+006) (37, -1.59582250000000000000e+006) (38, -1.59582237500000000000e+006) (39, -1.59582250000000000000e+006) (40, -1.59582225000000000000e+006) (41, -1.59582237500000000000e+006) (42, -1.59582225000000000000e+006) (43, -1.59582225000000000000e+006) (44, -1.59582250000000000000e+006) (45, -1.59582237500000000000e+006) (46, -1.59582237500000000000e+006) (47, -1.59582237500000000000e+006) (48, -1.59582225000000000000e+006) (49, -1.59582237500000000000e+006) (50, -7.02573731541633610000e-002) (0, 1.33056647609919310000e-003) (1, -4.85249804454124980000e+036) (2, 1.63495987500000000000e+006) (3, 1.63495987500000000000e+006) (4, 1.63495975000000000000e+006) (5, 1.63495987500000000000e+006) (6, 1.63495987500000000000e+006) (7, 1.63495975000000000000e+006) (8, 1.63495987500000000000e+006) (9, 1.63495975000000000000e+006) (10, 1.63496000000000000000e+006) (11, 1.63495975000000000000e+006) (12, 1.63495987500000000000e+006) (13, 1.63495975000000000000e+006) (14, 1.63495987500000000000e+006) (15, 1.63495975000000000000e+006) (16, 1.63495987500000000000e+006) (17, 1.63495987500000000000e+006) (18, 1.63495987500000000000e+006) (19, 1.63496000000000000000e+006) (20, 1.63495975000000000000e+006) (21, 1.63495987500000000000e+006) (22, 1.63495987500000000000e+006) (23, 1.63495987500000000000e+006) (24, 1.63495975000000000000e+006) (25, 1.63496000000000000000e+006) (26, 1.63495987500000000000e+006) (27, 1.63495987500000000000e+006) (28, 1.63495975000000000000e+006) (29, 1.63495987500000000000e+006) (30, 1.63495987500000000000e+006) (31, 1.63495975000000000000e+006) (32, 1.63495987500000000000e+006) (33, 1.63495987500000000000e+006) (34, 1.63495987500000000000e+006) (35, 1.63495975000000000000e+006) (36, 1.63495987500000000000e+006) (37, 1.63495987500000000000e+006) (38, 1.63496000000000000000e+006) (39, 1.63495987500000000000e+006) (40, 1.63495987500000000000e+006) (41, 1.63495975000000000000e+006) (42, 1.63495987500000000000e+006) (43, 1.63496000000000000000e+006) (44, 1.63496000000000000000e+006) (45, 1.63496000000000000000e+006) (46, 1.63495975000000000000e+006) (47, 1.63495975000000000000e+006) (48, 1.63495987500000000000e+006) (49, 1.63495975000000000000e+006) (50, -9.39743146300315860000e-002) (0, -2.00805664062500000000e-002) (1, -4.85249804454124980000e+036) (2, 1.63495975000000000000e+006) (3, 1.63495987500000000000e+006) (4, 1.63496000000000000000e+006) (5, 1.63495987500000000000e+006) (6, 1.63496000000000000000e+006) (7, 1.63495987500000000000e+006) (8, 1.63495987500000000000e+006) (9, 1.63495987500000000000e+006) (10, 1.63495975000000000000e+006) (11, 1.63495987500000000000e+006) (12, 1.63495975000000000000e+006) (13, 1.63495987500000000000e+006) (14, 1.63496000000000000000e+006) (15, 1.63495987500000000000e+006) (16, 1.63495987500000000000e+006) (17, 1.63495975000000000000e+006) (18, 1.63495987500000000000e+006) (19, 1.63495975000000000000e+006) (20, 1.63495975000000000000e+006) (21, 1.63495987500000000000e+006) (22, 1.63495975000000000000e+006) (23, 1.63495975000000000000e+006) (24, 1.63495987500000000000e+006) (25, 1.63495987500000000000e+006) (26, 1.63495975000000000000e+006) (27, 1.63495987500000000000e+006) (28, 1.63495987500000000000e+006) (29, 1.63495987500000000000e+006) (30, 1.63496000000000000000e+006) (31, 1.63495975000000000000e+006) (32, 1.63495987500000000000e+006) (33, 1.63496000000000000000e+006) (34, 1.63495987500000000000e+006) (35, 1.63495987500000000000e+006) (36, 1.63495987500000000000e+006) (37, 1.63495987500000000000e+006) (38, 1.63495987500000000000e+006) (39, 1.63495987500000000000e+006) (40, 1.63495987500000000000e+006) (41, 1.63495987500000000000e+006) (42, 1.63495987500000000000e+006) (43, 1.63495987500000000000e+006) (44, 1.63495987500000000000e+006) (45, 1.63495987500000000000e+006) (46, 1.63495987500000000000e+006) (47, 1.63495975000000000000e+006) (48, 1.63496000000000000000e+006) (49, 1.63495987500000000000e+006) (50, 7.47940018773078920000e-002) (0, -7.70751982927322390000e-002) (1, -1.#INF0000000000000000e+000) (2, 1.26497392000000000000e+008) (3, 1.26497392000000000000e+008) (4, 1.26497392000000000000e+008) (5, 1.26497392000000000000e+008) (6, 1.26497392000000000000e+008) (7, 1.26497392000000000000e+008) (8, 1.26497392000000000000e+008) (9, 1.26497392000000000000e+008) (10, 1.26497392000000000000e+008) (11, 1.26497392000000000000e+008) (12, 1.26497392000000000000e+008) (13, 1.26497392000000000000e+008) (14, 1.26497392000000000000e+008) (15, 1.26497392000000000000e+008) (16, 1.26497392000000000000e+008) (17, 1.26497392000000000000e+008) (18, 1.26497392000000000000e+008) (19, 1.26497392000000000000e+008) (20, 1.26497392000000000000e+008) (21, 1.26497392000000000000e+008) (22, 1.26497392000000000000e+008) (23, 1.26497392000000000000e+008) (24, 1.26497392000000000000e+008) (25, 1.26497392000000000000e+008) (26, 1.26497392000000000000e+008) (27, 1.26497392000000000000e+008) (28, 1.26497392000000000000e+008) (29, 1.26497392000000000000e+008) (30, 1.26497392000000000000e+008) (31, 1.26497392000000000000e+008) (32, 1.26497392000000000000e+008) (33, 1.26497392000000000000e+008) (34, 1.26497392000000000000e+008) (35, 1.26497392000000000000e+008) (36, 1.26497392000000000000e+008) (37, 1.26497392000000000000e+008) (38, 1.26497392000000000000e+008) (39, 1.26497392000000000000e+008) (40, 1.26497392000000000000e+008) (41, 1.26497392000000000000e+008) (42, 1.26497392000000000000e+008) (43, 1.26497392000000000000e+008) (44, 1.26497392000000000000e+008) (45, 1.26497392000000000000e+008) (46, 1.26497392000000000000e+008) (47, 1.26497392000000000000e+008) (48, 1.26497392000000000000e+008) (49, 1.26497392000000000000e+008) (50, -1.16119825839996340000e+000) (0, 5.97412101924419400000e-002) (1, -1.#INF0000000000000000e+000) (2, 1.26497392000000000000e+008) (3, 1.26497392000000000000e+008) (4, 1.26497392000000000000e+008) (5, 1.26497392000000000000e+008) (6, 1.26497392000000000000e+008) (7, 1.26497392000000000000e+008) (8, 1.26497392000000000000e+008) (9, 1.26497392000000000000e+008) (10, 1.26497392000000000000e+008) (11, 1.26497392000000000000e+008) (12, 1.26497392000000000000e+008) (13, 1.26497392000000000000e+008) (14, 1.26497392000000000000e+008) (15, 1.26497392000000000000e+008) (16, 1.26497392000000000000e+008) (17, 1.26497392000000000000e+008) (18, 1.26497392000000000000e+008) (19, 1.26497392000000000000e+008) (20, 1.26497392000000000000e+008) (21, 1.26497392000000000000e+008) (22, 1.26497392000000000000e+008) (23, 1.26497392000000000000e+008) (24, 1.26497392000000000000e+008) (25, 1.26497392000000000000e+008) (26, 1.26497392000000000000e+008) (27, 1.26497392000000000000e+008) (28, 1.26497392000000000000e+008) (29, 1.26497392000000000000e+008) (30, 1.26497392000000000000e+008) (31, 1.26497392000000000000e+008) (32, 1.26497392000000000000e+008) (33, 1.26497392000000000000e+008) (34, 1.26497392000000000000e+008) (35, 1.26497392000000000000e+008) (36, 1.26497392000000000000e+008) (37, 1.26497392000000000000e+008) (38, 1.26497392000000000000e+008) (39, 1.26497392000000000000e+008) (40, 1.26497392000000000000e+008) (41, 1.26497392000000000000e+008) (42, 1.26497392000000000000e+008) (43, 1.26497392000000000000e+008) (44, 1.26497392000000000000e+008) (45, 1.26497392000000000000e+008) (46, 1.26497392000000000000e+008) (47, 1.26497392000000000000e+008) (48, 1.26497392000000000000e+008) (49, 1.26497392000000000000e+008) (50, -1.19856393337249760000e+000) (0, -8.41003432869911190000e-002) (1, 4.85249804454124980000e+036) (2, -1.63495987500000000000e+006) (3, -1.63495987500000000000e+006) (4, -1.63496000000000000000e+006) (5, -1.63496000000000000000e+006) (6, -1.63495987500000000000e+006) (7, -1.63495987500000000000e+006) (8, -1.63495987500000000000e+006) (9, -1.63495987500000000000e+006) (10, -1.63495975000000000000e+006) (11, -1.63495987500000000000e+006) (12, -1.63495975000000000000e+006) (13, -1.63495987500000000000e+006) (14, -1.63495987500000000000e+006) (15, -1.63495987500000000000e+006) (16, -1.63495975000000000000e+006) (17, -1.63495975000000000000e+006) (18, -1.63495987500000000000e+006) (19, -1.63495975000000000000e+006) (20, -1.63495987500000000000e+006) (21, -1.63496000000000000000e+006) (22, -1.63495975000000000000e+006) (23, -1.63495975000000000000e+006) (24, -1.63496000000000000000e+006) (25, -1.63495987500000000000e+006) (26, -1.63495975000000000000e+006) (27, -1.63495987500000000000e+006) (28, -1.63496000000000000000e+006) (29, -1.63496000000000000000e+006) (30, -1.63495987500000000000e+006) (31, -1.63496000000000000000e+006) (32, -1.63495987500000000000e+006) (33, -1.63495987500000000000e+006) (34, -1.63496000000000000000e+006) (35, -1.63495987500000000000e+006) (36, -1.63495975000000000000e+006) (37, -1.63495987500000000000e+006) (38, -1.63496000000000000000e+006) (39, -1.63495987500000000000e+006) (40, -1.63495987500000000000e+006) (41, -1.63495987500000000000e+006) (42, -1.63495975000000000000e+006) (43, -1.63495987500000000000e+006) (44, -1.63495987500000000000e+006) (45, -1.63495987500000000000e+006) (46, -1.63496000000000000000e+006) (47, -1.63495987500000000000e+006) (48, -1.63495975000000000000e+006) (49, -1.63495987500000000000e+006) (50, 3.76632735133171080000e-002) (0, 2.99743656069040300000e-002) (1, -1.#INF0000000000000000e+000) (2, 1.26497392000000000000e+008) (3, 1.26497392000000000000e+008) (4, 1.26497392000000000000e+008) (5, 1.26497392000000000000e+008) (6, 1.26497392000000000000e+008) (7, 1.26497392000000000000e+008) (8, 1.26497392000000000000e+008) (9, 1.26497392000000000000e+008) (10, 1.26497392000000000000e+008) (11, 1.26497392000000000000e+008) (12, 1.26497392000000000000e+008) (13, 1.26497392000000000000e+008) (14, 1.26497392000000000000e+008) (15, 1.26497392000000000000e+008) (16, 1.26497392000000000000e+008) (17, 1.26497392000000000000e+008) (18, 1.26497392000000000000e+008) (19, 1.26497392000000000000e+008) (20, 1.26497392000000000000e+008) (21, 1.26497392000000000000e+008) (22, 1.26497392000000000000e+008) (23, 1.26497392000000000000e+008) (24, 1.26497392000000000000e+008) (25, 1.26497392000000000000e+008) (26, 1.26497392000000000000e+008) (27, 1.26497392000000000000e+008) (28, 1.26497392000000000000e+008) (29, 1.26497392000000000000e+008) (30, 1.26497392000000000000e+008) (31, 1.26497392000000000000e+008) (32, 1.26497392000000000000e+008) (33, 1.26497392000000000000e+008) (34, 1.26497392000000000000e+008) (35, 1.26497392000000000000e+008) (36, 1.26497392000000000000e+008) (37, 1.26497392000000000000e+008) (38, 1.26497392000000000000e+008) (39, 1.26497392000000000000e+008) (40, 1.26497392000000000000e+008) (41, 1.26497392000000000000e+008) (42, 1.26497392000000000000e+008) (43, 1.26497392000000000000e+008) (44, 1.26497392000000000000e+008) (45, 1.26497392000000000000e+008) (46, 1.26497392000000000000e+008) (47, 1.26497392000000000000e+008) (48, 1.26497392000000000000e+008) (49, 1.26497392000000000000e+008) (50, -1.12059760093688960000e+000) (0, -1.69128421694040300000e-002) (1, -1.#INF0000000000000000e+000) (2, 1.26497392000000000000e+008) (3, 1.26497392000000000000e+008) (4, 1.26497392000000000000e+008) (5, 1.26497392000000000000e+008) (6, 1.26497392000000000000e+008) (7, 1.26497392000000000000e+008) (8, 1.26497392000000000000e+008) (9, 1.26497392000000000000e+008) (10, 1.26497392000000000000e+008) (11, 1.26497392000000000000e+008) (12, 1.26497392000000000000e+008) (13, 1.26497392000000000000e+008) (14, 1.26497392000000000000e+008) (15, 1.26497392000000000000e+008) (16, 1.26497392000000000000e+008) (17, 1.26497392000000000000e+008) (18, 1.26497392000000000000e+008) (19, 1.26497392000000000000e+008) (20, 1.26497392000000000000e+008) (21, 1.26497392000000000000e+008) (22, 1.26497392000000000000e+008) (23, 1.26497392000000000000e+008) (24, 1.26497392000000000000e+008) (25, 1.26497392000000000000e+008) (26, 1.26497392000000000000e+008) (27, 1.26497392000000000000e+008) (28, 1.26497392000000000000e+008) (29, 1.26497392000000000000e+008) (30, 1.26497392000000000000e+008) (31, 1.26497392000000000000e+008) (32, 1.26497392000000000000e+008) (33, 1.26497392000000000000e+008) (34, 1.26497392000000000000e+008) (35, 1.26497392000000000000e+008) (36, 1.26497392000000000000e+008) (37, 1.26497392000000000000e+008) (38, 1.26497392000000000000e+008) (39, 1.26497392000000000000e+008) (40, 1.26497392000000000000e+008) (41, 1.26497392000000000000e+008) (42, 1.26497392000000000000e+008) (43, 1.26497392000000000000e+008) (44, 1.26497392000000000000e+008) (45, 1.26497392000000000000e+008) (46, 1.26497392000000000000e+008) (47, 1.26497392000000000000e+008) (48, 1.26497392000000000000e+008) (49, 1.26497392000000000000e+008) (50, -1.21899855136871340000e+000) (0, -4.20532226562500000000e-002) (1, 4.85249804454124980000e+036) (2, -1.63495987500000000000e+006) (3, -1.63496000000000000000e+006) (4, -1.63495987500000000000e+006) (5, -1.63495987500000000000e+006) (6, -1.63495987500000000000e+006) (7, -1.63495987500000000000e+006) (8, -1.63495987500000000000e+006) (9, -1.63495987500000000000e+006) (10, -1.63496000000000000000e+006) (11, -1.63495987500000000000e+006) (12, -1.63495987500000000000e+006) (13, -1.63496000000000000000e+006) (14, -1.63495975000000000000e+006) (15, -1.63495987500000000000e+006) (16, -1.63495987500000000000e+006) (17, -1.63495987500000000000e+006) (18, -1.63495975000000000000e+006) (19, -1.63495987500000000000e+006) (20, -1.63495975000000000000e+006) (21, -1.63495987500000000000e+006) (22, -1.63495987500000000000e+006) (23, -1.63495987500000000000e+006) (24, -1.63496000000000000000e+006) (25, -1.63495987500000000000e+006) (26, -1.63495987500000000000e+006) (27, -1.63495987500000000000e+006) (28, -1.63495987500000000000e+006) (29, -1.63495987500000000000e+006) (30, -1.63495975000000000000e+006) (31, -1.63495987500000000000e+006) (32, -1.63495987500000000000e+006) (33, -1.63495987500000000000e+006) (34, -1.63495975000000000000e+006) (35, -1.63495975000000000000e+006) (36, -1.63496000000000000000e+006) (37, -1.63495987500000000000e+006) (38, -1.63495987500000000000e+006) (39, -1.63495987500000000000e+006) (40, -1.63495987500000000000e+006) (41, -1.63495975000000000000e+006) (42, -1.63495987500000000000e+006) (43, -1.63495987500000000000e+006) (44, -1.63496000000000000000e+006) (45, -1.63495987500000000000e+006) (46, -1.63495987500000000000e+006) (47, -1.63495987500000000000e+006) (48, -1.63495987500000000000e+006) (49, -1.63495987500000000000e+006) (50, 8.20236280560493470000e-002) (0, -8.21411162614822390000e-002) (1, -1.#INF0000000000000000e+000) (2, 1.26497392000000000000e+008) (3, 1.26497392000000000000e+008) (4, 1.26497392000000000000e+008) (5, 1.26497392000000000000e+008) (6, 1.26497392000000000000e+008) (7, 1.26497392000000000000e+008) (8, 1.26497392000000000000e+008) (9, 1.26497392000000000000e+008) (10, 1.26497392000000000000e+008) (11, 1.26497392000000000000e+008) (12, 1.26497392000000000000e+008) (13, 1.26497392000000000000e+008) (14, 1.26497392000000000000e+008) (15, 1.26497392000000000000e+008) (16, 1.26497392000000000000e+008) (17, 1.26497392000000000000e+008) (18, 1.26497392000000000000e+008) (19, 1.26497392000000000000e+008) (20, 1.26497392000000000000e+008) (21, 1.26497392000000000000e+008) (22, 1.26497392000000000000e+008) (23, 1.26497392000000000000e+008) (24, 1.26497392000000000000e+008) (25, 1.26497392000000000000e+008) (26, 1.26497392000000000000e+008) (27, 1.26497392000000000000e+008) (28, 1.26497392000000000000e+008) (29, 1.26497392000000000000e+008) (30, 1.26497392000000000000e+008) (31, 1.26497392000000000000e+008) (32, 1.26497392000000000000e+008) (33, 1.26497392000000000000e+008) (34, 1.26497392000000000000e+008) (35, 1.26497392000000000000e+008) (36, 1.26497392000000000000e+008) (37, 1.26497392000000000000e+008) (38, 1.26497392000000000000e+008) (39, 1.26497392000000000000e+008) (40, 1.26497392000000000000e+008) (41, 1.26497392000000000000e+008) (42, 1.26497392000000000000e+008) (43, 1.26497392000000000000e+008) (44, 1.26497392000000000000e+008) (45, 1.26497392000000000000e+008) (46, 1.26497392000000000000e+008) (47, 1.26497392000000000000e+008) (48, 1.26497392000000000000e+008) (49, 1.26497392000000000000e+008) (50, -1.16382884979248050000e+000) (0, -8.69262740015983580000e-002) (1, -4.85249804454124980000e+036) (2, 1.63495987500000000000e+006) (3, 1.63495987500000000000e+006) (4, 1.63495987500000000000e+006) (5, 1.63495987500000000000e+006) (6, 1.63495987500000000000e+006) (7, 1.63495987500000000000e+006) (8, 1.63495987500000000000e+006) (9, 1.63495987500000000000e+006) (10, 1.63495987500000000000e+006) (11, 1.63495987500000000000e+006) (12, 1.63495975000000000000e+006) (13, 1.63495987500000000000e+006) (14, 1.63495987500000000000e+006) (15, 1.63495987500000000000e+006) (16, 1.63495987500000000000e+006) (17, 1.63495987500000000000e+006) (18, 1.63495987500000000000e+006) (19, 1.63495975000000000000e+006) (20, 1.63495987500000000000e+006) (21, 1.63495987500000000000e+006) (22, 1.63495987500000000000e+006) (23, 1.63495987500000000000e+006) (24, 1.63495987500000000000e+006) (25, 1.63495987500000000000e+006) (26, 1.63496000000000000000e+006) (27, 1.63495975000000000000e+006) (28, 1.63495987500000000000e+006) (29, 1.63495975000000000000e+006) (30, 1.63495987500000000000e+006) (31, 1.63496000000000000000e+006) (32, 1.63495975000000000000e+006) (33, 1.63495975000000000000e+006) (34, 1.63495987500000000000e+006) (35, 1.63495987500000000000e+006) (36, 1.63495987500000000000e+006) (37, 1.63495987500000000000e+006) (38, 1.63496000000000000000e+006) (39, 1.63495975000000000000e+006) (40, 1.63495987500000000000e+006) (41, 1.63495975000000000000e+006) (42, 1.63495987500000000000e+006) (43, 1.63496000000000000000e+006) (44, 1.63495987500000000000e+006) (45, 1.63495987500000000000e+006) (46, 1.63495987500000000000e+006) (47, 1.63495975000000000000e+006) (48, 1.63495987500000000000e+006) (49, 1.63495987500000000000e+006) (50, 6.79153427481651310000e-002) (0, 9.55932661890983580000e-002) (1, -4.85249804454124980000e+036) (2, 1.63495987500000000000e+006) (3, 1.63495987500000000000e+006) (4, 1.63495987500000000000e+006) (5, 1.63495975000000000000e+006) (6, 1.63495975000000000000e+006) (7, 1.63495987500000000000e+006) (8, 1.63495987500000000000e+006) (9, 1.63495987500000000000e+006) (10, 1.63495975000000000000e+006) (11, 1.63495987500000000000e+006) (12, 1.63495987500000000000e+006) (13, 1.63496000000000000000e+006) (14, 1.63495975000000000000e+006) (15, 1.63495987500000000000e+006) (16, 1.63495987500000000000e+006) (17, 1.63495987500000000000e+006) (18, 1.63495987500000000000e+006) (19, 1.63495975000000000000e+006) (20, 1.63495987500000000000e+006) (21, 1.63495987500000000000e+006) (22, 1.63495987500000000000e+006) (23, 1.63495987500000000000e+006) (24, 1.63496000000000000000e+006) (25, 1.63495987500000000000e+006) (26, 1.63495987500000000000e+006) (27, 1.63495987500000000000e+006) (28, 1.63495987500000000000e+006) (29, 1.63495975000000000000e+006) (30, 1.63495975000000000000e+006) (31, 1.63495987500000000000e+006) (32, 1.63495987500000000000e+006) (33, 1.63495975000000000000e+006) (34, 1.63495987500000000000e+006) (35, 1.63495987500000000000e+006) (36, 1.63495987500000000000e+006) (37, 1.63496000000000000000e+006) (38, 1.63496000000000000000e+006) (39, 1.63495987500000000000e+006) (40, 1.63495987500000000000e+006) (41, 1.63495975000000000000e+006) (42, 1.63496000000000000000e+006) (43, 1.63495987500000000000e+006) (44, 1.63496000000000000000e+006) (45, 1.63495987500000000000e+006) (46, 1.63496000000000000000e+006) (47, 1.63495987500000000000e+006) (48, 1.63495987500000000000e+006) (49, 1.63495975000000000000e+006) (50, -6.65878355503082280000e-002) (0, 3.82629409432411190000e-002) (1, 4.85249804454124980000e+036) (2, -1.63495987500000000000e+006) (3, -1.63495975000000000000e+006) (4, -1.63495987500000000000e+006) (5, -1.63495987500000000000e+006) (6, -1.63495987500000000000e+006) (7, -1.63495987500000000000e+006) (8, -1.63496000000000000000e+006) (9, -1.63495987500000000000e+006) (10, -1.63495987500000000000e+006) (11, -1.63495987500000000000e+006) (12, -1.63496000000000000000e+006) (13, -1.63495987500000000000e+006) (14, -1.63495975000000000000e+006) (15, -1.63496000000000000000e+006) (16, -1.63495987500000000000e+006) (17, -1.63495987500000000000e+006) (18, -1.63495975000000000000e+006) (19, -1.63495975000000000000e+006) (20, -1.63495975000000000000e+006) (21, -1.63496000000000000000e+006) (22, -1.63496000000000000000e+006) (23, -1.63495987500000000000e+006) (24, -1.63496000000000000000e+006) (25, -1.63495987500000000000e+006) (26, -1.63495987500000000000e+006) (27, -1.63495987500000000000e+006) (28, -1.63495987500000000000e+006) (29, -1.63496000000000000000e+006) (30, -1.63495987500000000000e+006) (31, -1.63495987500000000000e+006) (32, -1.63495987500000000000e+006) (33, -1.63495987500000000000e+006) (34, -1.63495975000000000000e+006) (35, -1.63495987500000000000e+006) (36, -1.63495987500000000000e+006) (37, -1.63496000000000000000e+006) (38, -1.63495975000000000000e+006) (39, -1.63495987500000000000e+006) (40, -1.63495987500000000000e+006) (41, -1.63496000000000000000e+006) (42, -1.63495987500000000000e+006) (43, -1.63495975000000000000e+006) (44, -1.63495975000000000000e+006) (45, -1.63495987500000000000e+006) (46, -1.63495987500000000000e+006) (47, -1.63495987500000000000e+006) (48, -1.63495987500000000000e+006) (49, -1.63495975000000000000e+006) (50, 1.03074654936790470000e-001) (0, 9.53796431422233580000e-002) (1, 4.85249804454124980000e+036) (2, -1.63495987500000000000e+006) (3, -1.63496000000000000000e+006) (4, -1.63496000000000000000e+006) (5, -1.63495987500000000000e+006) (6, -1.63495975000000000000e+006) (7, -1.63495975000000000000e+006) (8, -1.63495987500000000000e+006) (9, -1.63495987500000000000e+006) (10, -1.63495987500000000000e+006) (11, -1.63495975000000000000e+006) (12, -1.63495987500000000000e+006) (13, -1.63495987500000000000e+006) (14, -1.63495987500000000000e+006) (15, -1.63495987500000000000e+006) (16, -1.63495987500000000000e+006) (17, -1.63495987500000000000e+006) (18, -1.63495987500000000000e+006) (19, -1.63495975000000000000e+006) (20, -1.63495987500000000000e+006) (21, -1.63496000000000000000e+006) (22, -1.63495987500000000000e+006) (23, -1.63496000000000000000e+006) (24, -1.63495987500000000000e+006) (25, -1.63495975000000000000e+006) (26, -1.63495975000000000000e+006) (27, -1.63495987500000000000e+006) (28, -1.63495975000000000000e+006) (29, -1.63495975000000000000e+006) (30, -1.63495975000000000000e+006) (31, -1.63495987500000000000e+006) (32, -1.63496000000000000000e+006) (33, -1.63496000000000000000e+006) (34, -1.63495987500000000000e+006) (35, -1.63495987500000000000e+006) (36, -1.63495987500000000000e+006) (37, -1.63495987500000000000e+006) (38, -1.63495975000000000000e+006) (39, -1.63495987500000000000e+006) (40, -1.63495987500000000000e+006) (41, -1.63495987500000000000e+006) (42, -1.63495987500000000000e+006) (43, -1.63495987500000000000e+006) (44, -1.63495987500000000000e+006) (45, -1.63495987500000000000e+006) (46, -1.63495987500000000000e+006) (47, -1.63495987500000000000e+006) (48, -1.63496000000000000000e+006) (49, -1.63495987500000000000e+006) (50, -5.43472245335578920000e-002) (0, -7.85095244646072390000e-002) (1, -4.85249804454124980000e+036) (2, 1.63495987500000000000e+006) (3, 1.63495987500000000000e+006) (4, 1.63495987500000000000e+006) (5, 1.63495987500000000000e+006) (6, 1.63495987500000000000e+006) (7, 1.63495987500000000000e+006) (8, 1.63496000000000000000e+006) (9, 1.63495987500000000000e+006) (10, 1.63495975000000000000e+006) (11, 1.63495987500000000000e+006) (12, 1.63495987500000000000e+006) (13, 1.63495975000000000000e+006) (14, 1.63495975000000000000e+006) (15, 1.63495987500000000000e+006) (16, 1.63495987500000000000e+006) (17, 1.63495975000000000000e+006) (18, 1.63495975000000000000e+006) (19, 1.63495987500000000000e+006) (20, 1.63495987500000000000e+006) (21, 1.63495987500000000000e+006) (22, 1.63495975000000000000e+006) (23, 1.63495987500000000000e+006) (24, 1.63495987500000000000e+006) (25, 1.63495987500000000000e+006) (26, 1.63495987500000000000e+006) (27, 1.63495987500000000000e+006) (28, 1.63495975000000000000e+006) (29, 1.63495987500000000000e+006) (30, 1.63495987500000000000e+006) (31, 1.63495987500000000000e+006) (32, 1.63495987500000000000e+006) (33, 1.63495987500000000000e+006) (34, 1.63495975000000000000e+006) (35, 1.63495987500000000000e+006) (36, 1.63495975000000000000e+006) (37, 1.63495975000000000000e+006) (38, 1.63495987500000000000e+006) (39, 1.63495987500000000000e+006) (40, 1.63495987500000000000e+006) (41, 1.63495987500000000000e+006) (42, 1.63495987500000000000e+006) (43, 1.63495987500000000000e+006) (44, 1.63496000000000000000e+006) (45, 1.63495987500000000000e+006) (46, 1.63495975000000000000e+006) (47, 1.63495987500000000000e+006) (48, 1.63495987500000000000e+006) (49, 1.63495987500000000000e+006) (50, -1.14384464919567110000e-001) (0, -5.30944839119911190000e-002) (1, -4.85249804454124980000e+036) (2, 1.63496000000000000000e+006) (3, 1.63495987500000000000e+006) (4, 1.63495987500000000000e+006) (5, 1.63495987500000000000e+006) (6, 1.63495975000000000000e+006) (7, 1.63495987500000000000e+006) (8, 1.63495987500000000000e+006) (9, 1.63495987500000000000e+006) (10, 1.63495987500000000000e+006) (11, 1.63495987500000000000e+006) (12, 1.63495987500000000000e+006) (13, 1.63495987500000000000e+006) (14, 1.63495987500000000000e+006) (15, 1.63495987500000000000e+006) (16, 1.63495987500000000000e+006) (17, 1.63496000000000000000e+006) (18, 1.63495975000000000000e+006) (19, 1.63495987500000000000e+006) (20, 1.63496000000000000000e+006) (21, 1.63495987500000000000e+006) (22, 1.63495987500000000000e+006) (23, 1.63495975000000000000e+006) (24, 1.63495987500000000000e+006) (25, 1.63495987500000000000e+006) (26, 1.63495987500000000000e+006) (27, 1.63495975000000000000e+006) (28, 1.63495975000000000000e+006) (29, 1.63495987500000000000e+006) (30, 1.63495987500000000000e+006) (31, 1.63495987500000000000e+006) (32, 1.63495987500000000000e+006) (33, 1.63495987500000000000e+006) (34, 1.63495987500000000000e+006) (35, 1.63495987500000000000e+006) (36, 1.63495987500000000000e+006) (37, 1.63495987500000000000e+006) (38, 1.63495987500000000000e+006) (39, 1.63495987500000000000e+006) (40, 1.63495975000000000000e+006) (41, 1.63495987500000000000e+006) (42, 1.63496000000000000000e+006) (43, 1.63495987500000000000e+006) (44, 1.63496000000000000000e+006) (45, 1.63495987500000000000e+006) (46, 1.63495975000000000000e+006) (47, 1.63495987500000000000e+006) (48, 1.63495987500000000000e+006) (49, 1.63495987500000000000e+006) (50, -8.65890607237815860000e-002) (0, 2.15820316225290300000e-002) (1, 4.85249804454124980000e+036) (2, -1.63495987500000000000e+006) (3, -1.63495987500000000000e+006) (4, -1.63495975000000000000e+006) (5, -1.63496000000000000000e+006) (6, -1.63495987500000000000e+006) (7, -1.63495975000000000000e+006) (8, -1.63495987500000000000e+006) (9, -1.63495987500000000000e+006) (10, -1.63495987500000000000e+006) (11, -1.63496000000000000000e+006) (12, -1.63495975000000000000e+006) (13, -1.63495987500000000000e+006) (14, -1.63495987500000000000e+006) (15, -1.63495987500000000000e+006) (16, -1.63495987500000000000e+006) (17, -1.63495975000000000000e+006) (18, -1.63495975000000000000e+006) (19, -1.63496000000000000000e+006) (20, -1.63495987500000000000e+006) (21, -1.63495987500000000000e+006) (22, -1.63496000000000000000e+006) (23, -1.63495987500000000000e+006) (24, -1.63496000000000000000e+006) (25, -1.63495975000000000000e+006) (26, -1.63495975000000000000e+006) (27, -1.63495987500000000000e+006) (28, -1.63496000000000000000e+006) (29, -1.63495987500000000000e+006) (30, -1.63495987500000000000e+006) (31, -1.63495987500000000000e+006) (32, -1.63495975000000000000e+006) (33, -1.63495987500000000000e+006) (34, -1.63496000000000000000e+006) (35, -1.63496000000000000000e+006) (36, -1.63495987500000000000e+006) (37, -1.63496000000000000000e+006) (38, -1.63495987500000000000e+006) (39, -1.63495987500000000000e+006) (40, -1.63495987500000000000e+006) (41, -1.63495987500000000000e+006) (42, -1.63495987500000000000e+006) (43, -1.63495975000000000000e+006) (44, -1.63495975000000000000e+006) (45, -1.63495975000000000000e+006) (46, -1.63496000000000000000e+006) (47, -1.63495987500000000000e+006) (48, -1.63495987500000000000e+006) (49, -1.63495987500000000000e+006) (50, 6.64413571357727050000e-002) (0, 2.12646480649709700000e-002) (1, 1.#INF0000000000000000e+000) (2, -1.26497392000000000000e+008) (3, -1.26497392000000000000e+008) (4, -1.26497392000000000000e+008) (5, -1.26497392000000000000e+008) (6, -1.26497392000000000000e+008) (7, -1.26497392000000000000e+008) (8, -1.26497392000000000000e+008) (9, -1.26497392000000000000e+008) (10, -1.26497392000000000000e+008) (11, -1.26497392000000000000e+008) (12, -1.26497392000000000000e+008) (13, -1.26497392000000000000e+008) (14, -1.26497392000000000000e+008) (15, -1.26497392000000000000e+008) (16, -1.26497392000000000000e+008) (17, -1.26497392000000000000e+008) (18, -1.26497392000000000000e+008) (19, -1.26497392000000000000e+008) (20, -1.26497392000000000000e+008) (21, -1.26497392000000000000e+008) (22, -1.26497392000000000000e+008) (23, -1.26497392000000000000e+008) (24, -1.26497392000000000000e+008) (25, -1.26497392000000000000e+008) (26, -1.26497392000000000000e+008) (27, -1.26497392000000000000e+008) (28, -1.26497392000000000000e+008) (29, -1.26497392000000000000e+008) (30, -1.26497392000000000000e+008) (31, -1.26497392000000000000e+008) (32, -1.26497392000000000000e+008) (33, -1.26497392000000000000e+008) (34, -1.26497392000000000000e+008) (35, -1.26497392000000000000e+008) (36, -1.26497392000000000000e+008) (37, -1.26497392000000000000e+008) (38, -1.26497392000000000000e+008) (39, -1.26497392000000000000e+008) (40, -1.26497392000000000000e+008) (41, -1.26497392000000000000e+008) (42, -1.26497392000000000000e+008) (43, -1.26497392000000000000e+008) (44, -1.26497392000000000000e+008) (45, -1.26497392000000000000e+008) (46, -1.26497392000000000000e+008) (47, -1.26497392000000000000e+008) (48, -1.26497392000000000000e+008) (49, -1.26497392000000000000e+008) (50, 1.26479935646057130000e+000) (0, 3.38928215205669400000e-002) (1, -1.#INF0000000000000000e+000) (2, 1.26497392000000000000e+008) (3, 1.26497392000000000000e+008) (4, 1.26497392000000000000e+008) (5, 1.26497392000000000000e+008) (6, 1.26497392000000000000e+008) (7, 1.26497392000000000000e+008) (8, 1.26497392000000000000e+008) (9, 1.26497392000000000000e+008) (10, 1.26497392000000000000e+008) (11, 1.26497392000000000000e+008) (12, 1.26497392000000000000e+008) (13, 1.26497392000000000000e+008) (14, 1.26497392000000000000e+008) (15, 1.26497392000000000000e+008) (16, 1.26497392000000000000e+008) (17, 1.26497392000000000000e+008) (18, 1.26497392000000000000e+008) (19, 1.26497392000000000000e+008) (20, 1.26497392000000000000e+008) (21, 1.26497392000000000000e+008) (22, 1.26497392000000000000e+008) (23, 1.26497392000000000000e+008) (24, 1.26497392000000000000e+008) (25, 1.26497392000000000000e+008) (26, 1.26497392000000000000e+008) (27, 1.26497392000000000000e+008) (28, 1.26497392000000000000e+008) (29, 1.26497392000000000000e+008) (30, 1.26497392000000000000e+008) (31, 1.26497392000000000000e+008) (32, 1.26497392000000000000e+008) (33, 1.26497392000000000000e+008) (34, 1.26497392000000000000e+008) (35, 1.26497392000000000000e+008) (36, 1.26497392000000000000e+008) (37, 1.26497392000000000000e+008) (38, 1.26497392000000000000e+008) (39, 1.26497392000000000000e+008) (40, 1.26497392000000000000e+008) (41, 1.26497392000000000000e+008) (42, 1.26497392000000000000e+008) (43, 1.26497392000000000000e+008) (44, 1.26497392000000000000e+008) (45, 1.26497392000000000000e+008) (46, 1.26497392000000000000e+008) (47, 1.26497392000000000000e+008) (48, 1.26497392000000000000e+008) (49, 1.26497392000000000000e+008) (50, -1.25605297088623050000e+000) (0, -9.50317382812500000000e-002) (1, -1.#INF0000000000000000e+000) (2, 1.26497392000000000000e+008) (3, 1.26497392000000000000e+008) (4, 1.26497392000000000000e+008) (5, 1.26497392000000000000e+008) (6, 1.26497392000000000000e+008) (7, 1.26497392000000000000e+008) (8, 1.26497392000000000000e+008) (9, 1.26497392000000000000e+008) (10, 1.26497392000000000000e+008) (11, 1.26497392000000000000e+008) (12, 1.26497392000000000000e+008) (13, 1.26497392000000000000e+008) (14, 1.26497392000000000000e+008) (15, 1.26497392000000000000e+008) (16, 1.26497392000000000000e+008) (17, 1.26497392000000000000e+008) (18, 1.26497392000000000000e+008) (19, 1.26497392000000000000e+008) (20, 1.26497392000000000000e+008) (21, 1.26497392000000000000e+008) (22, 1.26497392000000000000e+008) (23, 1.26497392000000000000e+008) (24, 1.26497392000000000000e+008) (25, 1.26497392000000000000e+008) (26, 1.26497392000000000000e+008) (27, 1.26497392000000000000e+008) (28, 1.26497392000000000000e+008) (29, 1.26497392000000000000e+008) (30, 1.26497392000000000000e+008) (31, 1.26497392000000000000e+008) (32, 1.26497392000000000000e+008) (33, 1.26497392000000000000e+008) (34, 1.26497392000000000000e+008) (35, 1.26497392000000000000e+008) (36, 1.26497392000000000000e+008) (37, 1.26497392000000000000e+008) (38, 1.26497392000000000000e+008) (39, 1.26497392000000000000e+008) (40, 1.26497392000000000000e+008) (41, 1.26497392000000000000e+008) (42, 1.26497392000000000000e+008) (43, 1.26497392000000000000e+008) (44, 1.26497392000000000000e+008) (45, 1.26497392000000000000e+008) (46, 1.26497392000000000000e+008) (47, 1.26497392000000000000e+008) (48, 1.26497392000000000000e+008) (49, 1.26497392000000000000e+008) (50, -1.11868727207183840000e+000) (0, -2.41699232719838620000e-003) (1, -1.#INF0000000000000000e+000) (2, 1.26497392000000000000e+008) (3, 1.26497392000000000000e+008) (4, 1.26497392000000000000e+008) (5, 1.26497392000000000000e+008) (6, 1.26497392000000000000e+008) (7, 1.26497392000000000000e+008) (8, 1.26497392000000000000e+008) (9, 1.26497392000000000000e+008) (10, 1.26497392000000000000e+008) (11, 1.26497392000000000000e+008) (12, 1.26497392000000000000e+008) (13, 1.26497392000000000000e+008) (14, 1.26497392000000000000e+008) (15, 1.26497392000000000000e+008) (16, 1.26497392000000000000e+008) (17, 1.26497392000000000000e+008) (18, 1.26497392000000000000e+008) (19, 1.26497392000000000000e+008) (20, 1.26497392000000000000e+008) (21, 1.26497392000000000000e+008) (22, 1.26497392000000000000e+008) (23, 1.26497392000000000000e+008) (24, 1.26497392000000000000e+008) (25, 1.26497392000000000000e+008) (26, 1.26497392000000000000e+008) (27, 1.26497392000000000000e+008) (28, 1.26497392000000000000e+008) (29, 1.26497392000000000000e+008) (30, 1.26497392000000000000e+008) (31, 1.26497392000000000000e+008) (32, 1.26497392000000000000e+008) (33, 1.26497392000000000000e+008) (34, 1.26497392000000000000e+008) (35, 1.26497392000000000000e+008) (36, 1.26497392000000000000e+008) (37, 1.26497392000000000000e+008) (38, 1.26497392000000000000e+008) (39, 1.26497392000000000000e+008) (40, 1.26497392000000000000e+008) (41, 1.26497392000000000000e+008) (42, 1.26497392000000000000e+008) (43, 1.26497392000000000000e+008) (44, 1.26497392000000000000e+008) (45, 1.26497392000000000000e+008) (46, 1.26497392000000000000e+008) (47, 1.26497392000000000000e+008) (48, 1.26497392000000000000e+008) (49, 1.26497392000000000000e+008) (50, -1.25250685214996340000e+000) (0, -6.06750510632991790000e-002) (1, -1.#INF0000000000000000e+000) (2, 1.26497392000000000000e+008) (3, 1.26497392000000000000e+008) (4, 1.26497392000000000000e+008) (5, 1.26497392000000000000e+008) (6, 1.26497392000000000000e+008) (7, 1.26497392000000000000e+008) (8, 1.26497392000000000000e+008) (9, 1.26497392000000000000e+008) (10, 1.26497392000000000000e+008) (11, 1.26497392000000000000e+008) (12, 1.26497392000000000000e+008) (13, 1.26497392000000000000e+008) (14, 1.26497392000000000000e+008) (15, 1.26497392000000000000e+008) (16, 1.26497392000000000000e+008) (17, 1.26497392000000000000e+008) (18, 1.26497392000000000000e+008) (19, 1.26497392000000000000e+008) (20, 1.26497392000000000000e+008) (21, 1.26497392000000000000e+008) (22, 1.26497392000000000000e+008) (23, 1.26497392000000000000e+008) (24, 1.26497392000000000000e+008) (25, 1.26497392000000000000e+008) (26, 1.26497392000000000000e+008) (27, 1.26497392000000000000e+008) (28, 1.26497392000000000000e+008) (29, 1.26497392000000000000e+008) (30, 1.26497392000000000000e+008) (31, 1.26497392000000000000e+008) (32, 1.26497392000000000000e+008) (33, 1.26497392000000000000e+008) (34, 1.26497392000000000000e+008) (35, 1.26497392000000000000e+008) (36, 1.26497392000000000000e+008) (37, 1.26497392000000000000e+008) (38, 1.26497392000000000000e+008) (39, 1.26497392000000000000e+008) (40, 1.26497392000000000000e+008) (41, 1.26497392000000000000e+008) (42, 1.26497392000000000000e+008) (43, 1.26497392000000000000e+008) (44, 1.26497392000000000000e+008) (45, 1.26497392000000000000e+008) (46, 1.26497392000000000000e+008) (47, 1.26497392000000000000e+008) (48, 1.26497392000000000000e+008) (49, 1.26497392000000000000e+008) (50, -1.12414371967315670000e+000) (0, 7.16003403067588810000e-002) (1, -1.#INF0000000000000000e+000) (2, 1.26497392000000000000e+008) (3, 1.26497392000000000000e+008) (4, 1.26497392000000000000e+008) (5, 1.26497392000000000000e+008) (6, 1.26497392000000000000e+008) (7, 1.26497392000000000000e+008) (8, 1.26497392000000000000e+008) (9, 1.26497392000000000000e+008) (10, 1.26497392000000000000e+008) (11, 1.26497392000000000000e+008) (12, 1.26497392000000000000e+008) (13, 1.26497392000000000000e+008) (14, 1.26497392000000000000e+008) (15, 1.26497392000000000000e+008) (16, 1.26497392000000000000e+008) (17, 1.26497392000000000000e+008) (18, 1.26497392000000000000e+008) (19, 1.26497392000000000000e+008) (20, 1.26497392000000000000e+008) (21, 1.26497392000000000000e+008) (22, 1.26497392000000000000e+008) (23, 1.26497392000000000000e+008) (24, 1.26497392000000000000e+008) (25, 1.26497392000000000000e+008) (26, 1.26497392000000000000e+008) (27, 1.26497392000000000000e+008) (28, 1.26497392000000000000e+008) (29, 1.26497392000000000000e+008) (30, 1.26497392000000000000e+008) (31, 1.26497392000000000000e+008) (32, 1.26497392000000000000e+008) (33, 1.26497392000000000000e+008) (34, 1.26497392000000000000e+008) (35, 1.26497392000000000000e+008) (36, 1.26497392000000000000e+008) (37, 1.26497392000000000000e+008) (38, 1.26497392000000000000e+008) (39, 1.26497392000000000000e+008) (40, 1.26497392000000000000e+008) (41, 1.26497392000000000000e+008) (42, 1.26497392000000000000e+008) (43, 1.26497392000000000000e+008) (44, 1.26497392000000000000e+008) (45, 1.26497392000000000000e+008) (46, 1.26497392000000000000e+008) (47, 1.26497392000000000000e+008) (48, 1.26497392000000000000e+008) (49, 1.26497392000000000000e+008) (50, -1.20980048179626460000e+000) (0, -3.58276371844112870000e-003) (1, -1.#INF0000000000000000e+000) (2, 1.26497392000000000000e+008) (3, 1.26497392000000000000e+008) (4, 1.26497392000000000000e+008) (5, 1.26497392000000000000e+008) (6, 1.26497392000000000000e+008) (7, 1.26497392000000000000e+008) (8, 1.26497392000000000000e+008) (9, 1.26497392000000000000e+008) (10, 1.26497392000000000000e+008) (11, 1.26497392000000000000e+008) (12, 1.26497392000000000000e+008) (13, 1.26497392000000000000e+008) (14, 1.26497392000000000000e+008) (15, 1.26497392000000000000e+008) (16, 1.26497392000000000000e+008) (17, 1.26497392000000000000e+008) (18, 1.26497392000000000000e+008) (19, 1.26497392000000000000e+008) (20, 1.26497392000000000000e+008) (21, 1.26497392000000000000e+008) (22, 1.26497392000000000000e+008) (23, 1.26497392000000000000e+008) (24, 1.26497392000000000000e+008) (25, 1.26497392000000000000e+008) (26, 1.26497392000000000000e+008) (27, 1.26497392000000000000e+008) (28, 1.26497392000000000000e+008) (29, 1.26497392000000000000e+008) (30, 1.26497392000000000000e+008) (31, 1.26497392000000000000e+008) (32, 1.26497392000000000000e+008) (33, 1.26497392000000000000e+008) (34, 1.26497392000000000000e+008) (35, 1.26497392000000000000e+008) (36, 1.26497392000000000000e+008) (37, 1.26497392000000000000e+008) (38, 1.26497392000000000000e+008) (39, 1.26497392000000000000e+008) (40, 1.26497392000000000000e+008) (41, 1.26497392000000000000e+008) (42, 1.26497392000000000000e+008) (43, 1.26497392000000000000e+008) (44, 1.26497392000000000000e+008) (45, 1.26497392000000000000e+008) (46, 1.26497392000000000000e+008) (47, 1.26497392000000000000e+008) (48, 1.26497392000000000000e+008) (49, 1.26497392000000000000e+008) (50, -1.18184030055999760000e+000) (0, 6.62719756364822390000e-002) (1, -1.#INF0000000000000000e+000) (2, 1.26497392000000000000e+008) (3, 1.26497392000000000000e+008) (4, 1.26497392000000000000e+008) (5, 1.26497392000000000000e+008) (6, 1.26497392000000000000e+008) (7, 1.26497392000000000000e+008) (8, 1.26497392000000000000e+008) (9, 1.26497392000000000000e+008) (10, 1.26497392000000000000e+008) (11, 1.26497392000000000000e+008) (12, 1.26497392000000000000e+008) (13, 1.26497392000000000000e+008) (14, 1.26497392000000000000e+008) (15, 1.26497392000000000000e+008) (16, 1.26497392000000000000e+008) (17, 1.26497392000000000000e+008) (18, 1.26497392000000000000e+008) (19, 1.26497392000000000000e+008) (20, 1.26497392000000000000e+008) (21, 1.26497392000000000000e+008) (22, 1.26497392000000000000e+008) (23, 1.26497392000000000000e+008) (24, 1.26497392000000000000e+008) (25, 1.26497392000000000000e+008) (26, 1.26497392000000000000e+008) (27, 1.26497392000000000000e+008) (28, 1.26497392000000000000e+008) (29, 1.26497392000000000000e+008) (30, 1.26497392000000000000e+008) (31, 1.26497392000000000000e+008) (32, 1.26497392000000000000e+008) (33, 1.26497392000000000000e+008) (34, 1.26497392000000000000e+008) (35, 1.26497392000000000000e+008) (36, 1.26497392000000000000e+008) (37, 1.26497392000000000000e+008) (38, 1.26497392000000000000e+008) (39, 1.26497392000000000000e+008) (40, 1.26497392000000000000e+008) (41, 1.26497392000000000000e+008) (42, 1.26497392000000000000e+008) (43, 1.26497392000000000000e+008) (44, 1.26497392000000000000e+008) (45, 1.26497392000000000000e+008) (46, 1.26497392000000000000e+008) (47, 1.26497392000000000000e+008) (48, 1.26497392000000000000e+008) (49, 1.26497392000000000000e+008) (50, -1.09999215602874760000e+000) (0, 2.46215816587209700000e-002) (1, -1.#INF0000000000000000e+000) (2, 1.26497392000000000000e+008) (3, 1.26497392000000000000e+008) (4, 1.26497392000000000000e+008) (5, 1.26497392000000000000e+008) (6, 1.26497392000000000000e+008) (7, 1.26497392000000000000e+008) (8, 1.26497392000000000000e+008) (9, 1.26497392000000000000e+008) (10, 1.26497392000000000000e+008) (11, 1.26497392000000000000e+008) (12, 1.26497392000000000000e+008) (13, 1.26497392000000000000e+008) (14, 1.26497392000000000000e+008) (15, 1.26497392000000000000e+008) (16, 1.26497392000000000000e+008) (17, 1.26497392000000000000e+008) (18, 1.26497392000000000000e+008) (19, 1.26497392000000000000e+008) (20, 1.26497392000000000000e+008) (21, 1.26497392000000000000e+008) (22, 1.26497392000000000000e+008) (23, 1.26497392000000000000e+008) (24, 1.26497392000000000000e+008) (25, 1.26497392000000000000e+008) (26, 1.26497392000000000000e+008) (27, 1.26497392000000000000e+008) (28, 1.26497392000000000000e+008) (29, 1.26497392000000000000e+008) (30, 1.26497392000000000000e+008) (31, 1.26497392000000000000e+008) (32, 1.26497392000000000000e+008) (33, 1.26497392000000000000e+008) (34, 1.26497392000000000000e+008) (35, 1.26497392000000000000e+008) (36, 1.26497392000000000000e+008) (37, 1.26497392000000000000e+008) (38, 1.26497392000000000000e+008) (39, 1.26497392000000000000e+008) (40, 1.26497392000000000000e+008) (41, 1.26497392000000000000e+008) (42, 1.26497392000000000000e+008) (43, 1.26497392000000000000e+008) (44, 1.26497392000000000000e+008) (45, 1.26497392000000000000e+008) (46, 1.26497392000000000000e+008) (47, 1.26497392000000000000e+008) (48, 1.26497392000000000000e+008) (49, 1.26497392000000000000e+008) (50, -1.20761549472808840000e+000) (0, 3.64135764539241790000e-002) (1, -1.#INF0000000000000000e+000) (2, 1.26497392000000000000e+008) (3, 1.26497392000000000000e+008) (4, 1.26497392000000000000e+008) (5, 1.26497392000000000000e+008) (6, 1.26497392000000000000e+008) (7, 1.26497392000000000000e+008) (8, 1.26497392000000000000e+008) (9, 1.26497392000000000000e+008) (10, 1.26497392000000000000e+008) (11, 1.26497392000000000000e+008) (12, 1.26497392000000000000e+008) (13, 1.26497392000000000000e+008) (14, 1.26497392000000000000e+008) (15, 1.26497392000000000000e+008) (16, 1.26497392000000000000e+008) (17, 1.26497392000000000000e+008) (18, 1.26497392000000000000e+008) (19, 1.26497392000000000000e+008) (20, 1.26497392000000000000e+008) (21, 1.26497392000000000000e+008) (22, 1.26497392000000000000e+008) (23, 1.26497392000000000000e+008) (24, 1.26497392000000000000e+008) (25, 1.26497392000000000000e+008) (26, 1.26497392000000000000e+008) (27, 1.26497392000000000000e+008) (28, 1.26497392000000000000e+008) (29, 1.26497392000000000000e+008) (30, 1.26497392000000000000e+008) (31, 1.26497392000000000000e+008) (32, 1.26497392000000000000e+008) (33, 1.26497392000000000000e+008) (34, 1.26497392000000000000e+008) (35, 1.26497392000000000000e+008) (36, 1.26497392000000000000e+008) (37, 1.26497392000000000000e+008) (38, 1.26497392000000000000e+008) (39, 1.26497392000000000000e+008) (40, 1.26497392000000000000e+008) (41, 1.26497392000000000000e+008) (42, 1.26497392000000000000e+008) (43, 1.26497392000000000000e+008) (44, 1.26497392000000000000e+008) (45, 1.26497392000000000000e+008) (46, 1.26497392000000000000e+008) (47, 1.26497392000000000000e+008) (48, 1.26497392000000000000e+008) (49, 1.26497392000000000000e+008) (50, -1.16445136070251460000e+000) (0, 5.45166023075580600000e-002) (1, -1.#INF0000000000000000e+000) (2, 1.26497392000000000000e+008) (3, 1.26497392000000000000e+008) (4, 1.26497392000000000000e+008) (5, 1.26497392000000000000e+008) (6, 1.26497392000000000000e+008) (7, 1.26497392000000000000e+008) (8, 1.26497392000000000000e+008) (9, 1.26497392000000000000e+008) (10, 1.26497392000000000000e+008) (11, 1.26497392000000000000e+008) (12, 1.26497392000000000000e+008) (13, 1.26497392000000000000e+008) (14, 1.26497392000000000000e+008) (15, 1.26497392000000000000e+008) (16, 1.26497392000000000000e+008) (17, 1.26497392000000000000e+008) (18, 1.26497392000000000000e+008) (19, 1.26497392000000000000e+008) (20, 1.26497392000000000000e+008) (21, 1.26497392000000000000e+008) (22, 1.26497392000000000000e+008) (23, 1.26497392000000000000e+008) (24, 1.26497392000000000000e+008) (25, 1.26497392000000000000e+008) (26, 1.26497392000000000000e+008) (27, 1.26497392000000000000e+008) (28, 1.26497392000000000000e+008) (29, 1.26497392000000000000e+008) (30, 1.26497392000000000000e+008) (31, 1.26497392000000000000e+008) (32, 1.26497392000000000000e+008) (33, 1.26497392000000000000e+008) (34, 1.26497392000000000000e+008) (35, 1.26497392000000000000e+008) (36, 1.26497392000000000000e+008) (37, 1.26497392000000000000e+008) (38, 1.26497392000000000000e+008) (39, 1.26497392000000000000e+008) (40, 1.26497392000000000000e+008) (41, 1.26497392000000000000e+008) (42, 1.26497392000000000000e+008) (43, 1.26497392000000000000e+008) (44, 1.26497392000000000000e+008) (45, 1.26497392000000000000e+008) (46, 1.26497392000000000000e+008) (47, 1.26497392000000000000e+008) (48, 1.26497392000000000000e+008) (49, 1.26497392000000000000e+008) (50, -1.19948554039001460000e+000) (0, -5.44067397713661190000e-002) (1, -1.#INF0000000000000000e+000) (2, 1.26497392000000000000e+008) (3, 1.26497392000000000000e+008) (4, 1.26497392000000000000e+008) (5, 1.26497392000000000000e+008) (6, 1.26497392000000000000e+008) (7, 1.26497392000000000000e+008) (8, 1.26497392000000000000e+008) (9, 1.26497392000000000000e+008) (10, 1.26497392000000000000e+008) (11, 1.26497392000000000000e+008) (12, 1.26497392000000000000e+008) (13, 1.26497392000000000000e+008) (14, 1.26497392000000000000e+008) (15, 1.26497392000000000000e+008) (16, 1.26497392000000000000e+008) (17, 1.26497392000000000000e+008) (18, 1.26497392000000000000e+008) (19, 1.26497392000000000000e+008) (20, 1.26497392000000000000e+008) (21, 1.26497392000000000000e+008) (22, 1.26497392000000000000e+008) (23, 1.26497392000000000000e+008) (24, 1.26497392000000000000e+008) (25, 1.26497392000000000000e+008) (26, 1.26497392000000000000e+008) (27, 1.26497392000000000000e+008) (28, 1.26497392000000000000e+008) (29, 1.26497392000000000000e+008) (30, 1.26497392000000000000e+008) (31, 1.26497392000000000000e+008) (32, 1.26497392000000000000e+008) (33, 1.26497392000000000000e+008) (34, 1.26497392000000000000e+008) (35, 1.26497392000000000000e+008) (36, 1.26497392000000000000e+008) (37, 1.26497392000000000000e+008) (38, 1.26497392000000000000e+008) (39, 1.26497392000000000000e+008) (40, 1.26497392000000000000e+008) (41, 1.26497392000000000000e+008) (42, 1.26497392000000000000e+008) (43, 1.26497392000000000000e+008) (44, 1.26497392000000000000e+008) (45, 1.26497392000000000000e+008) (46, 1.26497392000000000000e+008) (47, 1.26497392000000000000e+008) (48, 1.26497392000000000000e+008) (49, 1.26497392000000000000e+008) (50, -1.19635450839996340000e+000) (0, 3.62670905888080600000e-002) (1, -1.#INF0000000000000000e+000) (2, 1.26497392000000000000e+008) (3, 1.26497392000000000000e+008) (4, 1.26497392000000000000e+008) (5, 1.26497392000000000000e+008) (6, 1.26497392000000000000e+008) (7, 1.26497392000000000000e+008) (8, 1.26497392000000000000e+008) (9, 1.26497392000000000000e+008) (10, 1.26497392000000000000e+008) (11, 1.26497392000000000000e+008) (12, 1.26497392000000000000e+008) (13, 1.26497392000000000000e+008) (14, 1.26497392000000000000e+008) (15, 1.26497392000000000000e+008) (16, 1.26497392000000000000e+008) (17, 1.26497392000000000000e+008) (18, 1.26497392000000000000e+008) (19, 1.26497392000000000000e+008) (20, 1.26497392000000000000e+008) (21, 1.26497392000000000000e+008) (22, 1.26497392000000000000e+008) (23, 1.26497392000000000000e+008) (24, 1.26497392000000000000e+008) (25, 1.26497392000000000000e+008) (26, 1.26497392000000000000e+008) (27, 1.26497392000000000000e+008) (28, 1.26497392000000000000e+008) (29, 1.26497392000000000000e+008) (30, 1.26497392000000000000e+008) (31, 1.26497392000000000000e+008) (32, 1.26497392000000000000e+008) (33, 1.26497392000000000000e+008) (34, 1.26497392000000000000e+008) (35, 1.26497392000000000000e+008) (36, 1.26497392000000000000e+008) (37, 1.26497392000000000000e+008) (38, 1.26497392000000000000e+008) (39, 1.26497392000000000000e+008) (40, 1.26497392000000000000e+008) (41, 1.26497392000000000000e+008) (42, 1.26497392000000000000e+008) (43, 1.26497392000000000000e+008) (44, 1.26497392000000000000e+008) (45, 1.26497392000000000000e+008) (46, 1.26497392000000000000e+008) (47, 1.26497392000000000000e+008) (48, 1.26497392000000000000e+008) (49, 1.26497392000000000000e+008) (50, -1.11548900604248050000e+000) (0, 2.38830577582120900000e-002) (1, -1.#INF0000000000000000e+000) (2, 1.26497392000000000000e+008) (3, 1.26497392000000000000e+008) (4, 1.26497392000000000000e+008) (5, 1.26497392000000000000e+008) (6, 1.26497392000000000000e+008) (7, 1.26497392000000000000e+008) (8, 1.26497392000000000000e+008) (9, 1.26497392000000000000e+008) (10, 1.26497392000000000000e+008) (11, 1.26497392000000000000e+008) (12, 1.26497392000000000000e+008) (13, 1.26497392000000000000e+008) (14, 1.26497392000000000000e+008) (15, 1.26497392000000000000e+008) (16, 1.26497392000000000000e+008) (17, 1.26497392000000000000e+008) (18, 1.26497392000000000000e+008) (19, 1.26497392000000000000e+008) (20, 1.26497392000000000000e+008) (21, 1.26497392000000000000e+008) (22, 1.26497392000000000000e+008) (23, 1.26497392000000000000e+008) (24, 1.26497392000000000000e+008) (25, 1.26497392000000000000e+008) (26, 1.26497392000000000000e+008) (27, 1.26497392000000000000e+008) (28, 1.26497392000000000000e+008) (29, 1.26497392000000000000e+008) (30, 1.26497392000000000000e+008) (31, 1.26497392000000000000e+008) (32, 1.26497392000000000000e+008) (33, 1.26497392000000000000e+008) (34, 1.26497392000000000000e+008) (35, 1.26497392000000000000e+008) (36, 1.26497392000000000000e+008) (37, 1.26497392000000000000e+008) (38, 1.26497392000000000000e+008) (39, 1.26497392000000000000e+008) (40, 1.26497392000000000000e+008) (41, 1.26497392000000000000e+008) (42, 1.26497392000000000000e+008) (43, 1.26497392000000000000e+008) (44, 1.26497392000000000000e+008) (45, 1.26497392000000000000e+008) (46, 1.26497392000000000000e+008) (47, 1.26497392000000000000e+008) (48, 1.26497392000000000000e+008) (49, 1.26497392000000000000e+008) (50, -1.09762394428253170000e+000) (0, 6.52465829625725750000e-003) (1, -1.#INF0000000000000000e+000) (2, 1.26497392000000000000e+008) (3, 1.26497392000000000000e+008) (4, 1.26497392000000000000e+008) (5, 1.26497392000000000000e+008) (6, 1.26497392000000000000e+008) (7, 1.26497392000000000000e+008) (8, 1.26497392000000000000e+008) (9, 1.26497392000000000000e+008) (10, 1.26497392000000000000e+008) (11, 1.26497392000000000000e+008) (12, 1.26497392000000000000e+008) (13, 1.26497392000000000000e+008) (14, 1.26497392000000000000e+008) (15, 1.26497392000000000000e+008) (16, 1.26497392000000000000e+008) (17, 1.26497392000000000000e+008) (18, 1.26497392000000000000e+008) (19, 1.26497392000000000000e+008) (20, 1.26497392000000000000e+008) (21, 1.26497392000000000000e+008) (22, 1.26497392000000000000e+008) (23, 1.26497392000000000000e+008) (24, 