FANN_FLO_2.1
num_layers=3
learning_rate=0.700000
connection_rate=1.000000
network_type=0
learning_momentum=0.000000
training_algorithm=2
train_error_function=1
train_stop_function=0
cascade_output_change_fraction=0.010000
quickprop_decay=-0.000100
quickprop_mu=1.750000
rprop_increase_factor=1.200000
rprop_decrease_factor=0.500000
rprop_delta_min=0.000000
rprop_delta_max=50.000000
rprop_delta_zero=0.100000
cascade_output_stagnation_epochs=12
cascade_candidate_change_fraction=0.010000
cascade_candidate_stagnation_epochs=12
cascade_max_out_epochs=150
cascade_min_out_epochs=50
cascade_max_cand_epochs=150
cascade_min_cand_epochs=50
cascade_num_candidate_groups=2
bit_fail_limit=3.49999994039535522461e-01
cascade_candidate_limit=1.00000000000000000000e+03
cascade_weight_multiplier=4.00000005960464477539e-01
cascade_activation_functions_count=10
cascade_activation_functions=3 5 7 8 10 11 14 15 16 17 
cascade_activation_steepnesses_count=4
cascade_activation_steepnesses=2.50000000000000000000e-01 5.00000000000000000000e-01 7.50000000000000000000e-01 1.00000000000000000000e+00 
layer_sizes=51 101 26 
scale_included=0
neurons (num_inputs, activation_function, activation_steepness)=(0, 0, 0.00000000000000000000e+00) (0, 0, 0.00000000000000000000e+00) (0, 0, 0.00000000000000000000e+00) (0, 0, 0.00000000000000000000e+00) (0, 0, 0.00000000000000000000e+00) (0, 0, 0.00000000000000000000e+00) (0, 0, 0.00000000000000000000e+00) (0, 0, 0.00000000000000000000e+00) (0, 0, 0.00000000000000000000e+00) (0, 0, 0.00000000000000000000e+00) (0, 0, 0.00000000000000000000e+00) (0, 0, 0.00000000000000000000e+00) (0, 0, 0.00000000000000000000e+00) (0, 0, 0.00000000000000000000e+00) (0, 0, 0.00000000000000000000e+00) (0, 0, 0.00000000000000000000e+00) (0, 0, 0.00000000000000000000e+00) (0, 0, 0.00000000000000000000e+00) (0, 0, 0.00000000000000000000e+00) (0, 0, 0.00000000000000000000e+00) (0, 0, 0.00000000000000000000e+00) (0, 0, 0.00000000000000000000e+00) (0, 0, 0.00000000000000000000e+00) (0, 0, 0.00000000000000000000e+00) (0, 0, 0.00000000000000000000e+00) (0, 0, 0.00000000000000000000e+00) (0, 0, 0.00000000000000000000e+00) (0, 0, 0.00000000000000000000e+00) (0, 0, 0.00000000000000000000e+00) (0, 0, 0.00000000000000000000e+00) (0, 0, 0.00000000000000000000e+00) (0, 0, 0.00000000000000000000e+00) (0, 0, 0.00000000000000000000e+00) (0, 0, 0.00000000000000000000e+00) (0, 0, 0.00000000000000000000e+00) (0, 0, 0.00000000000000000000e+00) (0, 0, 0.00000000000000000000e+00) (0, 0, 0.00000000000000000000e+00) (0, 0, 0.00000000000000000000e+00) (0, 0, 0.00000000000000000000e+00) (0, 0, 0.00000000000000000000e+00) (0, 0, 0.00000000000000000000e+00) (0, 0, 0.00000000000000000000e+00) (0, 0, 0.00000000000000000000e+00) (0, 0, 0.00000000000000000000e+00) (0, 0, 0.00000000000000000000e+00) (0, 0, 0.00000000000000000000e+00) (0, 0, 0.00000000000000000000e+00) (0, 0, 0.00000000000000000000e+00) (0, 0, 0.00000000000000000000e+00) (0, 0, 0.00000000000000000000e+00) (51, 5, 5.00000000000000000000e-01) (51, 5, 5.00000000000000000000e-01) (51, 5, 5.00000000000000000000e-01) (51, 5, 5.00000000000000000000e-01) (51, 5, 5.00000000000000000000e-01) (51, 5, 5.00000000000000000000e-01) (51, 5, 5.00000000000000000000e-01) (51, 5, 5.00000000000000000000e-01) (51, 5, 5.00000000000000000000e-01) (51, 5, 5.00000000000000000000e-01) (51, 5, 5.00000000000000000000e-01) (51, 5, 5.00000000000000000000e-01) (51, 5, 5.00000000000000000000e-01) (51, 5, 5.00000000000000000000e-01) (51, 5, 5.00000000000000000000e-01) (51, 5, 5.00000000000000000000e-01) (51, 5, 5.00000000000000000000e-01) (51, 5, 5.00000000000000000000e-01) (51, 5, 5.00000000000000000000e-01) (51, 5, 5.00000000000000000000e-01) (51, 5, 5.00000000000000000000e-01) (51, 5, 5.00000000000000000000e-01) (51, 5, 5.00000000000000000000e-01) (51, 5, 5.00000000000000000000e-01) (51, 5, 5.00000000000000000000e-01) (51, 5, 5.00000000000000000000e-01) (51, 5, 5.00000000000000000000e-01) (51, 5, 5.00000000000000000000e-01) (51, 5, 5.00000000000000000000e-01) (51, 5, 5.00000000000000000000e-01) (51, 5, 5.00000000000000000000e-01) (51, 5, 5.00000000000000000000e-01) (51, 5, 5.00000000000000000000e-01) (51, 5, 5.00000000000000000000e-01) (51, 5, 5.00000000000000000000e-01) (51, 5, 5.00000000000000000000e-01) (51, 5, 5.00000000000000000000e-01) (51, 5, 5.00000000000000000000e-01) (51, 5, 5.00000000000000000000e-01) (51, 5, 5.00000000000000000000e-01) (51, 5, 5.00000000000000000000e-01) (51, 5, 5.00000000000000000000e-01) (51, 5, 5.00000000000000000000e-01) (51, 5, 5.00000000000000000000e-01) (51, 5, 5.00000000000000000000e-01) (51, 5, 5.00000000000000000000e-01) (51, 5, 5.00000000000000000000e-01) (51, 5, 5.00000000000000000000e-01) (51, 5, 5.00000000000000000000e-01) (51, 5, 5.00000000000000000000e-01) (51, 5, 5.00000000000000000000e-01) (51, 5, 5.00000000000000000000e-01) (51, 5, 5.00000000000000000000e-01) (51, 5, 5.00000000000000000000e-01) (51, 5, 5.00000000000000000000e-01) (51, 5, 5.00000000000000000000e-01) (51, 5, 5.00000000000000000000e-01) (51, 5, 5.00000000000000000000e-01) (51, 5, 5.00000000000000000000e-01) (51, 5, 5.00000000000000000000e-01) (51, 5, 5.00000000000000000000e-01) (51, 5, 5.00000000000000000000e-01) (51, 5, 5.00000000000000000000e-01) (51, 5, 5.00000000000000000000e-01) (51, 5, 5.00000000000000000000e-01) (51, 5, 5.00000000000000000000e-01) (51, 5, 5.00000000000000000000e-01) (51, 5, 5.00000000000000000000e-01) (51, 5, 5.00000000000000000000e-01) (51, 5, 5.00000000000000000000e-01) (51, 5, 5.00000000000000000000e-01) (51, 5, 5.00000000000000000000e-01) (51, 5, 5.00000000000000000000e-01) (51, 5, 5.00000000000000000000e-01) (51, 5, 5.00000000000000000000e-01) (51, 5, 5.00000000000000000000e-01) (51, 5, 5.00000000000000000000e-01) (51, 5, 5.00000000000000000000e-01) (51, 5, 5.00000000000000000000e-01) (51, 5, 5.00000000000000000000e-01) (51, 5, 5.00000000000000000000e-01) (51, 5, 5.00000000000000000000e-01) (51, 5, 5.00000000000000000000e-01) (51, 5, 5.00000000000000000000e-01) (51, 5, 5.00000000000000000000e-01) (51, 5, 5.00000000000000000000e-01) (51, 5, 5.00000000000000000000e-01) (51, 5, 5.00000000000000000000e-01) (51, 5, 5.00000000000000000000e-01) (51, 5, 5.00000000000000000000e-01) (51, 5, 5.00000000000000000000e-01) (51, 5, 5.00000000000000000000e-01) (51, 5, 5.00000000000000000000e-01) (51, 5, 5.00000000000000000000e-01) (51, 5, 5.00000000000000000000e-01) (51, 5, 5.00000000000000000000e-01) (51, 5, 5.00000000000000000000e-01) (51, 5, 5.00000000000000000000e-01) (51, 5, 5.00000000000000000000e-01) (51, 5, 5.00000000000000000000e-01) (0, 5, 0.00000000000000000000e+00) (101, 5, 5.00000000000000000000e-01) (101, 5, 5.00000000000000000000e-01) (101, 5, 5.00000000000000000000e-01) (101, 5, 5.00000000000000000000e-01) (101, 5, 5.00000000000000000000e-01) (101, 5, 5.00000000000000000000e-01) (101, 5, 5.00000000000000000000e-01) (101, 5, 5.00000000000000000000e-01) (101, 5, 5.00000000000000000000e-01) (101, 5, 5.00000000000000000000e-01) (101, 5, 5.00000000000000000000e-01) (101, 5, 5.00000000000000000000e-01) (101, 5, 5.00000000000000000000e-01) (101, 5, 5.00000000000000000000e-01) (101, 5, 5.00000000000000000000e-01) (101, 5, 5.00000000000000000000e-01) (101, 5, 5.00000000000000000000e-01) (101, 5, 5.00000000000000000000e-01) (101, 5, 5.00000000000000000000e-01) (101, 5, 5.00000000000000000000e-01) (101, 5, 5.00000000000000000000e-01) (101, 5, 5.00000000000000000000e-01) (101, 5, 5.00000000000000000000e-01) (101, 5, 5.00000000000000000000e-01) (101, 5, 5.00000000000000000000e-01) (0, 5, 0.00000000000000000000e+00) 
connections (connected_to_neuron, weight)=(0, 2.15229640625000000000e+05) (1, 2.15229453125000000000e+05) (2, 2.15229640625000000000e+05) (3, 2.15229640625000000000e+05) (4, 2.15229515625000000000e+05) (5, 5.66952781677246093750e+01) (6, 2.15229515625000000000e+05) (7, 2.15229578125000000000e+05) (8, 2.15229640625000000000e+05) (9, 2.15229515625000000000e+05) (10, 2.15229453125000000000e+05) (11, 2.15229453125000000000e+05) (12, 2.15229453125000000000e+05) (13, 2.15229640625000000000e+05) (14, 2.15229515625000000000e+05) (15, 2.15229640625000000000e+05) (16, 2.15229640625000000000e+05) (17, 2.15229515625000000000e+05) (18, 2.15229515625000000000e+05) (19, 2.15229640625000000000e+05) (20, 2.15229640625000000000e+05) (21, 2.15229578125000000000e+05) (22, 2.15229578125000000000e+05) (23, 2.15229640625000000000e+05) (24, 2.15229640625000000000e+05) (25, 2.15229515625000000000e+05) (26, 2.15229578125000000000e+05) (27, 2.15229453125000000000e+05) (28, 2.15229515625000000000e+05) (29, 2.15229640625000000000e+05) (30, 2.15229578125000000000e+05) (31, 2.15229515625000000000e+05) (32, 2.15229515625000000000e+05) (33, 2.15229515625000000000e+05) (34, 2.15229640625000000000e+05) (35, 2.15229515625000000000e+05) (36, 2.15229515625000000000e+05) (37, 2.15229515625000000000e+05) (38, 2.15229515625000000000e+05) (39, 2.15229640625000000000e+05) (40, 2.15229640625000000000e+05) (41, 2.15229578125000000000e+05) (42, 2.15229515625000000000e+05) (43, 2.15229515625000000000e+05) (44, 2.15229515625000000000e+05) (45, 2.15229515625000000000e+05) (46, 2.15229578125000000000e+05) (47, 2.15229640625000000000e+05) (48, 2.15229578125000000000e+05) (49, 2.15229640625000000000e+05) (50, -1.28383971750736236572e-02) (0, -2.25560890625000000000e+05) (1, -2.25560890625000000000e+05) (2, -2.25560890625000000000e+05) (3, -2.25561015625000000000e+05) (4, -2.25560890625000000000e+05) (5, 5.66626396179199218750e+01) (6, -2.25561015625000000000e+05) (7, -2.25560890625000000000e+05) (8, -2.25561015625000000000e+05) (9, -2.25560765625000000000e+05) (10, -2.25560890625000000000e+05) (11, -2.25560890625000000000e+05) (12, -2.25560890625000000000e+05) (13, -2.25560765625000000000e+05) (14, -2.25560765625000000000e+05) (15, -2.25560765625000000000e+05) (16, -2.25560890625000000000e+05) (17, -2.25560765625000000000e+05) (18, -2.25560890625000000000e+05) (19, -2.25560890625000000000e+05) (20, -2.25560890625000000000e+05) (21, -2.25560890625000000000e+05) (22, -2.25561015625000000000e+05) (23, -2.25560890625000000000e+05) (24, -2.25560890625000000000e+05) (25, -2.25560890625000000000e+05) (26, -2.25561015625000000000e+05) (27, -2.25560890625000000000e+05) (28, -2.25560765625000000000e+05) (29, -2.25560890625000000000e+05) (30, -2.25560890625000000000e+05) (31, -2.25560890625000000000e+05) (32, -2.25560890625000000000e+05) (33, -2.25560890625000000000e+05) (34, -2.25560890625000000000e+05) (35, -2.25560890625000000000e+05) (36, -2.25560890625000000000e+05) (37, -2.25560765625000000000e+05) (38, -2.25560890625000000000e+05) (39, -2.25560765625000000000e+05) (40, -2.25560890625000000000e+05) (41, -2.25560765625000000000e+05) (42, -2.25560765625000000000e+05) (43, -2.25560890625000000000e+05) (44, -2.25560765625000000000e+05) (45, -2.25560765625000000000e+05) (46, -2.25560765625000000000e+05) (47, -2.25560890625000000000e+05) (48, -2.25560890625000000000e+05) (49, -2.25560765625000000000e+05) (50, -1.95213004946708679199e-01) (0, 1.13837695312500000000e+05) (1, 1.13837820312500000000e+05) (2, 1.13837820312500000000e+05) (3, 1.13837695312500000000e+05) (4, 1.13837820312500000000e+05) (5, 5.65854377746582031250e+01) (6, 1.13837820312500000000e+05) (7, 1.13837695312500000000e+05) (8, 1.13837945312500000000e+05) (9, 1.13837945312500000000e+05) (10, 1.13837820312500000000e+05) (11, 1.13837820312500000000e+05) (12, 1.13837820312500000000e+05) (13, 1.13837695312500000000e+05) (14, 1.13837820312500000000e+05) (15, 1.13837820312500000000e+05) (16, 1.13837820312500000000e+05) (17, 1.13837695312500000000e+05) (18, 1.13837820312500000000e+05) (19, 1.13837820312500000000e+05) (20, 1.13837695312500000000e+05) (21, 1.13837820312500000000e+05) (22, 1.13837820312500000000e+05) (23, 1.13837695312500000000e+05) (24, 1.13837945312500000000e+05) (25, 1.13837945312500000000e+05) (26, 1.13837945312500000000e+05) (27, 1.13837820312500000000e+05) (28, 1.13837945312500000000e+05) (29, 1.13837820312500000000e+05) (30, 1.13837820312500000000e+05) (31, 1.13837695312500000000e+05) (32, 1.13837695312500000000e+05) (33, 1.13837945312500000000e+05) (34, 1.13837945312500000000e+05) (35, 1.13837820312500000000e+05) (36, 1.13837820312500000000e+05) (37, 1.13837695312500000000e+05) (38, 1.13837820312500000000e+05) (39, 1.13837820312500000000e+05) (40, 1.13837695312500000000e+05) (41, 1.13837820312500000000e+05) (42, 1.13837695312500000000e+05) (43, 1.13837820312500000000e+05) (44, 1.13837820312500000000e+05) (45, 1.13837695312500000000e+05) (46, 1.13837695312500000000e+05) (47, 1.13837820312500000000e+05) (48, 1.13837820312500000000e+05) (49, 1.13837820312500000000e+05) (50, -1.79953575134277343750e-01) (0, 7.82464921875000000000e+04) (1, 7.82465546875000000000e+04) (2, 7.82464921875000000000e+04) (3, 7.82466171875000000000e+04) (4, 7.82466171875000000000e+04) (5, 5.65865440368652343750e+01) (6, 7.82466171875000000000e+04) (7, 7.82466171875000000000e+04) (8, 7.82466796875000000000e+04) (9, 7.82465546875000000000e+04) (10, 7.82465546875000000000e+04) (11, 7.82465546875000000000e+04) (12, 7.82466171875000000000e+04) (13, 7.82466171875000000000e+04) (14, 7.82466171875000000000e+04) (15, 7.82466171875000000000e+04) (16, 7.82466171875000000000e+04) (17, 7.82466171875000000000e+04) (18, 7.82466171875000000000e+04) (19, 7.82466171875000000000e+04) (20, 7.82466171875000000000e+04) (21, 7.82466171875000000000e+04) (22, 7.82466171875000000000e+04) (23, 7.82466796875000000000e+04) (24, 7.82464921875000000000e+04) (25, 7.82464921875000000000e+04) (26, 7.82467421875000000000e+04) (27, 7.82466796875000000000e+04) (28, 7.82466171875000000000e+04) (29, 7.82464921875000000000e+04) (30, 7.82465546875000000000e+04) (31, 7.82466171875000000000e+04) (32, 7.82466171875000000000e+04) (33, 7.82466171875000000000e+04) (34, 7.82464921875000000000e+04) (35, 7.82465546875000000000e+04) (36, 7.82466171875000000000e+04) (37, 7.82466171875000000000e+04) (38, 7.82466796875000000000e+04) (39, 7.82466171875000000000e+04) (40, 7.82466171875000000000e+04) (41, 7.82466171875000000000e+04) (42, 7.82466171875000000000e+04) (43, 7.82464921875000000000e+04) (44, 7.82466171875000000000e+04) (45, 7.82466796875000000000e+04) (46, 7.82466171875000000000e+04) (47, 7.82466171875000000000e+04) (48, 7.82465546875000000000e+04) (49, 7.82464921875000000000e+04) (50, 5.43534718453884124756e-02) (0, -1.21937687500000000000e+05) (1, -1.21937562500000000000e+05) (2, -1.21937562500000000000e+05) (3, -1.21937687500000000000e+05) (4, -1.21937562500000000000e+05) (5, 5.65585670471191406250e+01) (6, -1.21937687500000000000e+05) (7, -1.21937687500000000000e+05) (8, -1.21937687500000000000e+05) (9, -1.21937687500000000000e+05) (10, -1.21937687500000000000e+05) (11, -1.21937562500000000000e+05) (12, -1.21937562500000000000e+05) (13, -1.21937562500000000000e+05) (14, -1.21937562500000000000e+05) (15, -1.21937562500000000000e+05) (16, -1.21937562500000000000e+05) (17, -1.21937562500000000000e+05) (18, -1.21937562500000000000e+05) (19, -1.21937687500000000000e+05) (20, -1.21937562500000000000e+05) (21, -1.21937562500000000000e+05) (22, -1.21937562500000000000e+05) (23, -1.21937562500000000000e+05) (24, -1.21937562500000000000e+05) (25, -1.21937562500000000000e+05) (26, -1.21937562500000000000e+05) (27, -1.21937562500000000000e+05) (28, -1.21937562500000000000e+05) (29, -1.21937562500000000000e+05) (30, -1.21937562500000000000e+05) (31, -1.21937562500000000000e+05) (32, -1.21937562500000000000e+05) (33, -1.21937687500000000000e+05) (34, -1.21937562500000000000e+05) (35, -1.21937562500000000000e+05) (36, -1.21937687500000000000e+05) (37, -1.21937562500000000000e+05) (38, -1.21937562500000000000e+05) (39, -1.21937562500000000000e+05) (40, -1.21937687500000000000e+05) (41, -1.21937687500000000000e+05) (42, -1.21937562500000000000e+05) (43, -1.21937562500000000000e+05) (44, -1.21937562500000000000e+05) (45, -1.21937562500000000000e+05) (46, -1.21937562500000000000e+05) (47, -1.21937687500000000000e+05) (48, -1.21937687500000000000e+05) (49, -1.21937562500000000000e+05) (50, -1.67009457945823669434e-01) (0, 2.62724375000000000000e+05) (1, 2.62724500000000000000e+05) (2, 2.62724500000000000000e+05) (3, 2.62724437500000000000e+05) (4, 2.62724375000000000000e+05) (5, 5.65860099792480468750e+01) (6, 2.62724437500000000000e+05) (7, 2.62724437500000000000e+05) (8, 2.62724437500000000000e+05) (9, 2.62724375000000000000e+05) (10, 2.62724437500000000000e+05) (11, 2.62724500000000000000e+05) (12, 2.62724500000000000000e+05) (13, 2.62724500000000000000e+05) (14, 2.62724437500000000000e+05) (15, 2.62724500000000000000e+05) (16, 2.62724437500000000000e+05) (17, 2.62724500000000000000e+05) (18, 2.62724437500000000000e+05) (19, 2.62724375000000000000e+05) (20, 2.62724500000000000000e+05) (21, 2.62724500000000000000e+05) (22, 2.62724500000000000000e+05) (23, 2.62724500000000000000e+05) (24, 2.62724375000000000000e+05) (25, 2.62724437500000000000e+05) (26, 2.62724500000000000000e+05) (27, 2.62724500000000000000e+05) (28, 2.62724437500000000000e+05) (29, 2.62724562500000000000e+05) (30, 2.62724437500000000000e+05) (31, 2.62724375000000000000e+05) (32, 2.62724437500000000000e+05) (33, 2.62724375000000000000e+05) (34, 2.62724500000000000000e+05) (35, 2.62724375000000000000e+05) (36, 2.62724375000000000000e+05) (37, 2.62724437500000000000e+05) (38, 2.62724500000000000000e+05) (39, 2.62724437500000000000e+05) (40, 2.62724375000000000000e+05) (41, 2.62724500000000000000e+05) (42, 2.62724375000000000000e+05) (43, 2.62724500000000000000e+05) (44, 2.62724375000000000000e+05) (45, 2.62724500000000000000e+05) (46, 2.62724500000000000000e+05) (47, 2.62724437500000000000e+05) (48, 2.62724375000000000000e+05) (49, 2.62724437500000000000e+05) (50, -8.62933546304702758789e-02) (0, 3.80260000000000000000e+04) (1, 3.80261250000000000000e+04) (2, 3.80260000000000000000e+04) (3, 3.80260000000000000000e+04) (4, 3.80260937500000000000e+04) (5, 5.65880699157714843750e+01) (6, 3.80260000000000000000e+04) (7, 3.80261250000000000000e+04) (8, 3.80260312500000000000e+04) (9, 3.80260000000000000000e+04) (10, 3.80261250000000000000e+04) (11, 3.80260000000000000000e+04) (12, 3.80260625000000000000e+04) (13, 3.80261250000000000000e+04) (14, 3.80260000000000000000e+04) (15, 3.80260000000000000000e+04) (16, 3.80260625000000000000e+04) (17, 3.80261250000000000000e+04) (18, 3.80260625000000000000e+04) (19, 3.80261250000000000000e+04) (20, 3.80259687500000000000e+04) (21, 3.80260000000000000000e+04) (22, 3.80260625000000000000e+04) (23, 3.80260625000000000000e+04) (24, 3.80260625000000000000e+04) (25, 3.80259375000000000000e+04) (26, 3.80260000000000000000e+04) (27, 3.80260937500000000000e+04) (28, 3.80259375000000000000e+04) (29, 3.80260625000000000000e+04) (30, 3.80261250000000000000e+04) (31, 3.80260625000000000000e+04) (32, 3.80260625000000000000e+04) (33, 3.80260000000000000000e+04) (34, 3.80260625000000000000e+04) (35, 3.80261250000000000000e+04) (36, 3.80260937500000000000e+04) (37, 3.80260000000000000000e+04) (38, 3.80260312500000000000e+04) (39, 3.80260000000000000000e+04) (40, 3.80259687500000000000e+04) (41, 3.80260625000000000000e+04) (42, 3.80260625000000000000e+04) (43, 3.80260625000000000000e+04) (44, 3.80260312500000000000e+04) (45, 3.80260625000000000000e+04) (46, 3.80260312500000000000e+04) (47, 3.80260000000000000000e+04) (48, 3.80260000000000000000e+04) (49, 3.80259375000000000000e+04) (50, 4.28915679454803466797e-01) (0, -1.43005214843750000000e+04) (1, -1.43004589843750000000e+04) (2, -1.43005214843750000000e+04) (3, -1.43003964843750000000e+04) (4, -1.43004589843750000000e+04) (5, 5.65459403991699218750e+01) (6, -1.43005839843750000000e+04) (7, -1.43005839843750000000e+04) (8, -1.43005839843750000000e+04) (9, -1.43004589843750000000e+04) (10, -1.43004589843750000000e+04) (11, -1.43005214843750000000e+04) (12, -1.43004589843750000000e+04) (13, -1.43005214843750000000e+04) (14, -1.43004589843750000000e+04) (15, -1.43005214843750000000e+04) (16, -1.43004589843750000000e+04) (17, -1.43005214843750000000e+04) (18, -1.43005839843750000000e+04) (19, -1.43004589843750000000e+04) (20, -1.43004589843750000000e+04) (21, -1.43003964843750000000e+04) (22, -1.43004589843750000000e+04) (23, -1.43004589843750000000e+04) (24, -1.43004589843750000000e+04) (25, -1.43005839843750000000e+04) (26, -1.43005214843750000000e+04) (27, -1.43005214843750000000e+04) (28, -1.43005839843750000000e+04) (29, -1.43005839843750000000e+04) (30, -1.43004589843750000000e+04) (31, -1.43005214843750000000e+04) (32, -1.43004589843750000000e+04) (33, -1.43005839843750000000e+04) (34, -1.43004589843750000000e+04) (35, -1.43003964843750000000e+04) (36, -1.43004589843750000000e+04) (37, -1.43005839843750000000e+04) (38, -1.43005839843750000000e+04) (39, -1.43004589843750000000e+04) (40, -1.43003964843750000000e+04) (41, -1.43003964843750000000e+04) (42, -1.43003964843750000000e+04) (43, -1.43005214843750000000e+04) (44, -1.43005214843750000000e+04) (45, -1.43005214843750000000e+04) (46, -1.43005214843750000000e+04) (47, -1.43004589843750000000e+04) (48, -1.43005839843750000000e+04) (49, -1.43005214843750000000e+04) (50, -1.42908141016960144043e-01) (0, 4.20141132812500000000e+04) (1, 4.20139882812500000000e+04) (2, 4.20139882812500000000e+04) (3, 4.20142382812500000000e+04) (4, 4.20141132812500000000e+04) (5, 5.65534095764160156250e+01) (6, 4.20141132812500000000e+04) (7, 4.20139882812500000000e+04) (8, 4.20139882812500000000e+04) (9, 4.20141132812500000000e+04) (10, 4.20139882812500000000e+04) (11, 4.20141132812500000000e+04) (12, 4.20141132812500000000e+04) (13, 4.20141132812500000000e+04) (14, 4.20141132812500000000e+04) (15, 4.20142382812500000000e+04) (16, 4.20139882812500000000e+04) (17, 4.20141132812500000000e+04) (18, 4.20139882812500000000e+04) (19, 4.20139882812500000000e+04) (20, 4.20141132812500000000e+04) (21, 4.20141132812500000000e+04) (22, 4.20141132812500000000e+04) (23, 4.20139882812500000000e+04) (24, 4.20141132812500000000e+04) (25, 4.20139882812500000000e+04) (26, 4.20139882812500000000e+04) (27, 4.20141132812500000000e+04) (28, 4.20141132812500000000e+04) (29, 4.20139882812500000000e+04) (30, 4.20139882812500000000e+04) (31, 4.20141132812500000000e+04) (32, 4.20139882812500000000e+04) (33, 4.20139882812500000000e+04) (34, 4.20139882812500000000e+04) (35, 4.20141132812500000000e+04) (36, 4.20139882812500000000e+04) (37, 4.20141132812500000000e+04) (38, 4.20139882812500000000e+04) (39, 4.20141132812500000000e+04) (40, 4.20141132812500000000e+04) (41, 4.20141132812500000000e+04) (42, 4.20139882812500000000e+04) (43, 4.20139882812500000000e+04) (44, 4.20141132812500000000e+04) (45, 4.20141132812500000000e+04) (46, 4.20139882812500000000e+04) (47, 4.20141132812500000000e+04) (48, 4.20141132812500000000e+04) (49, 4.20139882812500000000e+04) (50, -1.45526126027107238770e-01) (0, 1.29629648437500000000e+05) (1, 1.29629773437500000000e+05) (2, 1.29629648437500000000e+05) (3, 1.29629648437500000000e+05) (4, 1.29629835937500000000e+05) (5, 5.66085166931152343750e+01) (6, 1.29629773437500000000e+05) (7, 1.29629773437500000000e+05) (8, 1.29629648437500000000e+05) (9, 1.29629710937500000000e+05) (10, 1.29629648437500000000e+05) (11, 1.29629773437500000000e+05) (12, 1.29629773437500000000e+05) (13, 1.29629773437500000000e+05) (14, 1.29629773437500000000e+05) (15, 1.29629835937500000000e+05) (16, 1.29629773437500000000e+05) (17, 1.29629710937500000000e+05) (18, 1.29629648437500000000e+05) (19, 1.29629773437500000000e+05) (20, 1.29629710937500000000e+05) (21, 1.29629710937500000000e+05) (22, 1.29629648437500000000e+05) (23, 1.29629710937500000000e+05) (24, 1.29629773437500000000e+05) (25, 1.29629648437500000000e+05) (26, 1.29629710937500000000e+05) (27, 1.29629773437500000000e+05) (28, 1.29629773437500000000e+05) (29, 1.29629710937500000000e+05) (30, 1.29629773437500000000e+05) (31, 1.29629710937500000000e+05) (32, 1.29629835937500000000e+05) (33, 1.29629648437500000000e+05) (34, 1.29629773437500000000e+05) (35, 1.29629773437500000000e+05) (36, 1.29629835937500000000e+05) (37, 1.29629710937500000000e+05) (38, 1.29629648437500000000e+05) (39, 1.29629773437500000000e+05) (40, 1.29629773437500000000e+05) (41, 1.29629648437500000000e+05) (42, 1.29629648437500000000e+05) (43, 1.29629710937500000000e+05) (44, 1.29629773437500000000e+05) (45, 1.29629648437500000000e+05) (46, 1.29629648437500000000e+05) (47, 1.29629710937500000000e+05) (48, 1.29629648437500000000e+05) (49, 1.29629773437500000000e+05) (50, -1.54929801821708679199e-01) (0, -9.13046718750000000000e+04) (1, -9.13046093750000000000e+04) (2, -9.13047343750000000000e+04) (3, -9.13046093750000000000e+04) (4, -9.13047343750000000000e+04) (5, 5.65920295715332031250e+01) (6, -9.13046093750000000000e+04) (7, -9.13047343750000000000e+04) (8, -9.13046093750000000000e+04) (9, -9.13046718750000000000e+04) (10, -9.13046718750000000000e+04) (11, -9.13047343750000000000e+04) (12, -9.13046718750000000000e+04) (13, -9.13046093750000000000e+04) (14, -9.13047343750000000000e+04) (15, -9.13046093750000000000e+04) (16, -9.13047343750000000000e+04) (17, -9.13046718750000000000e+04) (18, -9.13046093750000000000e+04) (19, -9.13047343750000000000e+04) (20, -9.13047343750000000000e+04) (21, -9.13047968750000000000e+04) (22, -9.13047968750000000000e+04) (23, -9.13047968750000000000e+04) (24, -9.13046093750000000000e+04) (25, -9.13046718750000000000e+04) (26, -9.13046718750000000000e+04) (27, -9.13047968750000000000e+04) (28, -9.13046093750000000000e+04) (29, -9.13047343750000000000e+04) (30, -9.13046093750000000000e+04) (31, -9.13047343750000000000e+04) (32, -9.13047343750000000000e+04) (33, -9.13046718750000000000e+04) (34, -9.13046093750000000000e+04) (35, -9.13046718750000000000e+04) (36, -9.13047343750000000000e+04) (37, -9.13046093750000000000e+04) (38, -9.13046093750000000000e+04) (39, -9.13047343750000000000e+04) (40, -9.13046093750000000000e+04) (41, -9.13046093750000000000e+04) (42, -9.13046718750000000000e+04) (43, -9.13046718750000000000e+04) (44, -9.13047343750000000000e+04) (45, -9.13046718750000000000e+04) (46, -9.13046718750000000000e+04) (47, -9.13046718750000000000e+04) (48, -9.13046718750000000000e+04) (49, -9.13046093750000000000e+04) (50, 2.90316492319107055664e-01) (0, 1.64225937500000000000e+05) (1, 1.64225937500000000000e+05) (2, 1.64225906250000000000e+05) (3, 1.64226000000000000000e+05) (4, 1.64225843750000000000e+05) (5, 5.65672035217285156250e+01) (6, 1.64225843750000000000e+05) (7, 1.64226000000000000000e+05) (8, 1.64226000000000000000e+05) (9, 1.64225875000000000000e+05) (10, 1.64225906250000000000e+05) (11, 1.64225937500000000000e+05) (12, 1.64226000000000000000e+05) (13, 1.64225875000000000000e+05) (14, 1.64225875000000000000e+05) (15, 1.64225906250000000000e+05) (16, 1.64225937500000000000e+05) (17, 1.64225875000000000000e+05) (18, 1.64225875000000000000e+05) (19, 1.64225843750000000000e+05) (20, 1.64226000000000000000e+05) (21, 1.64225968750000000000e+05) (22, 1.64226031250000000000e+05) (23, 1.64225906250000000000e+05) (24, 1.64225906250000000000e+05) (25, 1.64225968750000000000e+05) (26, 1.64225875000000000000e+05) (27, 1.64225875000000000000e+05) (28, 1.64225906250000000000e+05) (29, 1.64226000000000000000e+05) (30, 1.64225843750000000000e+05) (31, 1.64225968750000000000e+05) (32, 1.64225843750000000000e+05) (33, 1.64226031250000000000e+05) (34, 1.64225968750000000000e+05) (35, 1.64225968750000000000e+05) (36, 1.64225875000000000000e+05) (37, 1.64225968750000000000e+05) (38, 1.64225937500000000000e+05) (39, 1.64225906250000000000e+05) (40, 1.64225968750000000000e+05) (41, 1.64225906250000000000e+05) (42, 1.64225937500000000000e+05) (43, 1.64225937500000000000e+05) (44, 1.64225968750000000000e+05) (45, 1.64225937500000000000e+05) (46, 1.64225906250000000000e+05) (47, 1.64225875000000000000e+05) (48, 1.64225875000000000000e+05) (49, 1.64226000000000000000e+05) (50, 3.85980039834976196289e-01) (0, -1.04367109375000000000e+05) (1, -1.04367171875000000000e+05) (2, -1.04367171875000000000e+05) (3, -1.04367234375000000000e+05) (4, -1.04367234375000000000e+05) (5, 5.66017799377441406250e+01) (6, -1.04367046875000000000e+05) (7, -1.04367234375000000000e+05) (8, -1.04367171875000000000e+05) (9, -1.04367171875000000000e+05) (10, -1.04367171875000000000e+05) (11, -1.04367234375000000000e+05) (12, -1.04367234375000000000e+05) (13, -1.04367109375000000000e+05) (14, -1.04367046875000000000e+05) (15, -1.04367046875000000000e+05) (16, -1.04367171875000000000e+05) (17, -1.04367234375000000000e+05) (18, -1.04367046875000000000e+05) (19, -1.04367171875000000000e+05) (20, -1.04367109375000000000e+05) (21, -1.04367171875000000000e+05) (22, -1.04367234375000000000e+05) (23, -1.04367109375000000000e+05) (24, -1.04367109375000000000e+05) (25, -1.04367234375000000000e+05) (26, -1.04367046875000000000e+05) (27, -1.04367109375000000000e+05) (28, -1.04367046875000000000e+05) (29, -1.04367171875000000000e+05) (30, -1.04367171875000000000e+05) (31, -1.04367109375000000000e+05) (32, -1.04367109375000000000e+05) (33, -1.04367171875000000000e+05) (34, -1.04367234375000000000e+05) (35, -1.04367234375000000000e+05) (36, -1.04367046875000000000e+05) (37, -1.04367171875000000000e+05) (38, -1.04367171875000000000e+05) (39, -1.04367171875000000000e+05) (40, -1.04367171875000000000e+05) (41, -1.04367046875000000000e+05) (42, -1.04367171875000000000e+05) (43, -1.04367046875000000000e+05) (44, -1.04367171875000000000e+05) (45, -1.04367109375000000000e+05) (46, -1.04367234375000000000e+05) (47, -1.04367046875000000000e+05) (48, -1.04367171875000000000e+05) (49, -1.04367234375000000000e+05) (50, 3.32554340362548828125e-01) (0, -1.14349921875000000000e+05) (1, -1.14349921875000000000e+05) (2, -1.14349984375000000000e+05) (3, -1.14349921875000000000e+05) (4, -1.14349984375000000000e+05) (5, 5.66084861755371093750e+01) (6, -1.14349984375000000000e+05) (7, -1.14349859375000000000e+05) (8, -1.14349859375000000000e+05) (9, -1.14349921875000000000e+05) (10, -1.14349796875000000000e+05) (11, -1.14349921875000000000e+05) (12, -1.14349859375000000000e+05) (13, -1.14349921875000000000e+05) (14, -1.14349921875000000000e+05) (15, -1.14349859375000000000e+05) (16, -1.14349921875000000000e+05) (17, -1.14349984375000000000e+05) (18, -1.14349859375000000000e+05) (19, -1.14349984375000000000e+05) (20, -1.14349859375000000000e+05) (21, -1.14349921875000000000e+05) (22, -1.14349984375000000000e+05) (23, -1.14349796875000000000e+05) (24, -1.14349921875000000000e+05) (25, -1.14349921875000000000e+05) (26, -1.14349921875000000000e+05) (27, -1.14349921875000000000e+05) (28, -1.14349859375000000000e+05) (29, -1.14349984375000000000e+05) (30, -1.14349921875000000000e+05) (31, -1.14349984375000000000e+05) (32, -1.14349984375000000000e+05) (33, -1.14349859375000000000e+05) (34, -1.14349796875000000000e+05) (35, -1.14349796875000000000e+05) (36, -1.14349859375000000000e+05) (37, -1.14349859375000000000e+05) (38, -1.14349859375000000000e+05) (39, -1.14349796875000000000e+05) (40, -1.14349921875000000000e+05) (41, -1.14349984375000000000e+05) (42, -1.14349921875000000000e+05) (43, -1.14349984375000000000e+05) (44, -1.14349859375000000000e+05) (45, -1.14349796875000000000e+05) (46, -1.14349859375000000000e+05) (47, -1.14349921875000000000e+05) (48, -1.14349984375000000000e+05) (49, -1.14349859375000000000e+05) (50, -1.92025169730186462402e-01) (0, 9.01961015625000000000e+04) (1, 9.01960703125000000000e+04) (2, 9.01962265625000000000e+04) (3, 9.01961640625000000000e+04) (4, 9.01961640625000000000e+04) (5, 5.66116600036621093750e+01) (6, 9.01961328125000000000e+04) (7, 9.01961015625000000000e+04) (8, 9.01961640625000000000e+04) (9, 9.01961640625000000000e+04) (10, 9.01961640625000000000e+04) (11, 9.01960390625000000000e+04) (12, 9.01961328125000000000e+04) (13, 9.01961015625000000000e+04) (14, 9.01962578125000000000e+04) (15, 9.01961953125000000000e+04) (16, 9.01962265625000000000e+04) (17, 9.01961015625000000000e+04) (18, 9.01961640625000000000e+04) (19, 9.01961953125000000000e+04) (20, 9.01961015625000000000e+04) (21, 9.01961953125000000000e+04) (22, 9.01961953125000000000e+04) (23, 9.01961015625000000000e+04) (24, 9.01960703125000000000e+04) (25, 9.01962265625000000000e+04) (26, 9.01960703125000000000e+04) (27, 9.01961953125000000000e+04) (28, 9.01962265625000000000e+04) (29, 9.01961953125000000000e+04) (30, 9.01961640625000000000e+04) (31, 9.01961015625000000000e+04) (32, 9.01962578125000000000e+04) (33, 9.01960703125000000000e+04) (34, 9.01961328125000000000e+04) (35, 9.01961953125000000000e+04) (36, 9.01961640625000000000e+04) (37, 9.01960703125000000000e+04) (38, 9.01962265625000000000e+04) (39, 9.01960703125000000000e+04) (40, 9.01961015625000000000e+04) (41, 9.01961640625000000000e+04) (42, 9.01961953125000000000e+04) (43, 9.01961953125000000000e+04) (44, 9.01961953125000000000e+04) (45, 9.01961640625000000000e+04) (46, 9.01961328125000000000e+04) (47, 9.01961328125000000000e+04) (48, 9.01962265625000000000e+04) (49, 9.01961640625000000000e+04) (50, 4.42467749118804931641e-01) (0, 5.84986953125000000000e+04) (1, 5.84987890625000000000e+04) (2, 5.84987890625000000000e+04) (3, 5.84986328125000000000e+04) (4, 5.84987265625000000000e+04) (5, 5.66258506774902343750e+01) (6, 5.84987890625000000000e+04) (7, 5.84986015625000000000e+04) (8, 5.84986640625000000000e+04) (9, 5.84986640625000000000e+04) (10, 5.84986328125000000000e+04) (11, 5.84987890625000000000e+04) (12, 5.84986328125000000000e+04) (13, 5.84987890625000000000e+04) (14, 5.84986953125000000000e+04) (15, 5.84987265625000000000e+04) (16, 5.84986328125000000000e+04) (17, 5.84987578125000000000e+04) (18, 5.84986953125000000000e+04) (19, 5.84986328125000000000e+04) (20, 5.84986640625000000000e+04) (21, 5.84986328125000000000e+04) (22, 5.84987890625000000000e+04) (23, 5.84986953125000000000e+04) (24, 5.84986640625000000000e+04) (25, 5.84986328125000000000e+04) (26, 5.84987578125000000000e+04) (27, 5.84986015625000000000e+04) (28, 5.84987890625000000000e+04) (29, 5.84987265625000000000e+04) (30, 5.84987890625000000000e+04) (31, 5.84986953125000000000e+04) (32, 5.84986328125000000000e+04) (33, 5.84986328125000000000e+04) (34, 5.84986015625000000000e+04) (35, 5.84986640625000000000e+04) (36, 5.84986328125000000000e+04) (37, 5.84987578125000000000e+04) (38, 5.84987578125000000000e+04) (39, 5.84986015625000000000e+04) (40, 5.84986015625000000000e+04) (41, 5.84987265625000000000e+04) (42, 5.84986328125000000000e+04) (43, 5.84988203125000000000e+04) (44, 5.84987265625000000000e+04) (45, 5.84986640625000000000e+04) (46, 5.84986328125000000000e+04) (47, 5.84987578125000000000e+04) (48, 5.84986640625000000000e+04) (49, 5.84987890625000000000e+04) (50, 3.89369517564773559570e-01) (0, -3.92885937500000000000e+04) (1, -3.92886562500000000000e+04) (2, -3.92886562500000000000e+04) (3, -3.92886562500000000000e+04) (4, -3.92887812500000000000e+04) (5, 5.66734275817871093750e+01) (6, -3.92887812500000000000e+04) (7, -3.92887812500000000000e+04) (8, -3.92886562500000000000e+04) (9, -3.92886562500000000000e+04) (10, -3.92886562500000000000e+04) (11, -3.92886562500000000000e+04) (12, -3.92887187500000000000e+04) (13, -3.92887812500000000000e+04) (14, -3.92887812500000000000e+04) (15, -3.92885937500000000000e+04) (16, -3.92886562500000000000e+04) (17, -3.92887187500000000000e+04) (18, -3.92887812500000000000e+04) (19, -3.92886562500000000000e+04) (20, -3.92887812500000000000e+04) (21, -3.92887187500000000000e+04) (22, -3.92886562500000000000e+04) (23, -3.92887187500000000000e+04) (24, -3.92885937500000000000e+04) (25, -3.92886562500000000000e+04) (26, -3.92887812500000000000e+04) (27, -3.92887187500000000000e+04) (28, -3.92887812500000000000e+04) (29, -3.92887187500000000000e+04) (30, -3.92885937500000000000e+04) (31, -3.92886562500000000000e+04) (32, -3.92886562500000000000e+04) (33, -3.92887812500000000000e+04) (34, -3.92887812500000000000e+04) (35, -3.92887812500000000000e+04) (36, -3.92886562500000000000e+04) (37, -3.92887187500000000000e+04) (38, -3.92886562500000000000e+04) (39, -3.92887187500000000000e+04) (40, -3.92886562500000000000e+04) (41, -3.92885937500000000000e+04) (42, -3.92886562500000000000e+04) (43, -3.92887187500000000000e+04) (44, -3.92885937500000000000e+04) (45, -3.92886562500000000000e+04) (46, -3.92887187500000000000e+04) (47, -3.92887187500000000000e+04) (48, -3.92887187500000000000e+04) (49, -3.92887187500000000000e+04) (50, 3.20287913084030151367e-01) (0, 8.03710781250000000000e+04) (1, 8.03711093750000000000e+04) (2, 8.03710781250000000000e+04) (3, 8.03709531250000000000e+04) (4, 8.03709843750000000000e+04) (5, 5.65668601989746093750e+01) (6, 8.03710781250000000000e+04) (7, 8.03709531250000000000e+04) (8, 8.03711406250000000000e+04) (9, 8.03710781250000000000e+04) (10, 8.03710156250000000000e+04) (11, 8.03709531250000000000e+04) (12, 8.03711093750000000000e+04) (13, 8.03710781250000000000e+04) (14, 8.03709531250000000000e+04) (15, 8.03711093750000000000e+04) (16, 8.03710156250000000000e+04) (17, 8.03711093750000000000e+04) (18, 8.03709531250000000000e+04) (19, 8.03710156250000000000e+04) (20, 8.03710156250000000000e+04) (21, 8.03710468750000000000e+04) (22, 8.03711406250000000000e+04) (23, 8.03710781250000000000e+04) (24, 8.03710156250000000000e+04) (25, 8.03710156250000000000e+04) (26, 8.03711406250000000000e+04) (27, 8.03709843750000000000e+04) (28, 8.03710781250000000000e+04) (29, 8.03710781250000000000e+04) (30, 8.03710156250000000000e+04) (31, 8.03710156250000000000e+04) (32, 8.03710156250000000000e+04) (33, 8.03710781250000000000e+04) (34, 8.03709531250000000000e+04) (35, 8.03710781250000000000e+04) (36, 8.03709843750000000000e+04) (37, 8.03709843750000000000e+04) (38, 8.03709531250000000000e+04) (39, 8.03710156250000000000e+04) (40, 8.03709531250000000000e+04) (41, 8.03710781250000000000e+04) (42, 8.03709843750000000000e+04) (43, 8.03710156250000000000e+04) (44, 8.03709843750000000000e+04) (45, 8.03709531250000000000e+04) (46, 8.03711406250000000000e+04) (47, 8.03709843750000000000e+04) (48, 8.03710781250000000000e+04) (49, 8.03710781250000000000e+04) (50, -8.25565084815025329590e-02) (0, -2.17350593750000000000e+05) (1, -2.17350593750000000000e+05) (2, -2.17350593750000000000e+05) (3, -2.17350656250000000000e+05) (4, -2.17350718750000000000e+05) (5, 5.67205924987792968750e+01) (6, -2.17350656250000000000e+05) (7, -2.17350781250000000000e+05) (8, -2.17350593750000000000e+05) (9, -2.17350718750000000000e+05) (10, -2.17350593750000000000e+05) (11, -2.17350593750000000000e+05) (12, -2.17350593750000000000e+05) (13, -2.17350593750000000000e+05) (14, -2.17350593750000000000e+05) (15, -2.17350718750000000000e+05) (16, -2.17350718750000000000e+05) (17, -2.17350656250000000000e+05) (18, -2.17350656250000000000e+05) (19, -2.17350781250000000000e+05) (20, -2.17350718750000000000e+05) (21, -2.17350593750000000000e+05) (22, -2.17350718750000000000e+05) (23, -2.17350718750000000000e+05) (24, -2.17350656250000000000e+05) (25, -2.17350593750000000000e+05) (26, -2.17350718750000000000e+05) (27, -2.17350593750000000000e+05) (28, -2.17350656250000000000e+05) (29, -2.17350593750000000000e+05) (30, -2.17350656250000000000e+05) (31, -2.17350718750000000000e+05) (32, -2.17350593750000000000e+05) (33, -2.17350718750000000000e+05) (34, -2.17350593750000000000e+05) (35, -2.17350718750000000000e+05) (36, -2.17350718750000000000e+05) (37, -2.17350718750000000000e+05) (38, -2.17350593750000000000e+05) (39, -2.17350718750000000000e+05) (40, -2.17350656250000000000e+05) (41, -2.17350718750000000000e+05) (42, -2.17350718750000000000e+05) (43, -2.17350593750000000000e+05) (44, -2.17350593750000000000e+05) (45, -2.17350593750000000000e+05) (46, -2.17350718750000000000e+05) (47, -2.17350593750000000000e+05) (48, -2.17350656250000000000e+05) (49, -2.17350593750000000000e+05) (50, -1.24360568821430206299e-01) (0, -5.91340468750000000000e+04) (1, -5.91339843750000000000e+04) (2, -5.91341093750000000000e+04) (3, -5.91341093750000000000e+04) (4, -5.91340468750000000000e+04) (5, 5.67074851989746093750e+01) (6, -5.91340468750000000000e+04) (7, -5.91339843750000000000e+04) (8, -5.91340468750000000000e+04) (9, -5.91339843750000000000e+04) (10, -5.91340468750000000000e+04) (11, -5.91339843750000000000e+04) (12, -5.91340468750000000000e+04) (13, -5.91339843750000000000e+04) (14, -5.91341093750000000000e+04) (15, -5.91339218750000000000e+04) (16, -5.91340468750000000000e+04) (17, -5.91339843750000000000e+04) (18, -5.91340468750000000000e+04) (19, -5.91340468750000000000e+04) (20, -5.91341093750000000000e+04) (21, -5.91341093750000000000e+04) (22, -5.91339843750000000000e+04) (23, -5.91340468750000000000e+04) (24, -5.91340468750000000000e+04) (25, -5.91340468750000000000e+04) (26, -5.91339843750000000000e+04) (27, -5.91339843750000000000e+04) (28, -5.91340468750000000000e+04) (29, -5.91341093750000000000e+04) (30, -5.91340468750000000000e+04) (31, -5.91339218750000000000e+04) (32, -5.91341093750000000000e+04) (33, -5.91339843750000000000e+04) (34, -5.91340468750000000000e+04) (35, -5.91340468750000000000e+04) (36, -5.91341093750000000000e+04) (37, -5.91341093750000000000e+04) (38, -5.91339843750000000000e+04) (39, -5.91340468750000000000e+04) (40, -5.91340468750000000000e+04) (41, -5.91339843750000000000e+04) (42, -5.91340468750000000000e+04) (43, -5.91340468750000000000e+04) (44, -5.91339843750000000000e+04) (45, -5.91339843750000000000e+04) (46, -5.91340468750000000000e+04) (47, -5.91340468750000000000e+04) (48, -5.91339843750000000000e+04) (49, -5.91340468750000000000e+04) (50, 2.94443786144256591797e-01) (0, -6.50198281250000000000e+04) (1, -6.50199531250000000000e+04) (2, -6.50198281250000000000e+04) (3, -6.50197031250000000000e+04) (4, -6.50199531250000000000e+04) (5, 5.67199974060058593750e+01) (6, -6.50199531250000000000e+04) (7, -6.50198281250000000000e+04) (8, -6.50199531250000000000e+04) (9, -6.50198281250000000000e+04) (10, -6.50198281250000000000e+04) (11, -6.50199531250000000000e+04) (12, -6.50198281250000000000e+04) (13, -6.50199531250000000000e+04) (14, -6.50198281250000000000e+04) (15, -6.50199531250000000000e+04) (16, -6.50199531250000000000e+04) (17, -6.50198281250000000000e+04) (18, -6.50198281250000000000e+04) (19, -6.50199531250000000000e+04) (20, -6.50199531250000000000e+04) (21, -6.50198281250000000000e+04) (22, -6.50198281250000000000e+04) (23, -6.50198281250000000000e+04) (24, -6.50198281250000000000e+04) (25, -6.50198281250000000000e+04) (26, -6.50198281250000000000e+04) (27, -6.50199531250000000000e+04) (28, -6.50198281250000000000e+04) (29, -6.50199531250000000000e+04) (30, -6.50198281250000000000e+04) (31, -6.50198281250000000000e+04) (32, -6.50198281250000000000e+04) (33, -6.50198281250000000000e+04) (34, -6.50198281250000000000e+04) (35, -6.50198281250000000000e+04) (36, -6.50198281250000000000e+04) (37, -6.50198281250000000000e+04) (38, -6.50198281250000000000e+04) (39, -6.50198281250000000000e+04) (40, -6.50199531250000000000e+04) (41, -6.50199531250000000000e+04) (42, -6.50199531250000000000e+04) (43, -6.50199531250000000000e+04) (44, -6.50198281250000000000e+04) (45, -6.50198281250000000000e+04) (46, -6.50198281250000000000e+04) (47, -6.50198281250000000000e+04) (48, -6.50198281250000000000e+04) (49, -6.50198281250000000000e+04) (50, 2.61263430118560791016e-01) (0, 6.80992500000000000000e+04) (1, 6.80992187500000000000e+04) (2, 6.80992500000000000000e+04) (3, 6.80991875000000000000e+04) (4, 6.80992187500000000000e+04) (5, 5.67028465270996093750e+01) (6, 6.80993125000000000000e+04) (7, 6.80992500000000000000e+04) (8, 6.80991875000000000000e+04) (9, 6.80992187500000000000e+04) (10, 6.80993437500000000000e+04) (11, 6.80992187500000000000e+04) (12, 6.80992187500000000000e+04) (13, 6.80992187500000000000e+04) (14, 6.80992812500000000000e+04) (15, 6.80992812500000000000e+04) (16, 6.80993437500000000000e+04) (17, 6.80992187500000000000e+04) (18, 6.80993125000000000000e+04) (19, 6.80992500000000000000e+04) (20, 6.80993437500000000000e+04) (21, 6.80992187500000000000e+04) (22, 6.80992187500000000000e+04) (23, 6.80993125000000000000e+04) (24, 6.80992812500000000000e+04) (25, 6.80992187500000000000e+04) (26, 6.80992187500000000000e+04) (27, 6.80993437500000000000e+04) (28, 6.80992500000000000000e+04) (29, 6.80991875000000000000e+04) (30, 6.80993437500000000000e+04) (31, 6.80993125000000000000e+04) (32, 6.80992500000000000000e+04) (33, 6.80991875000000000000e+04) (34, 6.80992812500000000000e+04) (35, 6.80992500000000000000e+04) (36, 6.80991875000000000000e+04) (37, 6.80991875000000000000e+04) (38, 6.80993437500000000000e+04) (39, 6.80992812500000000000e+04) (40, 6.80992187500000000000e+04) (41, 6.80993437500000000000e+04) (42, 6.80993437500000000000e+04) (43, 6.80992812500000000000e+04) (44, 6.80992500000000000000e+04) (45, 6.80991875000000000000e+04) (46, 6.80992812500000000000e+04) (47, 6.80993437500000000000e+04) (48, 6.80993437500000000000e+04) (49, 6.80992187500000000000e+04) (50, 4.61600691080093383789e-01) (0, -1.96165859375000000000e+04) (1, -1.96165234375000000000e+04) (2, -1.96166484375000000000e+04) (3, -1.96166484375000000000e+04) (4, -1.96165859375000000000e+04) (5, 5.66290702819824218750e+01) (6, -1.96166484375000000000e+04) (7, -1.96165234375000000000e+04) (8, -1.96166484375000000000e+04) (9, -1.96166484375000000000e+04) (10, -1.96165234375000000000e+04) (11, -1.96166484375000000000e+04) (12, -1.96165234375000000000e+04) (13, -1.96165859375000000000e+04) (14, -1.96165859375000000000e+04) (15, -1.96165859375000000000e+04) (16, -1.96165234375000000000e+04) (17, -1.96165234375000000000e+04) (18, -1.96165859375000000000e+04) (19, -1.96166484375000000000e+04) (20, -1.96167109375000000000e+04) (21, -1.96165234375000000000e+04) (22, -1.96165859375000000000e+04) (23, -1.96165859375000000000e+04) (24, -1.96166484375000000000e+04) (25, -1.96165234375000000000e+04) (26, -1.96165859375000000000e+04) (27, -1.96167109375000000000e+04) (28, -1.96166484375000000000e+04) (29, -1.96165234375000000000e+04) (30, -1.96165234375000000000e+04) (31, -1.96165859375000000000e+04) (32, -1.96165859375000000000e+04) (33, -1.96165234375000000000e+04) (34, -1.96165234375000000000e+04) (35, -1.96166484375000000000e+04) (36, -1.96165859375000000000e+04) (37, -1.96166484375000000000e+04) (38, -1.96165234375000000000e+04) (39, -1.96165859375000000000e+04) (40, -1.96165234375000000000e+04) (41, -1.96166484375000000000e+04) (42, -1.96165859375000000000e+04) (43, -1.96165234375000000000e+04) (44, -1.96166484375000000000e+04) (45, -1.96165859375000000000e+04) (46, -1.96165234375000000000e+04) (47, -1.96166484375000000000e+04) (48, -1.96166484375000000000e+04) (49, -1.96166484375000000000e+04) (50, 2.54779487848281860352e-01) (0, 9.12340703125000000000e+04) (1, 9.12341328125000000000e+04) (2, 9.12341328125000000000e+04) (3, 9.12341953125000000000e+04) (4, 9.12341953125000000000e+04) (5, 5.66654243469238281250e+01) (6, 9.12340703125000000000e+04) (7, 9.12341328125000000000e+04) (8, 9.12341328125000000000e+04) (9, 9.12340703125000000000e+04) (10, 9.12340078125000000000e+04) (11, 9.12340703125000000000e+04) (12, 9.12340078125000000000e+04) (13, 9.12340078125000000000e+04) (14, 9.12341953125000000000e+04) (15, 9.12340703125000000000e+04) (16, 9.12340703125000000000e+04) (17, 9.12340078125000000000e+04) (18, 9.12341328125000000000e+04) (19, 9.12341328125000000000e+04) (20, 9.12340078125000000000e+04) (21, 9.12341953125000000000e+04) (22, 9.12340703125000000000e+04) (23, 9.12340078125000000000e+04) (24, 9.12340703125000000000e+04) (25, 9.12341328125000000000e+04) (26, 9.12341953125000000000e+04) (27, 9.12341328125000000000e+04) (28, 9.12341328125000000000e+04) (29, 9.12341953125000000000e+04) (30, 9.12341328125000000000e+04) (31, 9.12340703125000000000e+04) (32, 9.12340703125000000000e+04) (33, 9.12341328125000000000e+04) (34, 9.12340703125000000000e+04) (35, 9.12340078125000000000e+04) (36, 9.12341328125000000000e+04) (37, 9.12341328125000000000e+04) (38, 9.12340703125000000000e+04) (39, 9.12341328125000000000e+04) (40, 9.12341328125000000000e+04) (41, 9.12340703125000000000e+04) (42, 9.12341328125000000000e+04) (43, 9.12341328125000000000e+04) (44, 9.12341328125000000000e+04) (45, 9.12340703125000000000e+04) (46, 9.12341328125000000000e+04) (47, 9.12340078125000000000e+04) (48, 9.12340078125000000000e+04) (49, 9.12340703125000000000e+04) (50, 2.76183515787124633789e-01) (0, -1.53728015625000000000e+05) (1, -1.53728078125000000000e+05) (2, -1.53728078125000000000e+05) (3, -1.53728078125000000000e+05) (4, -1.53728015625000000000e+05) (5, 5.65939445495605468750e+01) (6, -1.53728140625000000000e+05) (7, -1.53728078125000000000e+05) (8, -1.53728015625000000000e+05) (9, -1.53728078125000000000e+05) (10, -1.53728078125000000000e+05) (11, -1.53728140625000000000e+05) (12, -1.53728203125000000000e+05) (13, -1.53728015625000000000e+05) (14, -1.53728078125000000000e+05) (15, -1.53728078125000000000e+05) (16, -1.53728078125000000000e+05) (17, -1.53728015625000000000e+05) (18, -1.53728140625000000000e+05) (19, -1.53728078125000000000e+05) (20, -1.53728015625000000000e+05) (21, -1.53728203125000000000e+05) (22, -1.53728015625000000000e+05) (23, -1.53728078125000000000e+05) (24, -1.53728078125000000000e+05) (25, -1.53728140625000000000e+05) (26, -1.53728078125000000000e+05) (27, -1.53728015625000000000e+05) (28, -1.53728078125000000000e+05) (29, -1.53728015625000000000e+05) (30, -1.53728140625000000000e+05) (31, -1.53728140625000000000e+05) (32, -1.53728140625000000000e+05) (33, -1.53728078125000000000e+05) (34, -1.53728015625000000000e+05) (35, -1.53728078125000000000e+05) (36, -1.53728015625000000000e+05) (37, -1.53728140625000000000e+05) (38, -1.53728078125000000000e+05) (39, -1.53728078125000000000e+05) (40, -1.53728203125000000000e+05) (41, -1.53728078125000000000e+05) (42, -1.53728015625000000000e+05) (43, -1.53728078125000000000e+05) (44, -1.53728078125000000000e+05) (45, -1.53728140625000000000e+05) (46, -1.53728078125000000000e+05) (47, -1.53728078125000000000e+05) (48, -1.53728078125000000000e+05) (49, -1.53728015625000000000e+05) (50, -1.41133502125740051270e-01) (0, 3.20936093750000000000e+04) (1, 3.20936093750000000000e+04) (2, 3.20937343750000000000e+04) (3, 3.20937343750000000000e+04) (4, 3.20937343750000000000e+04) (5, 5.66958351135253906250e+01) (6, 3.20937343750000000000e+04) (7, 3.20937343750000000000e+04) (8, 3.20936093750000000000e+04) (9, 3.20937968750000000000e+04) (10, 3.20936093750000000000e+04) (11, 3.20936093750000000000e+04) (12, 3.20936093750000000000e+04) (13, 3.20937343750000000000e+04) (14, 3.20936718750000000000e+04) (15, 3.20936718750000000000e+04) (16, 3.20936718750000000000e+04) (17, 3.20936093750000000000e+04) (18, 3.20936093750000000000e+04) (19, 3.20936093750000000000e+04) (20, 3.20937343750000000000e+04) (21, 3.20936093750000000000e+04) (22, 3.20936093750000000000e+04) (23, 3.20937968750000000000e+04) (24, 3.20936718750000000000e+04) (25, 3.20937343750000000000e+04) (26, 3.20937343750000000000e+04) (27, 3.20937343750000000000e+04) (28, 3.20937343750000000000e+04) (29, 3.20936093750000000000e+04) (30, 3.20937968750000000000e+04) (31, 3.20937343750000000000e+04) (32, 3.20936718750000000000e+04) (33, 3.20936718750000000000e+04) (34, 3.20936093750000000000e+04) (35, 3.20937343750000000000e+04) (36, 3.20937343750000000000e+04) (37, 3.20937343750000000000e+04) (38, 3.20936093750000000000e+04) (39, 3.20936093750000000000e+04) (40, 3.20936093750000000000e+04) (41, 3.20937968750000000000e+04) (42, 3.20936093750000000000e+04) (43, 3.20936718750000000000e+04) (44, 3.20937343750000000000e+04) (45, 3.20937343750000000000e+04) (46, 3.20936093750000000000e+04) (47, 3.20937343750000000000e+04) (48, 3.20936718750000000000e+04) (49, 3.20936718750000000000e+04) (50, 5.90926557779312133789e-02) (0, -9.68579140625000000000e+04) (1, -9.68578515625000000000e+04) (2, -9.68579140625000000000e+04) (3, -9.68578515625000000000e+04) (4, -9.68577890625000000000e+04) (5, 5.67054557800292968750e+01) (6, -9.68578515625000000000e+04) (7, -9.68577890625000000000e+04) (8, -9.68578515625000000000e+04) (9, -9.68577890625000000000e+04) (10, -9.68579140625000000000e+04) (11, -9.68579140625000000000e+04) (12, -9.68578515625000000000e+04) (13, -9.68579140625000000000e+04) (14, -9.68578515625000000000e+04) (15, -9.68577890625000000000e+04) (16, -9.68577890625000000000e+04) (17, -9.68578515625000000000e+04) (18, -9.68578515625000000000e+04) (19, -9.68577890625000000000e+04) (20, -9.68579765625000000000e+04) (21, -9.68578515625000000000e+04) (22, -9.68579140625000000000e+04) (23, -9.68578515625000000000e+04) (24, -9.68578515625000000000e+04) (25, -9.68578515625000000000e+04) (26, -9.68578515625000000000e+04) (27, -9.68577890625000000000e+04) (28, -9.68579140625000000000e+04) (29, -9.68578515625000000000e+04) (30, -9.68579140625000000000e+04) (31, -9.68579765625000000000e+04) (32, -9.68579140625000000000e+04) (33, -9.68578515625000000000e+04) (34, -9.68579765625000000000e+04) (35, -9.68579140625000000000e+04) (36, -9.68578515625000000000e+04) (37, -9.68578515625000000000e+04) (38, -9.68578515625000000000e+04) (39, -9.68579140625000000000e+04) (40, -9.68577890625000000000e+04) (41, -9.68577890625000000000e+04) (42, -9.68577890625000000000e+04) (43, -9.68579765625000000000e+04) (44, -9.68577890625000000000e+04) (45, -9.68577890625000000000e+04) (46, -9.68579765625000000000e+04) (47, -9.68578515625000000000e+04) (48, -9.68579140625000000000e+04) (49, -9.68579140625000000000e+04) (50, 4.06520754098892211914e-01) (0, 1.76970328125000000000e+05) (1, 1.76970265625000000000e+05) (2, 1.76970296875000000000e+05) (3, 1.76970203125000000000e+05) (4, 1.76970265625000000000e+05) (5, 5.65616188049316406250e+01) (6, 1.76970203125000000000e+05) (7, 1.76970265625000000000e+05) (8, 1.76970328125000000000e+05) (9, 1.76970171875000000000e+05) (10, 1.76970328125000000000e+05) (11, 1.76970328125000000000e+05) (12, 1.76970265625000000000e+05) (13, 1.76970203125000000000e+05) (14, 1.76970140625000000000e+05) (15, 1.76970296875000000000e+05) (16, 1.76970359375000000000e+05) (17, 1.76970328125000000000e+05) (18, 1.76970171875000000000e+05) (19, 1.76970296875000000000e+05) (20, 1.76970265625000000000e+05) (21, 1.76970171875000000000e+05) (22, 1.76970171875000000000e+05) (23, 1.76970203125000000000e+05) (24, 1.76970234375000000000e+05) (25, 1.76970203125000000000e+05) (26, 1.76970265625000000000e+05) (27, 1.76970328125000000000e+05) (28, 1.76970328125000000000e+05) (29, 1.76970234375000000000e+05) (30, 1.76970171875000000000e+05) (31, 1.76970203125000000000e+05) (32, 1.76970296875000000000e+05) (33, 1.76970328125000000000e+05) (34, 1.76970203125000000000e+05) (35, 1.76970296875000000000e+05) (36, 1.76970296875000000000e+05) (37, 1.76970203125000000000e+05) (38, 1.76970203125000000000e+05) (39, 1.76970328125000000000e+05) (40, 1.76970171875000000000e+05) (41, 1.76970234375000000000e+05) (42, 1.76970171875000000000e+05) (43, 1.76970234375000000000e+05) (44, 1.76970328125000000000e+05) (45, 1.76970203125000000000e+05) (46, 1.76970328125000000000e+05) (47, 1.76970265625000000000e+05) (48, 1.76970328125000000000e+05) (49, 1.76970203125000000000e+05) (50, 3.21630716323852539063e-01) (0, -4.13292375000000000000e+05) (1, -4.13292375000000000000e+05) (2, -4.13292437500000000000e+05) (3, -4.13292375000000000000e+05) (4, -4.13292375000000000000e+05) (5, 5.66959953308105468750e+01) (6, -4.13292500000000000000e+05) (7, -4.13292375000000000000e+05) (8, -4.13292500000000000000e+05) (9, -4.13292500000000000000e+05) (10, -4.13292437500000000000e+05) (11, -4.13292375000000000000e+05) (12, -4.13292375000000000000e+05) (13, -4.13292500000000000000e+05) (14, -4.13292437500000000000e+05) (15, -4.13292562500000000000e+05) (16, -4.13292375000000000000e+05) (17, -4.13292562500000000000e+05) (18, -4.13292375000000000000e+05) (19, -4.13292437500000000000e+05) (20, -4.13292500000000000000e+05) (21, -4.13292437500000000000e+05) (22, -4.13292500000000000000e+05) (23, -4.13292500000000000000e+05) (24, -4.13292437500000000000e+05) (25, -4.13292375000000000000e+05) (26, -4.13292500000000000000e+05) (27, -4.13292500000000000000e+05) (28, -4.13292375000000000000e+05) (29, -4.13292500000000000000e+05) (30, -4.13292500000000000000e+05) (31, -4.13292437500000000000e+05) (32, -4.13292562500000000000e+05) (33, -4.13292500000000000000e+05) (34, -4.13292500000000000000e+05) (35, -4.13292500000000000000e+05) (36, -4.13292562500000000000e+05) (37, -4.13292562500000000000e+05) (38, -4.13292437500000000000e+05) (39, -4.13292500000000000000e+05) (40, -4.13292562500000000000e+05) (41, -4.13292437500000000000e+05) (42, -4.13292375000000000000e+05) (43, -4.13292375000000000000e+05) (44, -4.13292437500000000000e+05) (45, -4.13292437500000000000e+05) (46, -4.13292437500000000000e+05) (47, -4.13292437500000000000e+05) (48, -4.13292375000000000000e+05) (49, -4.13292375000000000000e+05) (50, 2.76652604341506958008e-01) (0, -1.64067359375000000000e+05) (1, -1.64067296875000000000e+05) (2, -1.64067234375000000000e+05) (3, -1.64067359375000000000e+05) (4, -1.64067296875000000000e+05) (5, 5.67124671936035156250e+01) (6, -1.64067234375000000000e+05) (7, -1.64067359375000000000e+05) (8, -1.64067234375000000000e+05) (9, -1.64067296875000000000e+05) (10, -1.64067234375000000000e+05) (11, -1.64067359375000000000e+05) (12, -1.64067234375000000000e+05) (13, -1.64067234375000000000e+05) (14, -1.64067359375000000000e+05) (15, -1.64067359375000000000e+05) (16, -1.64067296875000000000e+05) (17, -1.64067359375000000000e+05) (18, -1.64067296875000000000e+05) (19, -1.64067234375000000000e+05) (20, -1.64067234375000000000e+05) (21, -1.64067359375000000000e+05) (22, -1.64067359375000000000e+05) (23, -1.64067296875000000000e+05) (24, -1.64067296875000000000e+05) (25, -1.64067234375000000000e+05) (26, -1.64067234375000000000e+05) (27, -1.64067296875000000000e+05) (28, -1.64067359375000000000e+05) (29, -1.64067296875000000000e+05) (30, -1.64067234375000000000e+05) (31, -1.64067296875000000000e+05) (32, -1.64067359375000000000e+05) (33, -1.64067359375000000000e+05) (34, -1.64067234375000000000e+05) (35, -1.64067296875000000000e+05) (36, -1.64067359375000000000e+05) (37, -1.64067296875000000000e+05) (38, -1.64067296875000000000e+05) (39, -1.64067359375000000000e+05) (40, -1.64067296875000000000e+05) (41, -1.64067359375000000000e+05) (42, -1.64067296875000000000e+05) (43, -1.64067296875000000000e+05) (44, -1.64067296875000000000e+05) (45, -1.64067234375000000000e+05) (46, -1.64067359375000000000e+05) (47, -1.64067359375000000000e+05) (48, -1.64067234375000000000e+05) (49, -1.64067234375000000000e+05) (50, 2.81516999006271362305e-01) (0, 2.37875546875000000000e+05) (1, 2.37875484375000000000e+05) (2, 2.37875484375000000000e+05) (3, 2.37875546875000000000e+05) (4, 2.37875609375000000000e+05) (5, 5.66355094909667968750e+01) (6, 2.37875609375000000000e+05) (7, 2.37875609375000000000e+05) (8, 2.37875546875000000000e+05) (9, 2.37875421875000000000e+05) (10, 2.37875609375000000000e+05) (11, 2.37875609375000000000e+05) (12, 2.37875484375000000000e+05) (13, 2.37875484375000000000e+05) (14, 2.37875421875000000000e+05) (15, 2.37875609375000000000e+05) (16, 2.37875546875000000000e+05) (17, 2.37875546875000000000e+05) (18, 2.37875484375000000000e+05) (19, 2.37875609375000000000e+05) (20, 2.37875609375000000000e+05) (21, 2.37875546875000000000e+05) (22, 2.37875484375000000000e+05) (23, 2.37875421875000000000e+05) (24, 2.37875421875000000000e+05) (25, 2.37875484375000000000e+05) (26, 2.37875546875000000000e+05) (27, 2.37875421875000000000e+05) (28, 2.37875484375000000000e+05) (29, 2.37875609375000000000e+05) (30, 2.37875484375000000000e+05) (31, 2.37875484375000000000e+05) (32, 2.37875609375000000000e+05) (33, 2.37875484375000000000e+05) (34, 2.37875421875000000000e+05) (35, 2.37875484375000000000e+05) (36, 2.37875484375000000000e+05) (37, 2.37875484375000000000e+05) (38, 2.37875546875000000000e+05) (39, 2.37875484375000000000e+05) (40, 2.37875484375000000000e+05) (41, 2.37875609375000000000e+05) (42, 2.37875421875000000000e+05) (43, 2.37875484375000000000e+05) (44, 2.37875484375000000000e+05) (45, 2.37875484375000000000e+05) (46, 2.37875609375000000000e+05) (47, 2.37875421875000000000e+05) (48, 2.37875609375000000000e+05) (49, 2.37875484375000000000e+05) (50, 3.67694377899169921875e-01) (0, 1.73220031250000000000e+05) (1, 1.73219968750000000000e+05) (2, 1.73219968750000000000e+05) (3, 1.73219843750000000000e+05) (4, 1.73219968750000000000e+05) (5, 5.66594734191894531250e+01) (6, 1.73219843750000000000e+05) (7, 1.73219968750000000000e+05) (8, 1.73219906250000000000e+05) (9, 1.73219968750000000000e+05) (10, 1.73219906250000000000e+05) (11, 1.73219968750000000000e+05) (12, 1.73220031250000000000e+05) (13, 1.73219843750000000000e+05) (14, 1.73219968750000000000e+05) (15, 1.73220031250000000000e+05) (16, 1.73219906250000000000e+05) (17, 1.73219968750000000000e+05) (18, 1.73219968750000000000e+05) (19, 1.73220031250000000000e+05) (20, 1.73219968750000000000e+05) (21, 1.73219843750000000000e+05) (22, 1.73219843750000000000e+05) (23, 1.73219906250000000000e+05) (24, 1.73219968750000000000e+05) (25, 1.73219843750000000000e+05) (26, 1.73219906250000000000e+05) (27, 1.73219968750000000000e+05) (28, 1.73219968750000000000e+05) (29, 1.73220031250000000000e+05) (30, 1.73219968750000000000e+05) (31, 1.73219843750000000000e+05) (32, 1.73219968750000000000e+05) (33, 1.73219968750000000000e+05) (34, 1.73220031250000000000e+05) (35, 1.73219968750000000000e+05) (36, 1.73219906250000000000e+05) (37, 1.73219843750000000000e+05) (38, 1.73220031250000000000e+05) (39, 1.73219906250000000000e+05) (40, 1.73219906250000000000e+05) (41, 1.73219843750000000000e+05) (42, 1.73219906250000000000e+05) (43, 1.73219968750000000000e+05) (44, 1.73219843750000000000e+05) (45, 1.73219906250000000000e+05) (46, 1.73219906250000000000e+05) (47, 1.73220031250000000000e+05) (48, 1.73219968750000000000e+05) (49, 1.73219906250000000000e+05) (50, 4.10975605249404907227e-01) (0, -1.32346203125000000000e+05) (1, -1.32346390625000000000e+05) (2, -1.32346390625000000000e+05) (3, -1.32346390625000000000e+05) (4, -1.32346328125000000000e+05) (5, 5.65948143005371093750e+01) (6, -1.32346265625000000000e+05) (7, -1.32346328125000000000e+05) (8, -1.32346390625000000000e+05) (9, -1.32346265625000000000e+05) (10, -1.32346203125000000000e+05) (11, -1.32346390625000000000e+05) (12, -1.32346265625000000000e+05) (13, -1.32346328125000000000e+05) (14, -1.32346390625000000000e+05) (15, -1.32346328125000000000e+05) (16, -1.32346328125000000000e+05) (17, -1.32346328125000000000e+05) (18, -1.32346203125000000000e+05) (19, -1.32346265625000000000e+05) (20, -1.32346390625000000000e+05) (21, -1.32346328125000000000e+05) (22, -1.32346328125000000000e+05) (23, -1.32346328125000000000e+05) (24, -1.32346328125000000000e+05) (25, -1.32346328125000000000e+05) (26, -1.32346328125000000000e+05) (27, -1.32346328125000000000e+05) (28, -1.32346328125000000000e+05) (29, -1.32346203125000000000e+05) (30, -1.32346328125000000000e+05) (31, -1.32346265625000000000e+05) (32, -1.32346328125000000000e+05) (33, -1.32346203125000000000e+05) (34, -1.32346328125000000000e+05) (35, -1.32346390625000000000e+05) (36, -1.32346265625000000000e+05) (37, -1.32346265625000000000e+05) (38, -1.32346328125000000000e+05) (39, -1.32346390625000000000e+05) (40, -1.32346328125000000000e+05) (41, -1.32346265625000000000e+05) (42, -1.32346328125000000000e+05) (43, -1.32346265625000000000e+05) (44, -1.32346203125000000000e+05) (45, -1.32346328125000000000e+05) (46, -1.32346328125000000000e+05) (47, -1.32346328125000000000e+05) (48, -1.32346265625000000000e+05) (49, -1.32346328125000000000e+05) (50, -1.70721113681793212891e-01) (0, 1.53356187500000000000e+05) (1, 1.53356125000000000000e+05) (2, 1.53356093750000000000e+05) (3, 1.53356125000000000000e+05) (4, 1.53356093750000000000e+05) (5, 5.66574440002441406250e+01) (6, 1.53356093750000000000e+05) (7, 1.53356156250000000000e+05) (8, 1.53356281250000000000e+05) (9, 1.53356093750000000000e+05) (10, 1.53356218750000000000e+05) (11, 1.53356156250000000000e+05) (12, 1.53356093750000000000e+05) (13, 1.53356218750000000000e+05) (14, 1.53356125000000000000e+05) (15, 1.53356093750000000000e+05) (16, 1.53356125000000000000e+05) (17, 1.53356156250000000000e+05) (18, 1.53356281250000000000e+05) (19, 1.53356156250000000000e+05) (20, 1.53356093750000000000e+05) (21, 1.53356218750000000000e+05) (22, 1.53356156250000000000e+05) (23, 1.53356156250000000000e+05) (24, 1.53356250000000000000e+05) (25, 1.53356125000000000000e+05) (26, 1.53356156250000000000e+05) (27, 1.53356218750000000000e+05) (28, 1.53356187500000000000e+05) (29, 1.53356281250000000000e+05) (30, 1.53356281250000000000e+05) (31, 1.53356187500000000000e+05) (32, 1.53356187500000000000e+05) (33, 1.53356156250000000000e+05) (34, 1.53356187500000000000e+05) (35, 1.53356156250000000000e+05) (36, 1.53356218750000000000e+05) (37, 1.53356218750000000000e+05) (38, 1.53356281250000000000e+05) (39, 1.53356156250000000000e+05) (40, 1.53356187500000000000e+05) (41, 1.53356250000000000000e+05) (42, 1.53356250000000000000e+05) (43, 1.53356093750000000000e+05) (44, 1.53356218750000000000e+05) (45, 1.53356218750000000000e+05) (46, 1.53356125000000000000e+05) (47, 1.53356156250000000000e+05) (48, 1.53356218750000000000e+05) (49, 1.53356093750000000000e+05) (50, 4.08768087625503540039e-01) (0, -1.57041312500000000000e+05) (1, -1.57041500000000000000e+05) (2, -1.57041312500000000000e+05) (3, -1.57041500000000000000e+05) (4, -1.57041312500000000000e+05) (5, 5.66134300231933593750e+01) (6, -1.57041437500000000000e+05) (7, -1.57041437500000000000e+05) (8, -1.57041437500000000000e+05) (9, -1.57041375000000000000e+05) (10, -1.57041375000000000000e+05) (11, -1.57041437500000000000e+05) (12, -1.57041437500000000000e+05) (13, -1.57041375000000000000e+05) (14, -1.57041312500000000000e+05) (15, -1.57041312500000000000e+05) (16, -1.57041375000000000000e+05) (17, -1.57041375000000000000e+05) (18, -1.57041312500000000000e+05) (19, -1.57041375000000000000e+05) (20, -1.57041437500000000000e+05) (21, -1.57041437500000000000e+05) (22, -1.57041375000000000000e+05) (23, -1.57041312500000000000e+05) (24, -1.57041500000000000000e+05) (25, -1.57041500000000000000e+05) (26, -1.57041312500000000000e+05) (27, -1.57041500000000000000e+05) (28, -1.57041375000000000000e+05) (29, -1.57041312500000000000e+05) (30, -1.57041437500000000000e+05) (31, -1.57041312500000000000e+05) (32, -1.57041375000000000000e+05) (33, -1.57041375000000000000e+05) (34, -1.57041437500000000000e+05) (35, -1.57041375000000000000e+05) (36, -1.57041437500000000000e+05) (37, -1.57041375000000000000e+05) (38, -1.57041375000000000000e+05) (39, -1.57041437500000000000e+05) (40, -1.57041375000000000000e+05) (41, -1.57041500000000000000e+05) (42, -1.57041312500000000000e+05) (43, -1.57041437500000000000e+05) (44, -1.57041312500000000000e+05) (45, -1.57041500000000000000e+05) (46, -1.57041437500000000000e+05) (47, -1.57041312500000000000e+05) (48, -1.57041375000000000000e+05) (49, -1.57041312500000000000e+05) (50, 2.74742126464843750000e-01) (0, 2.18505765625000000000e+05) (1, 2.18505703125000000000e+05) (2, 2.18505859375000000000e+05) (3, 2.18505828125000000000e+05) (4, 2.18505796875000000000e+05) (5, 5.67374382019042968750e+01) (6, 2.18505703125000000000e+05) (7, 2.18505765625000000000e+05) (8, 2.18505765625000000000e+05) (9, 2.18505765625000000000e+05) (10, 2.18505859375000000000e+05) (11, 2.18505703125000000000e+05) (12, 2.18505828125000000000e+05) (13, 2.18505765625000000000e+05) (14, 2.18505671875000000000e+05) (15, 2.18505703125000000000e+05) (16, 2.18505671875000000000e+05) (17, 2.18505828125000000000e+05) (18, 2.18505703125000000000e+05) (19, 2.18505859375000000000e+05) (20, 2.18505671875000000000e+05) (21, 2.18505765625000000000e+05) (22, 2.18505765625000000000e+05) (23, 2.18505796875000000000e+05) (24, 2.18505828125000000000e+05) (25, 2.18505765625000000000e+05) (26, 2.18505828125000000000e+05) (27, 2.18505828125000000000e+05) (28, 2.18505828125000000000e+05) (29, 2.18505703125000000000e+05) (30, 2.18505671875000000000e+05) (31, 2.18505859375000000000e+05) (32, 2.18505828125000000000e+05) (33, 2.18505703125000000000e+05) (34, 2.18505765625000000000e+05) (35, 2.18505828125000000000e+05) (36, 2.18505671875000000000e+05) (37, 2.18505703125000000000e+05) (38, 2.18505765625000000000e+05) (39, 2.18505828125000000000e+05) (40, 2.18505703125000000000e+05) (41, 2.18505671875000000000e+05) (42, 2.18505703125000000000e+05) (43, 2.18505703125000000000e+05) (44, 2.18505828125000000000e+05) (45, 2.18505703125000000000e+05) (46, 2.18505765625000000000e+05) (47, 2.18505671875000000000e+05) (48, 2.18505859375000000000e+05) (49, 2.18505765625000000000e+05) (50, -7.87013862282037734985e-03) (0, 2.04275281250000000000e+05) (1, 2.04275343750000000000e+05) (2, 2.04275281250000000000e+05) (3, 2.04275343750000000000e+05) (4, 2.04275218750000000000e+05) (5, 5.65627555847167968750e+01) (6, 2.04275406250000000000e+05) (7, 2.04275281250000000000e+05) (8, 2.04275218750000000000e+05) (9, 2.04275281250000000000e+05) (10, 2.04275281250000000000e+05) (11, 2.04275406250000000000e+05) (12, 2.04275218750000000000e+05) (13, 2.04275218750000000000e+05) (14, 2.04275406250000000000e+05) (15, 2.04275343750000000000e+05) (16, 2.04275218750000000000e+05) (17, 2.04275281250000000000e+05) (18, 2.04275281250000000000e+05) (19, 2.04275343750000000000e+05) (20, 2.04275281250000000000e+05) (21, 2.04275281250000000000e+05) (22, 2.04275406250000000000e+05) (23, 2.04275281250000000000e+05) (24, 2.04275343750000000000e+05) (25, 2.04275281250000000000e+05) (26, 2.04275406250000000000e+05) (27, 2.04275343750000000000e+05) (28, 2.04275281250000000000e+05) (29, 2.04275406250000000000e+05) (30, 2.04275281250000000000e+05) (31, 2.04275281250000000000e+05) (32, 2.04275281250000000000e+05) (33, 2.04275281250000000000e+05) (34, 2.04275343750000000000e+05) (35, 2.04275406250000000000e+05) (36, 2.04275218750000000000e+05) (37, 2.04275343750000000000e+05) (38, 2.04275406250000000000e+05) (39, 2.04275343750000000000e+05) (40, 2.04275343750000000000e+05) (41, 2.04275343750000000000e+05) (42, 2.04275218750000000000e+05) (43, 2.04275218750000000000e+05) (44, 2.04275281250000000000e+05) (45, 2.04275343750000000000e+05) (46, 2.04275343750000000000e+05) (47, 2.04275281250000000000e+05) (48, 2.04275343750000000000e+05) (49, 2.04275218750000000000e+05) (50, 3.82469952106475830078e-01) (0, 1.06498796875000000000e+05) (1, 1.06498734375000000000e+05) (2, 1.06498796875000000000e+05) (3, 1.06498796875000000000e+05) (4, 1.06498796875000000000e+05) (5, 5.65669822692871093750e+01) (6, 1.06498921875000000000e+05) (7, 1.06498859375000000000e+05) (8, 1.06498859375000000000e+05) (9, 1.06498796875000000000e+05) (10, 1.06498921875000000000e+05) (11, 1.06498921875000000000e+05) (12, 1.06498859375000000000e+05) (13, 1.06498859375000000000e+05) (14, 1.06498796875000000000e+05) (15, 1.06498796875000000000e+05) (16, 1.06498734375000000000e+05) (17, 1.06498796875000000000e+05) (18, 1.06498796875000000000e+05) (19, 1.06498796875000000000e+05) (20, 1.06498734375000000000e+05) (21, 1.06498734375000000000e+05) (22, 1.06498796875000000000e+05) (23, 1.06498859375000000000e+05) (24, 1.06498921875000000000e+05) (25, 1.06498859375000000000e+05) (26, 1.06498796875000000000e+05) (27, 1.06498796875000000000e+05) (28, 1.06498796875000000000e+05) (29, 1.06498921875000000000e+05) (30, 1.06498734375000000000e+05) (31, 1.06498921875000000000e+05) (32, 1.06498859375000000000e+05) (33, 1.06498921875000000000e+05) (34, 1.06498859375000000000e+05) (35, 1.06498859375000000000e+05) (36, 1.06498859375000000000e+05) (37, 1.06498734375000000000e+05) (38, 1.06498796875000000000e+05) (39, 1.06498921875000000000e+05) (40, 1.06498859375000000000e+05) (41, 1.06498921875000000000e+05) (42, 1.06498921875000000000e+05) (43, 1.06498859375000000000e+05) (44, 1.06498859375000000000e+05) (45, 1.06498921875000000000e+05) (46, 1.06498921875000000000e+05) (47, 1.06498859375000000000e+05) (48, 1.06498859375000000000e+05) (49, 1.06498734375000000000e+05) (50, -6.16782391443848609924e-03) (0, -6.11887500000000000000e+04) (1, -6.11886875000000000000e+04) (2, -6.11886250000000000000e+04) (3, -6.11887500000000000000e+04) (4, -6.11886875000000000000e+04) (5, 5.66582145690917968750e+01) (6, -6.11886875000000000000e+04) (7, -6.11887500000000000000e+04) (8, -6.11886250000000000000e+04) (9, -6.11886875000000000000e+04) (10, -6.11886875000000000000e+04) (11, -6.11886875000000000000e+04) (12, -6.11886250000000000000e+04) (13, -6.11886875000000000000e+04) (14, -6.11888125000000000000e+04) (15, -6.11887500000000000000e+04) (16, -6.11886250000000000000e+04) (17, -6.11888125000000000000e+04) (18, -6.11887500000000000000e+04) (19, -6.11886875000000000000e+04) (20, -6.11887500000000000000e+04) (21, -6.11886875000000000000e+04) (22, -6.11888125000000000000e+04) (23, -6.11886250000000000000e+04) (24, -6.11887500000000000000e+04) (25, -6.11887500000000000000e+04) (26, -6.11886250000000000000e+04) (27, -6.11888125000000000000e+04) (28, -6.11886250000000000000e+04) (29, -6.11886875000000000000e+04) (30, -6.11887500000000000000e+04) (31, -6.11886250000000000000e+04) (32, -6.11886250000000000000e+04) (33, -6.11886250000000000000e+04) (34, -6.11888125000000000000e+04) (35, -6.11888125000000000000e+04) (36, -6.11886875000000000000e+04) (37, -6.11887500000000000000e+04) (38, -6.11887500000000000000e+04) (39, -6.11886250000000000000e+04) (40, -6.11888125000000000000e+04) (41, -6.11888125000000000000e+04) (42, -6.11887500000000000000e+04) (43, -6.11888125000000000000e+04) (44, -6.11886875000000000000e+04) (45, -6.11886250000000000000e+04) (46, -6.11886250000000000000e+04) (47, -6.11886875000000000000e+04) (48, -6.11888125000000000000e+04) (49, -6.11886875000000000000e+04) (50, 3.72516483068466186523e-01) (0, 2.57198593750000000000e+04) (1, 2.57197968750000000000e+04) (2, 2.57198593750000000000e+04) (3, 2.57199218750000000000e+04) (4, 2.57198593750000000000e+04) (5, 5.66919822692871093750e+01) (6, 2.57198593750000000000e+04) (7, 2.57198593750000000000e+04) (8, 2.57199843750000000000e+04) (9, 2.57199843750000000000e+04) (10, 2.57197968750000000000e+04) (11, 2.57199218750000000000e+04) (12, 2.57197968750000000000e+04) (13, 2.57199218750000000000e+04) (14, 2.57198593750000000000e+04) (15, 2.57198593750000000000e+04) (16, 2.57199218750000000000e+04) (17, 2.57197968750000000000e+04) (18, 2.57198593750000000000e+04) (19, 2.57198593750000000000e+04) (20, 2.57199218750000000000e+04) (21, 2.57197968750000000000e+04) (22, 2.57199218750000000000e+04) (23, 2.57199843750000000000e+04) (24, 2.57197968750000000000e+04) (25, 2.57199218750000000000e+04) (26, 2.57197968750000000000e+04) (27, 2.57199218750000000000e+04) (28, 2.57197968750000000000e+04) (29, 2.57199218750000000000e+04) (30, 2.57197968750000000000e+04) (31, 2.57198593750000000000e+04) (32, 2.57199843750000000000e+04) (33, 2.57199218750000000000e+04) (34, 2.57198593750000000000e+04) (35, 2.57199218750000000000e+04) (36, 2.57199218750000000000e+04) (37, 2.57197968750000000000e+04) (38, 2.57197968750000000000e+04) (39, 2.57197968750000000000e+04) (40, 2.57198593750000000000e+04) (41, 2.57197968750000000000e+04) (42, 2.57199218750000000000e+04) (43, 2.57197968750000000000e+04) (44, 2.57199843750000000000e+04) (45, 2.57197968750000000000e+04) (46, 2.57199218750000000000e+04) (47, 2.57198593750000000000e+04) (48, 2.57197968750000000000e+04) (49, 2.57198593750000000000e+04) (50, -1.15434313192963600159e-02) (0, 1.62652937500000000000e+05) (1, 1.62652968750000000000e+05) (2, 1.62653000000000000000e+05) (3, 1.62653000000000000000e+05) (4, 1.62653093750000000000e+05) (5, 5.66713294982910156250e+01) (6, 1.62653062500000000000e+05) (7, 1.62652968750000000000e+05) (8, 1.62653062500000000000e+05) (9, 1.62653062500000000000e+05) (10, 1.62653031250000000000e+05) (11, 1.62653000000000000000e+05) (12, 1.62653031250000000000e+05) (13, 1.62653000000000000000e+05) (14, 1.62653031250000000000e+05) (15, 1.62653000000000000000e+05) (16, 1.62652968750000000000e+05) (17, 1.62653031250000000000e+05) (18, 1.62652937500000000000e+05) (19, 1.62652906250000000000e+05) (20, 1.62652968750000000000e+05) (21, 1.62653093750000000000e+05) (22, 1.62653062500000000000e+05) (23, 1.62653031250000000000e+05) (24, 1.62653000000000000000e+05) (25, 1.62652937500000000000e+05) (26, 1.62653093750000000000e+05) (27, 1.62652937500000000000e+05) (28, 1.62653093750000000000e+05) (29, 1.62653031250000000000e+05) (30, 1.62653000000000000000e+05) (31, 1.62652937500000000000e+05) (32, 1.62652968750000000000e+05) (33, 1.62652937500000000000e+05) (34, 1.62653000000000000000e+05) (35, 1.62652937500000000000e+05) (36, 1.62653031250000000000e+05) (37, 1.62652906250000000000e+05) (38, 1.62653062500000000000e+05) (39, 1.62653031250000000000e+05) (40, 1.62653062500000000000e+05) (41, 1.62652937500000000000e+05) (42, 1.62653062500000000000e+05) (43, 1.62652968750000000000e+05) (44, 1.62653062500000000000e+05) (45, 1.62653062500000000000e+05) (46, 1.62652968750000000000e+05) (47, 1.62652968750000000000e+05) (48, 1.62652968750000000000e+05) (49, 1.62653000000000000000e+05) (50, 3.11601668596267700195e-01) (0, 7.41845312500000000000e+04) (1, 7.41843437500000000000e+04) (2, 7.41844062500000000000e+04) (3, 7.41844687500000000000e+04) (4, 7.41845312500000000000e+04) (5, 5.65635948181152343750e+01) (6, 7.41845312500000000000e+04) (7, 7.41845312500000000000e+04) (8, 7.41844687500000000000e+04) (9, 7.41844062500000000000e+04) (10, 7.41844062500000000000e+04) (11, 7.41844062500000000000e+04) (12, 7.41845000000000000000e+04) (13, 7.41844375000000000000e+04) (14, 7.41844062500000000000e+04) (15, 7.41843750000000000000e+04) (16, 7.41844375000000000000e+04) (17, 7.41845000000000000000e+04) (18, 7.41845000000000000000e+04) (19, 7.41843750000000000000e+04) (20, 7.41843750000000000000e+04) (21, 7.41843750000000000000e+04) (22, 7.41843437500000000000e+04) (23, 7.41844687500000000000e+04) (24, 7.41845312500000000000e+04) (25, 7.41843750000000000000e+04) (26, 7.41845312500000000000e+04) (27, 7.41845312500000000000e+04) (28, 7.41844687500000000000e+04) (29, 7.41845312500000000000e+04) (30, 7.41845000000000000000e+04) (31, 7.41844687500000000000e+04) (32, 7.41843750000000000000e+04) (33, 7.41843750000000000000e+04) (34, 7.41845000000000000000e+04) (35, 7.41843750000000000000e+04) (36, 7.41844375000000000000e+04) (37, 7.41844375000000000000e+04) (38, 7.41845312500000000000e+04) (39, 7.41844062500000000000e+04) (40, 7.41845000000000000000e+04) (41, 7.41844687500000000000e+04) (42, 7.41845312500000000000e+04) (43, 7.41844375000000000000e+04) (44, 7.41845000000000000000e+04) (45, 7.41844375000000000000e+04) (46, 7.41844062500000000000e+04) (47, 7.41845000000000000000e+04) (48, 7.41845000000000000000e+04) (49, 7.41845000000000000000e+04) (50, 3.96858900785446166992e-01) (0, 7.84495156250000000000e+04) (1, 7.84495468750000000000e+04) (2, 7.84494531250000000000e+04) (3, 7.84495156250000000000e+04) (4, 7.84494218750000000000e+04) (5, 5.65492057800292968750e+01) (6, 7.84493593750000000000e+04) (7, 7.84493906250000000000e+04) (8, 7.84495468750000000000e+04) (9, 7.84493906250000000000e+04) (10, 7.84495156250000000000e+04) (11, 7.84495468750000000000e+04) (12, 7.84493906250000000000e+04) (13, 7.84494531250000000000e+04) (14, 7.84495468750000000000e+04) (15, 7.84495468750000000000e+04) (16, 7.84494531250000000000e+04) (17, 7.84493906250000000000e+04) (18, 7.84494218750000000000e+04) (19, 7.84494531250000000000e+04) (20, 7.84495781250000000000e+04) (21, 7.84495468750000000000e+04) (22, 7.84494843750000000000e+04) (23, 7.84494218750000000000e+04) (24, 7.84494531250000000000e+04) (25, 7.84495468750000000000e+04) (26, 7.84494843750000000000e+04) (27, 7.84494531250000000000e+04) (28, 7.84495156250000000000e+04) (29, 7.84495156250000000000e+04) (30, 7.84495781250000000000e+04) (31, 7.84495468750000000000e+04) (32, 7.84494531250000000000e+04) (33, 7.84494218750000000000e+04) (34, 7.84494843750000000000e+04) (35, 7.84494843750000000000e+04) (36, 7.84494218750000000000e+04) (37, 7.84495468750000000000e+04) (38, 7.84495156250000000000e+04) (39, 7.84495156250000000000e+04) (40, 7.84495468750000000000e+04) (41, 7.84493906250000000000e+04) (42, 7.84495468750000000000e+04) (43, 7.84494218750000000000e+04) (44, 7.84494843750000000000e+04) (45, 7.84494218750000000000e+04) (46, 7.84494843750000000000e+04) (47, 7.84493906250000000000e+04) (48, 7.84494218750000000000e+04) (49, 7.84494843750000000000e+04) (50, 4.17717665433883666992e-01) (0, -2.27829093750000000000e+05) (1, -2.27828968750000000000e+05) (2, -2.27828968750000000000e+05) (3, -2.27829093750000000000e+05) (4, -2.27829093750000000000e+05) (5, 5.66987876892089843750e+01) (6, -2.27829093750000000000e+05) (7, -2.27828968750000000000e+05) (8, -2.27828968750000000000e+05) (9, -2.27828968750000000000e+05) (10, -2.27829093750000000000e+05) (11, -2.27828968750000000000e+05) (12, -2.27828968750000000000e+05) (13, -2.27829093750000000000e+05) (14, -2.27829093750000000000e+05) (15, -2.27829093750000000000e+05) (16, -2.27829093750000000000e+05) (17, -2.27829093750000000000e+05) (18, -2.27829093750000000000e+05) (19, -2.27829093750000000000e+05) (20, -2.27828968750000000000e+05) (21, -2.27828968750000000000e+05) (22, -2.27828968750000000000e+05) (23, -2.27828968750000000000e+05) (24, -2.27828968750000000000e+05) (25, -2.27829093750000000000e+05) (26, -2.27829093750000000000e+05) (27, -2.27828968750000000000e+05) (28, -2.27828968750000000000e+05) (29, -2.27829093750000000000e+05) (30, -2.27829093750000000000e+05) (31, -2.27828968750000000000e+05) (32, -2.27828968750000000000e+05) (33, -2.27829093750000000000e+05) (34, -2.27828968750000000000e+05) (35, -2.27829093750000000000e+05) (36, -2.27829093750000000000e+05) (37, -2.27828968750000000000e+05) (38, -2.27828968750000000000e+05) (39, -2.27828968750000000000e+05) (40, -2.27828968750000000000e+05) (41, -2.27828968750000000000e+05) (42, -2.27829093750000000000e+05) (43, -2.27829093750000000000e+05) (44, -2.27828968750000000000e+05) (45, -2.27828968750000000000e+05) (46, -2.27829093750000000000e+05) (47, -2.27828968750000000000e+05) (48, -2.27828968750000000000e+05) (49, -2.27829093750000000000e+05) (50, -1.37318402528762817383e-01) (0, -1.72686828125000000000e+05) (1, -1.72686828125000000000e+05) (2, -1.72686828125000000000e+05) (3, -1.72686828125000000000e+05) (4, -1.72686703125000000000e+05) (5, 5.65901985168457031250e+01) (6, -1.72686953125000000000e+05) (7, -1.72686828125000000000e+05) (8, -1.72686953125000000000e+05) (9, -1.72686953125000000000e+05) (10, -1.72686953125000000000e+05) (11, -1.72686828125000000000e+05) (12, -1.72686703125000000000e+05) (13, -1.72686828125000000000e+05) (14, -1.72686703125000000000e+05) (15, -1.72686828125000000000e+05) (16, -1.72686828125000000000e+05) (17, -1.72686828125000000000e+05) (18, -1.72686828125000000000e+05) (19, -1.72686828125000000000e+05) (20, -1.72686828125000000000e+05) (21, -1.72686953125000000000e+05) (22, -1.72686828125000000000e+05) (23, -1.72686828125000000000e+05) (24, -1.72686828125000000000e+05) (25, -1.72686828125000000000e+05) (26, -1.72686828125000000000e+05) (27, -1.72686953125000000000e+05) (28, -1.72686703125000000000e+05) (29, -1.72686828125000000000e+05) (30, -1.72686703125000000000e+05) (31, -1.72686828125000000000e+05) (32, -1.72686703125000000000e+05) (33, -1.72686828125000000000e+05) (34, -1.72686828125000000000e+05) (35, -1.72686703125000000000e+05) (36, -1.72686703125000000000e+05) (37, -1.72686828125000000000e+05) (38, -1.72686828125000000000e+05) (39, -1.72686828125000000000e+05) (40, -1.72686703125000000000e+05) (41, -1.72686828125000000000e+05) (42, -1.72686953125000000000e+05) (43, -1.72686953125000000000e+05) (44, -1.72686703125000000000e+05) (45, -1.72686953125000000000e+05) (46, -1.72686953125000000000e+05) (47, -1.72686828125000000000e+05) (48, -1.72686828125000000000e+05) (49, -1.72686828125000000000e+05) (50, -1.15145161747932434082e-01) (0, 2.89918750000000000000e+03) (1, 2.89912500000000000000e+03) (2, 2.89906250000000000000e+03) (3, 2.89912500000000000000e+03) (4, 2.89906250000000000000e+03) (5, 5.66908836364746093750e+01) (6, 2.89900000000000000000e+03) (7, 2.89906250000000000000e+03) (8, 2.89912500000000000000e+03) (9, 2.89900000000000000000e+03) (10, 2.89918750000000000000e+03) (11, 2.89912500000000000000e+03) (12, 2.89906250000000000000e+03) (13, 2.89912500000000000000e+03) (14, 2.89912500000000000000e+03) (15, 2.89918750000000000000e+03) (16, 2.89906250000000000000e+03) (17, 2.89900000000000000000e+03) (18, 2.89906250000000000000e+03) (19, 2.89912500000000000000e+03) (20, 2.89900000000000000000e+03) (21, 2.89906250000000000000e+03) (22, 2.89906250000000000000e+03) (23, 2.89918750000000000000e+03) (24, 2.89912500000000000000e+03) (25, 2.89918750000000000000e+03) (26, 2.89912500000000000000e+03) (27, 2.89900000000000000000e+03) (28, 2.89912500000000000000e+03) (29, 2.89912500000000000000e+03) (30, 2.89918750000000000000e+03) (31, 2.89918750000000000000e+03) (32, 2.89912500000000000000e+03) (33, 2.89906250000000000000e+03) (34, 2.89912500000000000000e+03) (35, 2.89918750000000000000e+03) (36, 2.89906250000000000000e+03) (37, 2.89912500000000000000e+03) (38, 2.89918750000000000000e+03) (39, 2.89912500000000000000e+03) (40, 2.89912500000000000000e+03) (41, 2.89906250000000000000e+03) (42, 2.89912500000000000000e+03) (43, 2.89912500000000000000e+03) (44, 2.89900000000000000000e+03) (45, 2.89912500000000000000e+03) (46, 2.89906250000000000000e+03) (47, 2.89912500000000000000e+03) (48, 2.89900000000000000000e+03) (49, 2.89912500000000000000e+03) (50, 2.92895793914794921875e-01) (0, -1.88167187500000000000e+05) (1, -1.88167062500000000000e+05) (2, -1.88167062500000000000e+05) (3, -1.88167250000000000000e+05) (4, -1.88167125000000000000e+05) (5, 5.65744743347167968750e+01) (6, -1.88167125000000000000e+05) (7, -1.88167125000000000000e+05) (8, -1.88167125000000000000e+05) (9, -1.88167187500000000000e+05) (10, -1.88167250000000000000e+05) (11, -1.88167062500000000000e+05) (12, -1.88167062500000000000e+05) (13, -1.88167062500000000000e+05) (14, -1.88167125000000000000e+05) (15, -1.88167062500000000000e+05) (16, -1.88167062500000000000e+05) (17, -1.88167187500000000000e+05) (18, -1.88167187500000000000e+05) (19, -1.88167125000000000000e+05) (20, -1.88167062500000000000e+05) (21, -1.88167062500000000000e+05) (22, -1.88167187500000000000e+05) (23, -1.88167250000000000000e+05) (24, -1.88167187500000000000e+05) (25, -1.88167187500000000000e+05) (26, -1.88167187500000000000e+05) (27, -1.88167125000000000000e+05) (28, -1.88167187500000000000e+05) (29, -1.88167187500000000000e+05) (30, -1.88167250000000000000e+05) (31, -1.88167187500000000000e+05) (32, -1.88167062500000000000e+05) (33, -1.88167125000000000000e+05) (34, -1.88167062500000000000e+05) (35, -1.88167125000000000000e+05) (36, -1.88167125000000000000e+05) (37, -1.88167062500000000000e+05) (38, -1.88167062500000000000e+05) (39, -1.88167062500000000000e+05) (40, -1.88167187500000000000e+05) (41, -1.88167125000000000000e+05) (42, -1.88167187500000000000e+05) (43, -1.88167125000000000000e+05) (44, -1.88167125000000000000e+05) (45, -1.88167187500000000000e+05) (46, -1.88167062500000000000e+05) (47, -1.88167125000000000000e+05) (48, -1.88167062500000000000e+05) (49, -1.88167187500000000000e+05) (50, 2.45247259736061096191e-01) (0, 3.27698710937500000000e+04) (1, 3.27699335937500000000e+04) (2, 3.27699648437500000000e+04) (3, 3.27699960937500000000e+04) (4, 3.27699023437500000000e+04) (5, 5.67009544372558593750e+01) (6, 3.27698398437500000000e+04) (7, 3.27699023437500000000e+04) (8, 3.27699335937500000000e+04) (9, 3.27699648437500000000e+04) (10, 3.27699648437500000000e+04) (11, 3.27698398437500000000e+04) (12, 3.27699648437500000000e+04) (13, 3.27699648437500000000e+04) (14, 3.27699335937500000000e+04) (15, 3.27698710937500000000e+04) (16, 3.27699023437500000000e+04) (17, 3.27699023437500000000e+04) (18, 3.27698398437500000000e+04) (19, 3.27700273437500000000e+04) (20, 3.27699648437500000000e+04) (21, 3.27698710937500000000e+04) (22, 3.27699960937500000000e+04) (23, 3.27699960937500000000e+04) (24, 3.27699335937500000000e+04) (25, 3.27699960937500000000e+04) (26, 3.27698398437500000000e+04) (27, 3.27700273437500000000e+04) (28, 3.27699335937500000000e+04) (29, 3.27698710937500000000e+04) (30, 3.27699960937500000000e+04) (31, 3.27699960937500000000e+04) (32, 3.27699960937500000000e+04) (33, 3.27699023437500000000e+04) (34, 3.27698710937500000000e+04) (35, 3.27700273437500000000e+04) (36, 3.27699023437500000000e+04) (37, 3.27699648437500000000e+04) (38, 3.27699648437500000000e+04) (39, 3.27700273437500000000e+04) (40, 3.27699023437500000000e+04) (41, 3.27699335937500000000e+04) (42, 3.27699023437500000000e+04) (43, 3.27700273437500000000e+04) (44, 3.27699335937500000000e+04) (45, 3.27699023437500000000e+04) (46, 3.27699023437500000000e+04) (47, 3.27698398437500000000e+04) (48, 3.27699023437500000000e+04) (49, 3.27699335937500000000e+04) (50, 3.95077854394912719727e-01) (0, 1.05302101562500000000e+05) (1, 1.05302101562500000000e+05) (2, 1.05302164062500000000e+05) (3, 1.05302101562500000000e+05) (4, 1.05302101562500000000e+05) (5, 5.67334632873535156250e+01) (6, 1.05302289062500000000e+05) (7, 1.05302257812500000000e+05) (8, 1.05302164062500000000e+05) (9, 1.05302226562500000000e+05) (10, 1.05302164062500000000e+05) (11, 1.05302164062500000000e+05) (12, 1.05302101562500000000e+05) (13, 1.05302164062500000000e+05) (14, 1.05302289062500000000e+05) (15, 1.05302101562500000000e+05) (16, 1.05302226562500000000e+05) (17, 1.05302289062500000000e+05) (18, 1.05302164062500000000e+05) (19, 1.05302132812500000000e+05) (20, 1.05302164062500000000e+05) (21, 1.05302164062500000000e+05) (22, 1.05302289062500000000e+05) (23, 1.05302101562500000000e+05) (24, 1.05302164062500000000e+05) (25, 1.05302226562500000000e+05) (26, 1.05302164062500000000e+05) (27, 1.05302257812500000000e+05) (28, 1.05302226562500000000e+05) (29, 1.05302164062500000000e+05) (30, 1.05302226562500000000e+05) (31, 1.05302101562500000000e+05) (32, 1.05302164062500000000e+05) (33, 1.05302164062500000000e+05) (34, 1.05302289062500000000e+05) (35, 1.05302101562500000000e+05) (36, 1.05302226562500000000e+05) (37, 1.05302257812500000000e+05) (38, 1.05302226562500000000e+05) (39, 1.05302164062500000000e+05) (40, 1.05302164062500000000e+05) (41, 1.05302226562500000000e+05) (42, 1.05302101562500000000e+05) (43, 1.05302164062500000000e+05) (44, 1.05302101562500000000e+05) (45, 1.05302226562500000000e+05) (46, 1.05302257812500000000e+05) (47, 1.05302257812500000000e+05) (48, 1.05302257812500000000e+05) (49, 1.05302132812500000000e+05) (50, -5.23344054818153381348e-02) (0, 2.69575117187500000000e+04) (1, 2.69576054687500000000e+04) (2, 2.69576679687500000000e+04) (3, 2.69575117187500000000e+04) (4, 2.69576679687500000000e+04) (5, 5.66472434997558593750e+01) (6, 2.69575429687500000000e+04) (7, 2.69574804687500000000e+04) (8, 2.69574804687500000000e+04) (9, 2.69576054687500000000e+04) (10, 2.69575117187500000000e+04) (11, 2.69575117187500000000e+04) (12, 2.69575429687500000000e+04) (13, 2.69575117187500000000e+04) (14, 2.69574804687500000000e+04) (15, 2.69575429687500000000e+04) (16, 2.69576054687500000000e+04) (17, 2.69575742187500000000e+04) (18, 2.69576679687500000000e+04) (19, 2.69576054687500000000e+04) (20, 2.69575117187500000000e+04) (21, 2.69576054687500000000e+04) (22, 2.69574804687500000000e+04) (23, 2.69576367187500000000e+04) (24, 2.69576679687500000000e+04) (25, 2.69576054687500000000e+04) (26, 2.69576679687500000000e+04) (27, 2.69575742187500000000e+04) (28, 2.69576054687500000000e+04) (29, 2.69575117187500000000e+04) (30, 2.69576679687500000000e+04) (31, 2.69576054687500000000e+04) (32, 2.69576679687500000000e+04) (33, 2.69575117187500000000e+04) (34, 2.69576054687500000000e+04) (35, 2.69575429687500000000e+04) (36, 2.69576679687500000000e+04) (37, 2.69576367187500000000e+04) (38, 2.69575429687500000000e+04) (39, 2.69576367187500000000e+04) (40, 2.69574804687500000000e+04) (41, 2.69574804687500000000e+04) (42, 2.69575429687500000000e+04) (43, 2.69575429687500000000e+04) (44, 2.69576679687500000000e+04) (45, 2.69576367187500000000e+04) (46, 2.69575117187500000000e+04) (47, 2.69575117187500000000e+04) (48, 2.69575742187500000000e+04) (49, 2.69574804687500000000e+04) (50, -2.78015318326652050018e-03) (0, -2.50289468750000000000e+05) (1, -2.50289593750000000000e+05) (2, -2.50289531250000000000e+05) (3, -2.50289531250000000000e+05) (4, -2.50289593750000000000e+05) (5, 5.65858802795410156250e+01) (6, -2.50289531250000000000e+05) (7, -2.50289531250000000000e+05) (8, -2.50289468750000000000e+05) (9, -2.50289531250000000000e+05) (10, -2.50289593750000000000e+05) (11, -2.50289531250000000000e+05) (12, -2.50289656250000000000e+05) (13, -2.50289531250000000000e+05) (14, -2.50289468750000000000e+05) (15, -2.50289593750000000000e+05) (16, -2.50289593750000000000e+05) (17, -2.50289656250000000000e+05) (18, -2.50289468750000000000e+05) (19, -2.50289593750000000000e+05) (20, -2.50289593750000000000e+05) (21, -2.50289468750000000000e+05) (22, -2.50289593750000000000e+05) (23, -2.50289593750000000000e+05) (24, -2.50289593750000000000e+05) (25, -2.50289468750000000000e+05) (26, -2.50289531250000000000e+05) (27, -2.50289531250000000000e+05) (28, -2.50289656250000000000e+05) (29, -2.50289531250000000000e+05) (30, -2.50289468750000000000e+05) (31, -2.50289531250000000000e+05) (32, -2.50289656250000000000e+05) (33, -2.50289593750000000000e+05) (34, -2.50289593750000000000e+05) (35, -2.50289593750000000000e+05) (36, -2.50289531250000000000e+05) (37, -2.50289656250000000000e+05) (38, -2.50289656250000000000e+05) (39, -2.50289593750000000000e+05) (40, -2.50289656250000000000e+05) (41, -2.50289531250000000000e+05) (42, -2.50289531250000000000e+05) (43, -2.50289531250000000000e+05) (44, -2.50289531250000000000e+05) (45, -2.50289468750000000000e+05) (46, -2.50289593750000000000e+05) (47, -2.50289531250000000000e+05) (48, -2.50289656250000000000e+05) (49, -2.50289531250000000000e+05) (50, -1.38488665223121643066e-01) (0, 1.54427500000000000000e+04) (1, 1.54427500000000000000e+04) (2, 1.54426875000000000000e+04) (3, 1.54426875000000000000e+04) (4, 1.54426875000000000000e+04) (5, 5.66928215026855468750e+01) (6, 1.54428125000000000000e+04) (7, 1.54426875000000000000e+04) (8, 1.54426875000000000000e+04) (9, 1.54426875000000000000e+04) (10, 1.54426875000000000000e+04) (11, 1.54427500000000000000e+04) (12, 1.54426875000000000000e+04) (13, 1.54428125000000000000e+04) (14, 1.54426875000000000000e+04) (15, 1.54426875000000000000e+04) (16, 1.54428125000000000000e+04) (17, 1.54426250000000000000e+04) (18, 1.54427500000000000000e+04) (19, 1.54427500000000000000e+04) (20, 1.54426875000000000000e+04) (21, 1.54426250000000000000e+04) (22, 1.54427500000000000000e+04) (23, 1.54426250000000000000e+04) (24, 1.54426250000000000000e+04) (25, 1.54427500000000000000e+04) (26, 1.54426875000000000000e+04) (27, 1.54427500000000000000e+04) (28, 1.54426875000000000000e+04) (29, 1.54426250000000000000e+04) (30, 1.54426250000000000000e+04) (31, 1.54427500000000000000e+04) (32, 1.54426875000000000000e+04) (33, 1.54426875000000000000e+04) (34, 1.54427500000000000000e+04) (35, 1.54426875000000000000e+04) (36, 1.54428125000000000000e+04) (37, 1.54427500000000000000e+04) (38, 1.54426250000000000000e+04) (39, 1.54426875000000000000e+04) (40, 1.54427500000000000000e+04) (41, 1.54428125000000000000e+04) (42, 1.54428125000000000000e+04) (43, 1.54427500000000000000e+04) (44, 1.54426875000000000000e+04) (45, 1.54426875000000000000e+04) (46, 1.54428125000000000000e+04) (47, 1.54426875000000000000e+04) (48, 1.54426875000000000000e+04) (49, 1.54427500000000000000e+04) (50, -1.92849427461624145508e-01) (0, -1.99310906250000000000e+05) (1, -1.99310781250000000000e+05) (2, -1.99311031250000000000e+05) (3, -1.99310906250000000000e+05) (4, -1.99310906250000000000e+05) (5, 5.66969108581542968750e+01) (6, -1.99310906250000000000e+05) (7, -1.99310781250000000000e+05) (8, -1.99310906250000000000e+05) (9, -1.99310906250000000000e+05) (10, -1.99310781250000000000e+05) (11, -1.99311031250000000000e+05) (12, -1.99311031250000000000e+05) (13, -1.99310906250000000000e+05) (14, -1.99310906250000000000e+05) (15, -1.99310781250000000000e+05) (16, -1.99310781250000000000e+05) (17, -1.99311031250000000000e+05) (18, -1.99310906250000000000e+05) (19, -1.99310781250000000000e+05) (20, -1.99310906250000000000e+05) (21, -1.99310781250000000000e+05) (22, -1.99311031250000000000e+05) (23, -1.99310906250000000000e+05) (24, -1.99310781250000000000e+05) (25, -1.99310906250000000000e+05) (26, -1.99310906250000000000e+05) (27, -1.99311031250000000000e+05) (28, -1.99311031250000000000e+05) (29, -1.99311031250000000000e+05) (30, -1.99311031250000000000e+05) (31, -1.99310906250000000000e+05) (32, -1.99310906250000000000e+05) (33, -1.99310906250000000000e+05) (34, -1.99310906250000000000e+05) (35, -1.99310906250000000000e+05) (36, -1.99310906250000000000e+05) (37, -1.99310906250000000000e+05) (38, -1.99310906250000000000e+05) (39, -1.99310906250000000000e+05) (40, -1.99310906250000000000e+05) (41, -1.99310906250000000000e+05) (42, -1.99310781250000000000e+05) (43, -1.99310781250000000000e+05) (44, -1.99311031250000000000e+05) (45, -1.99311031250000000000e+05) (46, -1.99310781250000000000e+05) (47, -1.99310906250000000000e+05) (48, -1.99310906250000000000e+05) (49, -1.99310906250000000000e+05) (50, -1.72111645340919494629e-01) (0, -6.31043593750000000000e+04) (1, -6.31044843750000000000e+04) (2, -6.31044843750000000000e+04) (3, -6.31044843750000000000e+04) (4, -6.31043593750000000000e+04) (5, 5.67370872497558593750e+01) (6, -6.31044843750000000000e+04) (7, -6.31044843750000000000e+04) (8, -6.31043593750000000000e+04) (9, -6.31044843750000000000e+04) (10, -6.31044843750000000000e+04) (11, -6.31043593750000000000e+04) (12, -6.31043593750000000000e+04) (13, -6.31043593750000000000e+04) (14, -6.31044843750000000000e+04) (15, -6.31043593750000000000e+04) (16, -6.31044843750000000000e+04) (17, -6.31044843750000000000e+04) (18, -6.31043593750000000000e+04) (19, -6.31043593750000000000e+04) (20, -6.31043593750000000000e+04) (21, -6.31043593750000000000e+04) (22, -6.31044843750000000000e+04) (23, -6.31044843750000000000e+04) (24, -6.31044843750000000000e+04) (25, -6.31043593750000000000e+04) (26, -6.31044843750000000000e+04) (27, -6.31043593750000000000e+04) (28, -6.31044843750000000000e+04) (29, -6.31044843750000000000e+04) (30, -6.31044843750000000000e+04) (31, -6.31044843750000000000e+04) (32, -6.31043593750000000000e+04) (33, -6.31043593750000000000e+04) (34, -6.31044843750000000000e+04) (35, -6.31044843750000000000e+04) (36, -6.31043593750000000000e+04) (37, -6.31043593750000000000e+04) (38, -6.31044843750000000000e+04) (39, -6.31044843750000000000e+04) (40, -6.31044843750000000000e+04) (41, -6.31044843750000000000e+04) (42, -6.31043593750000000000e+04) (43, -6.31043593750000000000e+04) (44, -6.31044843750000000000e+04) (45, -6.31043593750000000000e+04) (46, -6.31044843750000000000e+04) (47, -6.31044843750000000000e+04) (48, -6.31043593750000000000e+04) (49, -6.31043593750000000000e+04) (50, 2.85775363445281982422e-01) (0, 3.45272734375000000000e+04) (1, 3.45274296875000000000e+04) (2, 3.45273671875000000000e+04) (3, 3.45274296875000000000e+04) (4, 3.45272734375000000000e+04) (5, 5.65545463562011718750e+01) (6, 3.45273984375000000000e+04) (7, 3.45273046875000000000e+04) (8, 3.45273671875000000000e+04) (9, 3.45273046875000000000e+04) (10, 3.45272734375000000000e+04) (11, 3.45272734375000000000e+04) (12, 3.45272734375000000000e+04) (13, 3.45272734375000000000e+04) (14, 3.45273671875000000000e+04) (15, 3.45273671875000000000e+04) (16, 3.45272734375000000000e+04) (17, 3.45273671875000000000e+04) (18, 3.45273359375000000000e+04) (19, 3.45273671875000000000e+04) (20, 3.45273984375000000000e+04) (21, 3.45273984375000000000e+04) (22, 3.45273359375000000000e+04) (23, 3.45272734375000000000e+04) (24, 3.45274296875000000000e+04) (25, 