FANN_FLO_2.1
num_layers=7
learning_rate=0.700000
connection_rate=1.000000
network_type=1
learning_momentum=0.000000
training_algorithm=2
train_error_function=0
train_stop_function=1
cascade_output_change_fraction=0.010000
quickprop_decay=-0.000100
quickprop_mu=1.750000
rprop_increase_factor=1.200000
rprop_decrease_factor=0.500000
rprop_delta_min=0.000000
rprop_delta_max=50.000000
rprop_delta_zero=0.100000
cascade_output_stagnation_epochs=12
cascade_candidate_change_fraction=0.010000
cascade_candidate_stagnation_epochs=12
cascade_max_out_epochs=150
cascade_min_out_epochs=50
cascade_max_cand_epochs=150
cascade_min_cand_epochs=50
cascade_num_candidate_groups=8
bit_fail_limit=8.99999976158142089844e-01
cascade_candidate_limit=1.00000000000000000000e+03
cascade_weight_multiplier=4.00000005960464477539e-01
cascade_activation_functions_count=1
cascade_activation_functions=5 
cascade_activation_steepnesses_count=1
cascade_activation_steepnesses=1.00000000000000000000e+00 
layer_sizes=9 1 1 1 1 1 1 
scale_included=0
neurons (num_inputs, activation_function, activation_steepness)=(0, 0, 0.00000000000000000000e+00) (0, 0, 0.00000000000000000000e+00) (0, 0, 0.00000000000000000000e+00) (0, 0, 0.00000000000000000000e+00) (0, 0, 0.00000000000000000000e+00) (0, 0, 0.00000000000000000000e+00) (0, 0, 0.00000000000000000000e+00) (0, 0, 0.00000000000000000000e+00) (0, 0, 0.00000000000000000000e+00) (9, 5, 1.00000000000000000000e+00) (10, 5, 1.00000000000000000000e+00) (11, 5, 1.00000000000000000000e+00) (12, 5, 1.00000000000000000000e+00) (13, 5, 1.00000000000000000000e+00) (14, 0, 5.00000000000000000000e-01) 
connections (connected_to_neuron, weight)=(0, 1.78594195842742919922e+00) (1, 1.78512787818908691406e+00) (2, 1.78501343727111816406e+00) (3, 1.78614211082458496094e+00) (4, 1.78550112247467041016e+00) (5, 1.78323721885681152344e+00) (6, 1.78573298454284667969e+00) (7, 1.78422021865844726563e+00) (8, -1.78523254394531250000e+00) (0, 1.55261290073394775391e+00) (1, 1.55246901512145996094e+00) (2, 1.55029153823852539063e+00) (3, 1.54622423648834228516e+00) (4, 1.55987477302551269531e+00) (5, 1.55877900123596191406e+00) (6, 1.55848288536071777344e+00) (7, 1.54994893074035644531e+00) (8, -1.55256271362304687500e+00) (9, -2.79917192459106445313e+00) (0, 1.71307945251464843750e+00) (1, 1.71327555179595947266e+00) (2, 1.70585584640502929688e+00) (3, 1.71652162075042724609e+00) (4, 1.72594368457794189453e+00) (5, 1.73436653614044189453e+00) (6, 1.73452806472778320313e+00) (7, 1.70586204528808593750e+00) (8, -1.72147917747497558594e+00) (9, -3.69062280654907226563e+00) (10, -2.25685191154479980469e+00) (0, -6.41095817089080810547e-01) (1, -6.41077578067779541016e-01) (2, -6.36683940887451171875e-01) (3, -6.47932946681976318359e-01) (4, -6.50120913982391357422e-01) (5, -6.55641436576843261719e-01) (6, -6.57671689987182617188e-01) (7, -6.36341571807861328125e-01) (8, 6.51486575603485107422e-01) (9, 1.51970279216766357422e+00) (10, 1.02419674396514892578e+00) (11, 9.28961575031280517578e-01) (0, 1.54261505603790283203e+00) (1, 1.54248392581939697266e+00) (2, 1.52068734169006347656e+00) (3, 1.56047630310058593750e+00) (4, 1.56165337562561035156e+00) (5, 1.56722927093505859375e+00) (6, 1.58388268947601318359e+00) (7, 1.52505862712860107422e+00) (8, -1.56973361968994140625e+00) (9, -3.70105314254760742188e+00) (10, -2.52279543876647949219e+00) (11, -2.41831612586975097656e+00) (12, 3.88423871994018554688e+00) (0, -3.72658967971801757813e-01) (1, -3.74255180358886718750e-01) (2, -2.90990233421325683594e-01) (3, -3.82442653179168701172e-01) (4, -3.85095119476318359375e-01) (5, -3.39341402053833007813e-01) (6, -4.02320444583892822266e-01) (7, -3.59842300415039062500e-01) (8, 5.12926757335662841797e-01) (9, 2.15906095504760742188e+00) (10, -5.41446328163146972656e-01) (11, 3.20437669754028320313e+00) (12, 1.59677433967590332031e+00) (13, 2.83271455764770507813e+00) 
